<?xml version="1.0" encoding="UTF-8"?>
<!-- This network was created in GeNIe Academic, which can be used for academic teaching and research purposes only -->
<smile version="1.0" id="anb_mushroom_discretized" numsamples="10000" discsamples="10000">
	<nodes>
		<cpt id="class" diagtype="target">
			<state id="State0" />
			<state id="State1" fault="true" />
			<probabilities>0.4508189136670677 0.5491810863329324</probabilities>
		</cpt>
		<cpt id="stem_color" diagtype="observation" ranked="true">
			<state id="State0" />
			<state id="State1" />
			<state id="State2" />
			<state id="State3" />
			<state id="State4" />
			<state id="State5" />
			<state id="State6" />
			<state id="State7" />
			<state id="State8" />
			<state id="State9" />
			<state id="State10" />
			<state id="State11" />
			<state id="State12" />
			<parents>class</parents>
			<probabilities>0.007104672348299457 0.02208763692282431 3.157632154799759e-06 0.0654356111439154 3.157632154799759e-06 0.004313325523456471 0.2371034408717591 0.03522338668679131 0.005421654409791185 0.004682768485568043 0.02188239083276233 0.4943588901554503 0.1023799073550726 2.592097214013914e-06 0.04650481611662364 0.03568799444254357 0.03477816832042468 0.0194122160357502 0.004079961014857901 0.3214744885792197 0.03336288324157309 0.03009424865470154 0.01439132373220525 0.02898223894988958 0.2788137526309787 0.1524153161840182</probabilities>
		</cpt>
		<cpt id="stem_height" diagtype="observation" ranked="true">
			<state id="stemh1_below_024" />
			<state id="stemh2_024_078" />
			<state id="stemh3_078_156" />
			<state id="stemh4_156_193" />
			<state id="stemh5_193_211" />
			<state id="stemh6_211_up" />
			<parents>stem_color class</parents>
			<probabilities>0.1906130268199234 0.5411877394636017 0.2653256704980843 0.0009578544061302683 0.0009578544061302683 0.0009578544061302683 0.1666666666666667 0.1666666666666667 0.1666666666666667 0.1666666666666667 0.1666666666666667 0.1666666666666667 0.3138528138528139 0.5754483611626471 0.1097711811997527 0.0003092145949288807 0.0003092145949288807 0.0003092145949288807 0.2376811594202899 0.4355072463768116 0.3152173913043478 0.01014492753623188 0.0007246376811594203 0.0007246376811594203 0.1666666666666667 0.1666666666666667 0.1666666666666667 0.1666666666666667 0.1666666666666667 0.1666666666666667 0.0001572327044025157 0.0001572327044025157 0.0001572327044025157 0.0001572327044025157 0.9992138364779872 0.0001572327044025157 0.2621734587251828 0.6339602925809822 0.1035527690700104 0.0001044932079414838 0.0001044932079414838 0.0001044932079414838 0.1231042271700548 0.5016134236850596 0.3341400451758632 0.03307518554372377 0.007905776056792511 0.0001613423685059696 0.1666666666666667 0.1666666666666667 0.1666666666666667 0.1666666666666667 0.1666666666666667 0.1666666666666667 0.1822645869439631 0.3382437897169267 0.478625072212594 0.0002888503755054882 0.0002888503755054882 0.0002888503755054882 0.6053459119496855 0.3883647798742138 0.001572327044025157 0.001572327044025157 0.001572327044025157 0.001572327044025157 0.6407103825136612 0.3456284153005464 0.009562841530054643 0.001366120218579235 0.001366120218579235 0.001366120218579235 0.2590027700831025 0.4797437673130194 0.2126038781163435 0.01679362880886427 0.004501385041551247 0.02735457063711911 0.1788259958071279 0.3553459119496855 0.3334381551362683 0.07327044025157232 0.0140461215932914 0.0450733752620545 0.3715560729530463 0.3506014745828483 0.2679472254559566 0.0083430345362825 0.001358168412883198 0.0001940240589833139 0.3664648503195426 0.2423477968382106 0.3886646485031954 0.002186343760511268 0.0001681802892700975 0.0001681802892700975 0.3471177944862156 0.4974937343358397 0.1516290726817043 0.001253132832080201 0.001253132832080201 0.001253132832080201 0.0359806114839672 0.604213273676361 0.3592468307233408 0.0001864280387770321 0.0001864280387770321 0.0001864280387770321 0.6101449275362318 0.3840579710144927 0.00144927536231884 0.00144927536231884 0.00144927536231884 0.00144927536231884 0.03309968847352024 0.9466510903426789 0.0190809968847352 0.0003894080996884734 0.0003894080996884734 0.0003894080996884734 0.2681023720349563 0.5696004993757805 0.1613607990012485 0.0003121098626716605 0.0003121098626716605 0.0003121098626716605 0.2394502516453736 0.3857917150600078 0.3312040263259776 0.03968253968253969 0.003677893921796361 0.0001935733643050716 0.2556671925599934 0.3749065847380221 0.2648841650751474 0.03520717429211991 0.01220626089844723 0.05712862243627003 0.1965192168237854 0.3182257674643462 0.2633550882281847 0.07952622673434856 0.05015711868503746 0.09221658206429781 0.3668002672010688 0.4978623914495659 0.133934535738143 0.001269205076820307 6.68002672010688e-05 6.68002672010688e-05 0.1693566217112536 0.3564006190581472 0.3964183064337829 0.0561574176431572 0.008622595622374531 0.01304443953128455</probabilities>
		</cpt>
		<cpt id="gill_color" diagtype="observation" ranked="true">
			<state id="State0" />
			<state id="State1" />
			<state id="State2" />
			<state id="State3" />
			<state id="State4" />
			<state id="State5" />
			<state id="State6" />
			<state id="State7" />
			<state id="State8" />
			<state id="State9" />
			<state id="State10" />
			<state id="State11" />
			<parents>stem_height stem_color class</parents>
			<probabilities>0.502450980392157 0.002450980392156863 0.002450980392156863 0.002450980392156863 0.002450980392156863 0.002450980392156863 0.002450980392156863 0.002450980392156863 0.002450980392156863 0.4730392156862746 0.002450980392156863 0.002450980392156863 0.08333333333333333 0.08333333333333333 0.08333333333333333 0.08333333333333333 0.08333333333333333 0.08333333333333333 0.08333333333333333 0.08333333333333333 0.08333333333333333 0.08333333333333333 0.08333333333333333 0.08333333333333333 0.0004901960784313725 0.01225490196078432 0.0004901960784313725 0.0004901960784313725 0.0004901960784313725 0.4475490196078431 0.01225490196078432 0.0004901960784313725 0.2416666666666667 0.0004901960784313725 0.0004901960784313725 0.282843137254902 0.1005572441742655 0.042806484295846 0.0002532928064842958 0.0002532928064842958 0.0002532928064842958 0.09447821681864235 0.01849037487335359 0.1127152988855117 0.0002532928064842958 0.0002532928064842958 0.3558763931104357 0.2738095238095238 0.08333333333333333 0.08333333333333333 0.08333333333333333 0.08333333333333333 0.08333333333333333 0.08333333333333333 0.08333333333333333 0.08333333333333333 0.08333333333333333 0.08333333333333333 0.08333333333333333 0.08333333333333333 0.08333333333333333 0.08333333333333333 0.08333333333333333 0.08333333333333333 0.08333333333333333 0.08333333333333333 0.08333333333333333 0.08333333333333333 0.08333333333333333 0.08333333333333333 0.08333333333333333 0.08333333333333333 0.0001988862370723945 0.0001988862370723945 0.0001988862370723945 0.3033015115354017 0.0001988862370723945 0.2651153540175019 0.0001988862370723945 0.004972155926809865 0.0001988862370723945 0.0001988862370723945 0.4250198886237072 0.0001988862370723945 0.01627604166666667 0.0006510416666666667 0.0006510416666666667 0.07877604166666669 0.008463541666666668 0.04752604166666668 0.0006510416666666667 0.8287760416666669 0.0006510416666666667 0.008463541666666668 0.008463541666666668 0.0006510416666666667 0.08333333333333333 0.08333333333333333 0.08333333333333333 0.08333333333333333 0.08333333333333333 0.08333333333333333 0.08333333333333333 0.08333333333333333 0.08333333333333333 0.08333333333333333 0.08333333333333333 0.08333333333333333 0.0007861635220125787 0.0007861635220125787 0.0007861635220125787 0.1422955974842768 0.0668238993710692 0.0007861635220125787 0.0007861635220125787 0.0007861635220125787 0.0007861635220125787 0.0007861635220125787 0.0007861635220125787 0.7838050314465409 0.001282051282051282 0.001282051282051282 0.001282051282051282 0.001282051282051282 0.001282051282051282 0.001282051282051282 0.001282051282051282 0.001282051282051282 0.9858974358974359 0.001282051282051282 0.001282051282051282 0.001282051282051282 0.001054852320675105 0.001054852320675105 0.001054852320675105 0.3681434599156118 0.001054852320675105 0.3554852320675105 0.001054852320675105 0.001054852320675105 0.001054852320675105 0.2668776371308016 0.001054852320675105 0.001054852320675105 5.566688933422401e-05 5.566688933422401e-05 0.1015920730349588 0.04280783789801826 5.566688933422401e-05 0.08288799821865954 5.566688933422401e-05 0.2098085059006903 5.566688933422401e-05 5.566688933422401e-05 0.4168893342240036 0.1456802493876642 0.02348174184729546 0.02348174184729546 4.881859011911737e-05 0.06976176528021871 0.00649287248584261 0.3820054676820934 4.881859011911737e-05 0.1230716656902949 0.01528021870728373 0.01410857254442492 0.1552919351689123 0.1869263815661004 0.0002604166666666667 0.00651041666666667 0.3596354166666668 0.0002604166666666667 0.0002604166666666667 0.0002604166666666667 0.4502604166666668 0.0002604166666666667 0.0002604166666666667 0.0002604166666666667 0.1002604166666667 0.0815104166666667 0.0002289377289377289 0.0002289377289377289 0.0002289377289377289 0.02495421245421246 0.03869047619047619 0.0002289377289377289 0.01121794871794872 0.0002289377289377289 0.0002289377289377289 0.0002289377289377289 0.0002289377289377289 0.9233058608058609 0.00177304964539007 0.00177304964539007 0.00177304964539007 0.00177304964539007 0.00177304964539007 0.9804964539007089 0.00177304964539007 0.00177304964539007 0.00177304964539007 0.00177304964539007 0.00177304964539007 0.00177304964539007 0.002525252525252524 0.002525252525252524 0.002525252525252524 0.002525252525252524 0.002525252525252524 0.002525252525252524 0.002525252525252524 0.9722222222222219 0.002525252525252524 0.002525252525252524 0.002525252525252524 0.002525252525252524 0.001173708920187793 0.001173708920187793 0.001173708920187793 0.001173708920187793 0.001173708920187793 0.001173708920187793 0.001173708920187793 0.001173708920187793 0.9870892018779344 0.001173708920187793 0.001173708920187793 0.001173708920187793 0.07222222222222222 0.005555555555555555 0.005555555555555555 0.005555555555555555 0.005555555555555555 0.1388888888888889 0.005555555555555555 0.005555555555555555 0.07222222222222222 0.005555555555555555 0.2722222222222222 0.4055555555555555 0.1116898148148148 0.0005787037037037037 0.0005787037037037037 0.4519675925925926 0.0005787037037037037 0.0005787037037037037 0.0005787037037037037 0.3130787037037037 0.0005787037037037037 0.1186342592592592 0.0005787037037037037 0.0005787037037037037 0.0004025764895330112 0.03904991948470209 0.0004025764895330112 0.3723832528180354 0.0004025764895330112 0.0004025764895330112 0.01972624798711755 0.0004025764895330112 0.0004025764895330112 0.3675523349436393 0.0004025764895330112 0.1984702093397746 0.03801406926406927 2.705627705627706e-05 2.705627705627706e-05 0.01755952380952381 0.1010010822510823 0.1402867965367965 0.1639880952380953 0.04418290043290044 0.0266504329004329 0.05262445887445889 0.3522997835497836 0.0633387445887446 5.121901249743904e-05 5.121901249743904e-05 0.04307518951034624 0.06274329030936283 0.001895103462405245 0.2047223929522639 0.0436898176603155 0.0553677525097316 0.1205183364064741 0.05659700880967014 0.3227309977463634 0.08855767260807211 9.097525473071324e-05 0.001182678311499272 0.2304403202328967 9.097525473071324e-05 9.097525473071324e-05 0.001182678311499272 9.097525473071324e-05 9.097525473071324e-05 0.06668486171761281 9.097525473071324e-05 0.4476892285298398 0.2522743813682679 0.0001086484137331595 0.05617122990004347 0.0001086484137331595 0.08615819209039549 0.01053889613211647 0.2334854411125598 0.01053889613211647 0.0001086484137331595 0.01053889613211647 0.0001086484137331595 0.004019991308126902 0.5881138635375924 0.5166666666666666 0.0008771929824561402 0.0008771929824561402 0.0008771929824561402 0.0008771929824561402 0.0008771929824561402 0.0008771929824561402 0.0008771929824561402 0.0008771929824561402 0.4745614035087719 0.0008771929824561402 0.0008771929824561402 0.08333333333333333 0.08333333333333333 0.08333333333333333 0.08333333333333333 0.08333333333333333 0.08333333333333333 0.08333333333333333 0.08333333333333333 0.08333333333333333 0.08333333333333333 0.08333333333333333 0.08333333333333333 0.0002679528403001072 0.1771168274383709 0.0002679528403001072 0.0002679528403001072 0.0002679528403001072 0.3185959271168274 0.2285637727759914 0.0002679528403001072 0.1385316184351554 0.0002679528403001072 0.0002679528403001072 0.1353161843515542 0.04831118493909194 0.4486434108527133 0.0001384274640088594 0.0001384274640088594 0.0001384274640088594 0.05827796234772982 0.04332779623477299 0.03834440753045405 0.0001384274640088594 0.0001384274640088594 0.1961517165005538 0.1662513842746401 0.08333333333333333 0.08333333333333333 0.08333333333333333 0.08333333333333333 0.08333333333333333 0.08333333333333333 0.08333333333333333 0.08333333333333333 0.08333333333333333 0.08333333333333333 0.08333333333333333 0.08333333333333333 0.08333333333333333 0.08333333333333333 0.08333333333333333 0.08333333333333333 0.08333333333333333 0.08333333333333333 0.08333333333333333 0.08333333333333333 0.08333333333333333 0.08333333333333333 0.08333333333333333 0.08333333333333333 8.23451910408432e-05 8.23451910408432e-05 8.23451910408432e-05 0.3696475625823452 8.23451910408432e-05 0.07024044795783925 8.23451910408432e-05 0.1216238471673254 8.23451910408432e-05 8.23451910408432e-05 0.4378293807641633 8.23451910408432e-05 0.07337829158638408 0.0001605651894669236 0.025208734746307 0.4163455362877329 0.03098908156711625 0.1003532434168272 0.0001605651894669236 0.1138407193320488 0.0001605651894669236 0.03484264611432241 0.2043994861913937 0.0001605651894669236 0.08333333333333333 0.08333333333333333 0.08333333333333333 0.08333333333333333 0.08333333333333333 0.08333333333333333 0.08333333333333333 0.08333333333333333 0.08333333333333333 0.08333333333333333 0.08333333333333333 0.08333333333333333 0.0004251700680272108 0.0004251700680272108 0.0004251700680272108 0.08205782312925169 0.1228741496598639 0.219812925170068 0.0004251700680272108 0.2555272108843537 0.0004251700680272108 0.0004251700680272108 0.0004251700680272108 0.3167517006802721 0.001984126984126984 0.001984126984126984 0.001984126984126984 0.001984126984126984 0.001984126984126984 0.001984126984126984 0.001984126984126984 0.001984126984126984 0.978174603174603 0.001984126984126984 0.001984126984126984 0.001984126984126984 0.001937984496124031 0.001937984496124031 0.001937984496124031 0.3275193798449613 0.001937984496124031 0.3042635658914729 0.001937984496124031 0.001937984496124031 0.001937984496124031 0.3507751937984496 0.001937984496124031 0.001937984496124031 3.006253006253006e-05 0.01518157768157768 0.07903439153439154 0.03538359788359789 3.006253006253006e-05 0.1313431938431938 3.006253006253006e-05 0.1937530062530063 3.006253006253006e-05 3.006253006253006e-05 0.3697991822991823 0.1753547378547378 0.01624397916052295 0.006807234837314459 0.01211540351911924 0.1032389658901012 0.0592991251351617 0.3435810478718175 2.457485500835545e-05 0.1224073527966185 0.01535928438022215 0.005037845276712866 0.1577951440086503 0.1580900422687506 0.0002759381898454746 0.1823951434878587 0.1890176600441501 0.0002759381898454746 0.0002759381898454746 0.02345474613686534 0.2386865342163355 0.0002759381898454746 0.0002759381898454746 0.0002759381898454746 0.1559050772626932 0.2088852097130243 0.0003457814661134162 0.0003457814661134162 0.0003457814661134162 0.06673582295988933 0.0957814661134163 0.0003457814661134162 0.5397648686030428 0.0003457814661134162 0.0003457814661134162 0.0003457814661134162 0.0003457814661134162 0.294951590594744 0.001243781094527364 0.001243781094527364 0.001243781094527364 0.001243781094527364 0.001243781094527364 0.9863184079601994 0.001243781094527364 0.001243781094527364 0.001243781094527364 0.001243781094527364 0.001243781094527364 0.001243781094527364 0.0001540357362908194 0.0001540357362908194 0.0001540357362908194 0.0001540357362908194 0.0001540357362908194 0.0001540357362908194 0.0001540357362908194 0.9983056069008007 0.0001540357362908194 0.0001540357362908194 0.0001540357362908194 0.0001540357362908194 0.001851851851851851 0.001851851851851851 0.001851851851851851 0.001851851851851851 0.001851851851851851 0.001851851851851851 0.001851851851851851 0.001851851851851851 0.9796296296296295 0.001851851851851851 0.001851851851851851 0.001851851851851851 0.1036535303776683 0.0002052545155993432 0.0002052545155993432 0.1332101806239737 0.0002052545155993432 0.09626436781609196 0.0002052545155993432 0.0002052545155993432 0.1898604269293925 0.0002052545155993432 0.2243431855500821 0.2514367816091954 0.1609289617486339 0.000273224043715847 0.000273224043715847 0.3609289617486339 0.000273224043715847 0.000273224043715847 0.000273224043715847 0.3117486338797814 0.000273224043715847 0.1642076502732241 0.000273224043715847 0.000273224043715847 0.0002502502502502502 0.07832832832832834 0.0002502502502502502 0.2555055055055055 0.0002502502502502502 0.02727727727727728 0.09634634634634637 0.0002502502502502502 0.0002502502502502502 0.3335835835835836 0.01526526526526527 0.1924424424424425 0.09124963094183644 1.845290817832891e-05 1.845290817832891e-05 0.0655631827576026 0.09634263359905522 0.09877841747859464 0.06002731030410393 0.04031960436964867 0.01153306761145557 0.02194050782403307 0.4076801003838205 0.1065286389134928 3.163756011136421e-05 3.163756011136421e-05 0.03913566185775753 0.0421728676284485 0.008763604150847886 0.1446785623892685 0.09608327005821311 0.09798152366489496 0.06191470513793977 0.0228106808402936 0.4385282207036194 0.04786762844849405 6.704210244033254e-05 0.03546527219093592 0.1915392866720301 6.704210244033254e-05 6.704210244033254e-05 0.03144274604451597 6.704210244033254e-05 6.704210244033254e-05 0.02661571466881202 6.704210244033254e-05 0.3250871547331725 0.3894475730758917 5.16635668526555e-05 0.02485017565612729 0.01865054763380863 0.07630708824137217 0.01679065922711304 0.1717813597850795 0.1017255631328787 5.16635668526555e-05 0.04964868774540193 5.16635668526555e-05 0.0775470138458359 0.4625439140318247 0.4698581560283688 0.001773049645390071 0.001773049645390071 0.001773049645390071 0.001773049645390071 0.001773049645390071 0.001773049645390071 0.001773049645390071 0.001773049645390071 0.5124113475177305 0.001773049645390071 0.001773049645390071 0.08333333333333333 0.08333333333333333 0.08333333333333333 0.08333333333333333 0.08333333333333333 0.08333333333333333 0.08333333333333333 0.08333333333333333 0.08333333333333333 0.08333333333333333 0.08333333333333333 0.08333333333333333 0.001388888888888889 0.3847222222222221 0.001388888888888889 0.001388888888888889 0.001388888888888889 0.1013888888888889 0.5013888888888888 0.001388888888888889 0.001388888888888889 0.001388888888888889 0.001388888888888889 0.001388888888888889 0.000191131498470948 0.3648700305810397 0.000191131498470948 0.000191131498470948 0.000191131498470948 0.02312691131498471 0.1056957186544342 0.002484709480122324 0.000191131498470948 0.000191131498470948 0.4657874617737003 0.03688837920489296 0.08333333333333333 0.08333333333333333 0.08333333333333333 0.08333333333333333 0.08333333333333333 0.08333333333333333 0.08333333333333333 0.08333333333333333 0.08333333333333333 0.08333333333333333 0.08333333333333333 0.08333333333333333 0.08333333333333333 0.08333333333333333 0.08333333333333333 0.08333333333333333 0.08333333333333333 0.08333333333333333 0.08333333333333333 0.08333333333333333 0.08333333333333333 0.08333333333333333 0.08333333333333333 0.08333333333333333 0.0005020080321285139 0.0005020080321285139 0.0005020080321285139 0.2233935742971887 0.0005020080321285139 0.0005020080321285139 0.0005020080321285139 0.3378514056224899 0.0005020080321285139 0.0005020080321285139 0.4342369477911645 0.0005020080321285139 0.003131021194605011 0.0002408477842003854 0.4539980732177266 0.008911368015414263 0.1765414258188825 0.2516859344894028 0.0002408477842003854 0.0002408477842003854 0.0002408477842003854 0.1042870905587669 0.0002408477842003854 0.0002408477842003854 0.08333333333333333 0.08333333333333333 0.08333333333333333 0.08333333333333333 0.08333333333333333 0.08333333333333333 0.08333333333333333 0.08333333333333333 0.08333333333333333 0.08333333333333333 0.08333333333333333 0.08333333333333333 0.0003008423586040915 0.0003008423586040915 0.0003008423586040915 0.02196149217809868 0.007521058965102288 0.4082430806257522 0.0003008423586040915 0.5309867629362215 0.0003008423586040915 0.0003008423586040915 0.0003008423586040915 0.02918170878459688 0.08333333333333333 0.08333333333333333 0.08333333333333333 0.08333333333333333 0.08333333333333333 0.08333333333333333 0.08333333333333333 0.08333333333333333 0.08333333333333333 0.08333333333333333 0.08333333333333333 0.08333333333333333 0.04166666666666669 0.04166666666666669 0.04166666666666669 0.5416666666666669 0.04166666666666669 0.04166666666666669 0.04166666666666669 0.04166666666666669 0.04166666666666669 0.04166666666666669 0.04166666666666669 0.04166666666666669 6.780580417683755e-05 0.009831841605641446 0.02122321670735015 0.0139001898562517 6.780580417683755e-05 0.1684974233794413 6.780580417683755e-05 0.08794412801735831 6.780580417683755e-05 6.780580417683755e-05 0.3849335503119068 0.3133306211011663 0.0003404567358055729 2.618897967735177e-05 0.1537031217263775 0.05250890425309029 0.07199350513304001 0.3636339828200292 2.618897967735177e-05 0.1499319086528389 0.001597527760318458 0.01228263146867798 0.1034202807458621 0.09053530274460506 0.0003607503607503606 0.1388888888888889 0.0003607503607503606 0.0003607503607503606 0.0003607503607503606 0.3207070707070706 0.09992784992784991 0.0003607503607503606 0.0003607503607503606 0.0003607503607503606 0.04365079365079364 0.3943001443001442 0.0002158894645941278 0.0002158894645941278 0.0002158894645941278 0.01316925734024179 0.01835060449050086 0.0002158894645941278 0.5209412780656304 0.0002158894645941278 0.0002158894645941278 0.0002158894645941278 0.0002158894645941278 0.4458117443868739 0.00396825396825397 0.00396825396825397 0.00396825396825397 0.00396825396825397 0.00396825396825397 0.9563492063492066 0.00396825396825397 0.00396825396825397 0.00396825396825397 0.00396825396825397 0.00396825396825397 0.00396825396825397 0.0002587991718426502 0.0002587991718426502 0.0002587991718426502 0.0002587991718426502 0.0002587991718426502 0.0002587991718426502 0.0002587991718426502 0.9971532091097312 0.0002587991718426502 0.0002587991718426502 0.0002587991718426502 0.0002587991718426502 0.08333333333333333 0.08333333333333333 0.08333333333333333 0.08333333333333333 0.08333333333333333 0.08333333333333333 0.08333333333333333 0.08333333333333333 0.08333333333333333 0.08333333333333333 0.08333333333333333 0.08333333333333333 0.1203703703703703 0.009259259259259259 0.009259259259259259 0.009259259259259259 0.009259259259259259 0.009259259259259259 0.009259259259259259 0.009259259259259259 0.2314814814814815 0.009259259259259259 0.5648148148148148 0.009259259259259259 0.2653256704980843 0.0009578544061302681 0.0009578544061302681 0.2768199233716475 0.0009578544061302681 0.0009578544061302681 0.0009578544061302681 0.1618773946360153 0.0009578544061302681 0.2883141762452107 0.0009578544061302681 0.0009578544061302681 0.0002913752913752914 0.1436480186480187 0.0002913752913752914 0.01777389277389277 0.0002913752913752914 0.3324592074592074 0.1296620046620047 0.0002913752913752914 0.0002913752913752914 0.1856060606060606 0.1366550116550117 0.05273892773892774 0.001593022041157422 2.611511542881019e-05 2.611511542881019e-05 0.1423012639715867 0.01068108221038337 0.03324454194087537 0.03261777917058393 0.1730126397158676 2.611511542881019e-05 2.611511542881019e-05 0.4729186253003238 0.1335265851875065 3.82262996941896e-05 3.82262996941896e-05 0.0004969418960244648 0.0202217125382263 0.03306574923547401 0.08352446483180428 0.01334097859327217 0.1426987767584098 0.008295107033639143 3.82262996941896e-05 0.6215978593272171 0.07664373088685016 0.0002487562189054726 0.03308457711442786 0.2509950248756219 0.0002487562189054726 0.0002487562189054726 0.05099502487562189 0.0002487562189054726 0.0002487562189054726 0.0002487562189054726 0.0002487562189054726 0.2509950248756219 0.4121890547263682 4.645113340765513e-05 0.04352471200297286 0.180091044221479 0.06526384243775546 0.002276105536975102 0.05188591601635079 0.1572370865849126 4.645113340765513e-05 0.0619193608324043 4.645113340765513e-05 0.1014957264957265 0.3361668524712003 0.08333333333333333 0.08333333333333333 0.08333333333333333 0.08333333333333333 0.08333333333333333 0.08333333333333333 0.08333333333333333 0.08333333333333333 0.08333333333333333 0.08333333333333333 0.08333333333333333 0.08333333333333333 0.08333333333333333 0.08333333333333333 0.08333333333333333 0.08333333333333333 0.08333333333333333 0.08333333333333333 0.08333333333333333 0.08333333333333333 0.08333333333333333 0.08333333333333333 0.08333333333333333 0.08333333333333333 0.08333333333333333 0.08333333333333333 0.08333333333333333 0.08333333333333333 0.08333333333333333 0.08333333333333333 0.08333333333333333 0.08333333333333333 0.08333333333333333 0.08333333333333333 0.08333333333333333 0.08333333333333333 0.005555555555555554 0.4722222222222221 0.005555555555555554 0.005555555555555554 0.005555555555555554 0.005555555555555554 0.4055555555555554 0.005555555555555554 0.005555555555555554 0.005555555555555554 0.0722222222222222 0.005555555555555554 0.08333333333333333 0.08333333333333333 0.08333333333333333 0.08333333333333333 0.08333333333333333 0.08333333333333333 0.08333333333333333 0.08333333333333333 0.08333333333333333 0.08333333333333333 0.08333333333333333 0.08333333333333333 0.08333333333333333 0.08333333333333333 0.08333333333333333 0.08333333333333333 0.08333333333333333 0.08333333333333333 0.08333333333333333 0.08333333333333333 0.08333333333333333 0.08333333333333333 0.08333333333333333 0.08333333333333333 0.08333333333333333 0.08333333333333333 0.08333333333333333 0.08333333333333333 0.08333333333333333 0.08333333333333333 0.08333333333333333 0.08333333333333333 0.08333333333333333 0.08333333333333333 0.08333333333333333 0.08333333333333333 0.002380952380952381 0.002380952380952381 0.03095238095238095 0.002380952380952381 0.3452380952380952 0.4023809523809524 0.002380952380952381 0.002380952380952381 0.002380952380952381 0.2023809523809524 0.002380952380952381 0.002380952380952381 0.08333333333333333 0.08333333333333333 0.08333333333333333 0.08333333333333333 0.08333333333333333 0.08333333333333333 0.08333333333333333 0.08333333333333333 0.08333333333333333 0.08333333333333333 0.08333333333333333 0.08333333333333333 0.08333333333333333 0.08333333333333333 0.08333333333333333 0.08333333333333333 0.08333333333333333 0.08333333333333333 0.08333333333333333 0.08333333333333333 0.08333333333333333 0.08333333333333333 0.08333333333333333 0.08333333333333333 0.08333333333333333 0.08333333333333333 0.08333333333333333 0.08333333333333333 0.08333333333333333 0.08333333333333333 0.08333333333333333 0.08333333333333333 0.08333333333333333 0.08333333333333333 0.08333333333333333 0.08333333333333333 0.08333333333333333 0.08333333333333333 0.08333333333333333 0.08333333333333333 0.08333333333333333 0.08333333333333333 0.08333333333333333 0.08333333333333333 0.08333333333333333 0.08333333333333333 0.08333333333333333 0.08333333333333333 0.0008503401360544216 0.0008503401360544216 0.0008503401360544216 0.0008503401360544216 0.0008503401360544216 0.09268707482993196 0.0008503401360544216 0.0008503401360544216 0.0008503401360544216 0.0008503401360544216 0.6335034013605442 0.266156462585034 0.000119047619047619 0.000119047619047619 0.00726190476190476 0.001547619047619047 0.02011904761904762 0.561547619047619 0.09869047619047616 0.07583333333333332 0.000119047619047619 0.008690476190476189 0.1029761904761905 0.1229761904761904 0.01041666666666667 0.01041666666666667 0.01041666666666667 0.01041666666666667 0.01041666666666667 0.3854166666666667 0.01041666666666667 0.01041666666666667 0.01041666666666667 0.01041666666666667 0.01041666666666667 0.5104166666666666 0.02777777777777778 0.02777777777777778 0.02777777777777778 0.02777777777777778 0.02777777777777778 0.02777777777777778 0.02777777777777778 0.02777777777777778 0.02777777777777778 0.02777777777777778 0.02777777777777778 0.6944444444444444 0.08333333333333333 0.08333333333333333 0.08333333333333333 0.08333333333333333 0.08333333333333333 0.08333333333333333 0.08333333333333333 0.08333333333333333 0.08333333333333333 0.08333333333333333 0.08333333333333333 0.08333333333333333 0.08333333333333333 0.08333333333333333 0.08333333333333333 0.08333333333333333 0.08333333333333333 0.08333333333333333 0.08333333333333333 0.08333333333333333 0.08333333333333333 0.08333333333333333 0.08333333333333333 0.08333333333333333 0.08333333333333333 0.08333333333333333 0.08333333333333333 0.08333333333333333 0.08333333333333333 0.08333333333333333 0.08333333333333333 0.08333333333333333 0.08333333333333333 0.08333333333333333 0.08333333333333333 0.08333333333333333 0.08333333333333333 0.08333333333333333 0.08333333333333333 0.08333333333333333 0.08333333333333333 0.08333333333333333 0.08333333333333333 0.08333333333333333 0.08333333333333333 0.08333333333333333 0.08333333333333333 0.08333333333333333 0.08333333333333333 0.08333333333333333 0.08333333333333333 0.08333333333333333 0.08333333333333333 0.08333333333333333 0.08333333333333333 0.08333333333333333 0.08333333333333333 0.08333333333333333 0.08333333333333333 0.08333333333333333 0.00238095238095238 0.2880952380952381 0.00238095238095238 0.00238095238095238 0.00238095238095238 0.2880952380952381 0.1738095238095238 0.00238095238095238 0.00238095238095238 0.2023809523809523 0.03095238095238095 0.00238095238095238 0.000196078431372549 0.000196078431372549 0.000196078431372549 0.2590196078431373 0.000196078431372549 0.03784313725490196 0.002549019607843137 0.000196078431372549 0.000196078431372549 0.000196078431372549 0.6731372549019609 0.02607843137254902 0.0001264542235710673 0.0001264542235710673 0.0001264542235710673 0.0001264542235710673 0.05930703085483055 0.05778958017197774 0.0001264542235710673 0.004678806272129489 0.0001264542235710673 0.0001264542235710673 0.8772129489124937 0.0001264542235710673 0.02083333333333334 0.02083333333333334 0.2708333333333334 0.02083333333333334 0.02083333333333334 0.02083333333333334 0.02083333333333334 0.02083333333333334 0.02083333333333334 0.02083333333333334 0.02083333333333334 0.5208333333333335 0.000326797385620915 0.05915032679738563 0.000326797385620915 0.008169934640522876 0.000326797385620915 0.07875816993464052 0.3650326797385621 0.000326797385620915 0.004248366013071895 0.000326797385620915 0.000326797385620915 0.4826797385620915 0.08333333333333333 0.08333333333333333 0.08333333333333333 0.08333333333333333 0.08333333333333333 0.08333333333333333 0.08333333333333333 0.08333333333333333 0.08333333333333333 0.08333333333333333 0.08333333333333333 0.08333333333333333 0.08333333333333333 0.08333333333333333 0.08333333333333333 0.08333333333333333 0.08333333333333333 0.08333333333333333 0.08333333333333333 0.08333333333333333 0.08333333333333333 0.08333333333333333 0.08333333333333333 0.08333333333333333 0.08333333333333333 0.08333333333333333 0.08333333333333333 0.08333333333333333 0.08333333333333333 0.08333333333333333 0.08333333333333333 0.08333333333333333 0.08333333333333333 0.08333333333333333 0.08333333333333333 0.08333333333333333 0.04166666666666669 0.5416666666666669 0.04166666666666669 0.04166666666666669 0.04166666666666669 0.04166666666666669 0.04166666666666669 0.04166666666666669 0.04166666666666669 0.04166666666666669 0.04166666666666669 0.04166666666666669 0.08333333333333333 0.08333333333333333 0.08333333333333333 0.08333333333333333 0.08333333333333333 0.08333333333333333 0.08333333333333333 0.08333333333333333 0.08333333333333333 0.08333333333333333 0.08333333333333333 0.08333333333333333 7.861635220125784e-05 7.861635220125784e-05 0.6661163522012578 7.861635220125784e-05 7.861635220125784e-05 7.861635220125784e-05 7.861635220125784e-05 7.861635220125784e-05 7.861635220125784e-05 7.861635220125784e-05 0.3330974842767295 7.861635220125784e-05 0.08333333333333333 0.08333333333333333 0.08333333333333333 0.08333333333333333 0.08333333333333333 0.08333333333333333 0.08333333333333333 0.08333333333333333 0.08333333333333333 0.08333333333333333 0.08333333333333333 0.08333333333333333 0.009259259259259259 0.009259259259259259 0.009259259259259259 0.009259259259259259 0.2314814814814815 0.5648148148148148 0.009259259259259259 0.009259259259259259 0.009259259259259259 0.1203703703703703 0.009259259259259259 0.009259259259259259 0.08333333333333333 0.08333333333333333 0.08333333333333333 0.08333333333333333 0.08333333333333333 0.08333333333333333 0.08333333333333333 0.08333333333333333 0.08333333333333333 0.08333333333333333 0.08333333333333333 0.08333333333333333 0.08333333333333333 0.08333333333333333 0.08333333333333333 0.08333333333333333 0.08333333333333333 0.08333333333333333 0.08333333333333333 0.08333333333333333 0.08333333333333333 0.08333333333333333 0.08333333333333333 0.08333333333333333 0.08333333333333333 0.08333333333333333 0.08333333333333333 0.08333333333333333 0.08333333333333333 0.08333333333333333 0.08333333333333333 0.08333333333333333 0.08333333333333333 0.08333333333333333 0.08333333333333333 0.08333333333333333 0.08333333333333333 0.08333333333333333 0.08333333333333333 0.08333333333333333 0.08333333333333333 0.08333333333333333 0.08333333333333333 0.08333333333333333 0.08333333333333333 0.08333333333333333 0.08333333333333333 0.08333333333333333 0.00308641975308642 0.00308641975308642 0.00308641975308642 0.00308641975308642 0.00308641975308642 0.00308641975308642 0.00308641975308642 0.00308641975308642 0.00308641975308642 0.00308641975308642 0.7808641975308642 0.1882716049382716 0.000617283950617284 0.000617283950617284 0.000617283950617284 0.000617283950617284 0.0154320987654321 0.3783950617283952 0.1117283950617284 0.0969135802469136 0.000617283950617284 0.000617283950617284 0.2006172839506173 0.1932098765432099 0.04166666666666666 0.04166666666666666 0.04166666666666666 0.04166666666666666 0.04166666666666666 0.04166666666666666 0.04166666666666666 0.04166666666666666 0.04166666666666666 0.04166666666666666 0.04166666666666666 0.5416666666666666 0.08333333333333333 0.08333333333333333 0.08333333333333333 0.08333333333333333 0.08333333333333333 0.08333333333333333 0.08333333333333333 0.08333333333333333 0.08333333333333333 0.08333333333333333 0.08333333333333333 0.08333333333333333 0.08333333333333333 0.08333333333333333 0.08333333333333333 0.08333333333333333 0.08333333333333333 0.08333333333333333 0.08333333333333333 0.08333333333333333 0.08333333333333333 0.08333333333333333 0.08333333333333333 0.08333333333333333 0.08333333333333333 0.08333333333333333 0.08333333333333333 0.08333333333333333 0.08333333333333333 0.08333333333333333 0.08333333333333333 0.08333333333333333 0.08333333333333333 0.08333333333333333 0.08333333333333333 0.08333333333333333 0.08333333333333333 0.08333333333333333 0.08333333333333333 0.08333333333333333 0.08333333333333333 0.08333333333333333 0.08333333333333333 0.08333333333333333 0.08333333333333333 0.08333333333333333 0.08333333333333333 0.08333333333333333 0.08333333333333333 0.08333333333333333 0.08333333333333333 0.08333333333333333 0.08333333333333333 0.08333333333333333 0.08333333333333333 0.08333333333333333 0.08333333333333333 0.08333333333333333 0.08333333333333333 0.08333333333333333 0.08333333333333333 0.08333333333333333 0.08333333333333333 0.08333333333333333 0.08333333333333333 0.08333333333333333 0.08333333333333333 0.08333333333333333 0.08333333333333333 0.08333333333333333 0.08333333333333333 0.08333333333333333 0.02083333333333333 0.2708333333333333 0.02083333333333333 0.02083333333333333 0.02083333333333333 0.02083333333333333 0.2708333333333333 0.02083333333333333 0.02083333333333333 0.2708333333333333 0.02083333333333333 0.02083333333333333 0.0005630630630630632 0.0005630630630630632 0.0005630630630630632 0.4127252252252253 0.01407657657657658 0.02759009009009009 0.0005630630630630632 0.007319819819819821 0.0005630630630630632 0.0005630630630630632 0.534346846846847 0.0005630630630630632 0.0002003205128205128 0.0002003205128205128 0.0002003205128205128 0.0002003205128205128 0.04346955128205128 0.04346955128205128 0.0002003205128205128 0.007411858974358975 0.0002003205128205128 0.0002003205128205128 0.9040464743589743 0.0002003205128205128 0.08333333333333333 0.08333333333333333 0.08333333333333333 0.08333333333333333 0.08333333333333333 0.08333333333333333 0.08333333333333333 0.08333333333333333 0.08333333333333333 0.08333333333333333 0.08333333333333333 0.08333333333333333 0.002083333333333333 0.05208333333333334 0.002083333333333333 0.002083333333333333 0.002083333333333333 0.2770833333333333 0.1770833333333333 0.002083333333333333 0.002083333333333333 0.002083333333333333 0.002083333333333333 0.4770833333333333 0.08333333333333333 0.08333333333333333 0.08333333333333333 0.08333333333333333 0.08333333333333333 0.08333333333333333 0.08333333333333333 0.08333333333333333 0.08333333333333333 0.08333333333333333 0.08333333333333333 0.08333333333333333 0.08333333333333333 0.08333333333333333 0.08333333333333333 0.08333333333333333 0.08333333333333333 0.08333333333333333 0.08333333333333333 0.08333333333333333 0.08333333333333333 0.08333333333333333 0.08333333333333333 0.08333333333333333 0.08333333333333333 0.08333333333333333 0.08333333333333333 0.08333333333333333 0.08333333333333333 0.08333333333333333 0.08333333333333333 0.08333333333333333 0.08333333333333333 0.08333333333333333 0.08333333333333333 0.08333333333333333 0.04166666666666669 0.5416666666666669 0.04166666666666669 0.04166666666666669 0.04166666666666669 0.04166666666666669 0.04166666666666669 0.04166666666666669 0.04166666666666669 0.04166666666666669 0.04166666666666669 0.04166666666666669 0.08333333333333333 0.08333333333333333 0.08333333333333333 0.08333333333333333 0.08333333333333333 0.08333333333333333 0.08333333333333333 0.08333333333333333 0.08333333333333333 0.08333333333333333 0.08333333333333333 0.08333333333333333 0.08333333333333333 0.08333333333333333 0.08333333333333333 0.08333333333333333 0.08333333333333333 0.08333333333333333 0.08333333333333333 0.08333333333333333 0.08333333333333333 0.08333333333333333 0.08333333333333333 0.08333333333333333 0.08333333333333333 0.08333333333333333 0.08333333333333333 0.08333333333333333 0.08333333333333333 0.08333333333333333 0.08333333333333333 0.08333333333333333 0.08333333333333333 0.08333333333333333 0.08333333333333333 0.08333333333333333 0.08333333333333333 0.08333333333333333 0.08333333333333333 0.08333333333333333 0.08333333333333333 0.08333333333333333 0.08333333333333333 0.08333333333333333 0.08333333333333333 0.08333333333333333 0.08333333333333333 0.08333333333333333 0.08333333333333333 0.08333333333333333 0.08333333333333333 0.08333333333333333 0.08333333333333333 0.08333333333333333 0.08333333333333333 0.08333333333333333 0.08333333333333333 0.08333333333333333 0.08333333333333333 0.08333333333333333 0.08333333333333333 0.08333333333333333 0.08333333333333333 0.08333333333333333 0.08333333333333333 0.08333333333333333 0.08333333333333333 0.08333333333333333 0.08333333333333333 0.08333333333333333 0.08333333333333333 0.08333333333333333 0.08333333333333333 0.08333333333333333 0.08333333333333333 0.08333333333333333 0.08333333333333333 0.08333333333333333 0.08333333333333333 0.08333333333333333 0.08333333333333333 0.08333333333333333 0.08333333333333333 0.08333333333333333 0.08333333333333333 0.08333333333333333 0.08333333333333333 0.08333333333333333 0.08333333333333333 0.08333333333333333 0.08333333333333333 0.08333333333333333 0.08333333333333333 0.08333333333333333 0.08333333333333333 0.08333333333333333 0.0005241090146750522 0.0005241090146750522 0.0005241090146750522 0.0005241090146750522 0.0005241090146750522 0.0005241090146750522 0.0005241090146750522 0.0005241090146750522 0.0005241090146750522 0.0005241090146750522 0.9942348008385743 0.0005241090146750522 0.0001933488012374323 0.0001933488012374323 0.0001933488012374323 0.0001933488012374323 0.0001933488012374323 0.2716550657385924 0.0001933488012374323 0.04427687548337201 0.0001933488012374323 0.0001933488012374323 0.6289636504253674 0.05355761794276876 0.08333333333333333 0.08333333333333333 0.08333333333333333 0.08333333333333333 0.08333333333333333 0.08333333333333333 0.08333333333333333 0.08333333333333333 0.08333333333333333 0.08333333333333333 0.08333333333333333 0.08333333333333333 0.08333333333333333 0.08333333333333333 0.08333333333333333 0.08333333333333333 0.08333333333333333 0.08333333333333333 0.08333333333333333 0.08333333333333333 0.08333333333333333 0.08333333333333333 0.08333333333333333 0.08333333333333333 0.08333333333333333 0.08333333333333333 0.08333333333333333 0.08333333333333333 0.08333333333333333 0.08333333333333333 0.08333333333333333 0.08333333333333333 0.08333333333333333 0.08333333333333333 0.08333333333333333 0.08333333333333333 0.08333333333333333 0.08333333333333333 0.08333333333333333 0.08333333333333333 0.08333333333333333 0.08333333333333333 0.08333333333333333 0.08333333333333333 0.08333333333333333 0.08333333333333333 0.08333333333333333 0.08333333333333333 0.08333333333333333 0.08333333333333333 0.08333333333333333 0.08333333333333333 0.08333333333333333 0.08333333333333333 0.08333333333333333 0.08333333333333333 0.08333333333333333 0.08333333333333333 0.08333333333333333 0.08333333333333333 0.08333333333333333 0.08333333333333333 0.08333333333333333 0.08333333333333333 0.08333333333333333 0.08333333333333333 0.08333333333333333 0.08333333333333333 0.08333333333333333 0.08333333333333333 0.08333333333333333 0.08333333333333333 0.08333333333333333 0.08333333333333333 0.08333333333333333 0.08333333333333333 0.08333333333333333 0.08333333333333333 0.08333333333333333 0.08333333333333333 0.08333333333333333 0.08333333333333333 0.08333333333333333 0.08333333333333333 0.08333333333333333 0.08333333333333333 0.08333333333333333 0.08333333333333333 0.08333333333333333 0.08333333333333333 0.08333333333333333 0.08333333333333333 0.08333333333333333 0.08333333333333333 0.08333333333333333 0.08333333333333333 0.0001209482341557813 0.0001209482341557813 0.0001209482341557813 0.2802370585389454 0.02624576681180455 0.1292936623125303 0.0001209482341557813 0.01898887276245767 0.0001209482341557813 0.0001209482341557813 0.5443880019351718 0.0001209482341557813 0.0001090750436300175 0.0001090750436300175 0.0001090750436300175 0.0001090750436300175 0.1990619546247819 0.04068499127399651 0.0001090750436300175 0.1427792321116929 0.0001090750436300175 0.0001090750436300175 0.6166012216404887 0.0001090750436300175 0.08333333333333333 0.08333333333333333 0.08333333333333333 0.08333333333333333 0.08333333333333333 0.08333333333333333 0.08333333333333333 0.08333333333333333 0.08333333333333333 0.08333333333333333 0.08333333333333333 0.08333333333333333 0.001388888888888889 0.01805555555555555 0.001388888888888889 0.001388888888888889 0.001388888888888889 0.5180555555555554 0.01805555555555555 0.001388888888888889 0.001388888888888889 0.001388888888888889 0.001388888888888889 0.4347222222222221</probabilities>
		</cpt>
		<cpt id="gill_attachment" diagtype="observation" ranked="true">
			<state id="State0" />
			<state id="State1" />
			<state id="State2" />
			<state id="State3" />
			<state id="State4" />
			<state id="State5" />
			<state id="State6" />
			<parents>gill_color stem_height stem_color class</parents>
			<probabilities>0.007936507936507936 0.007936507936507936 0.007936507936507936 0.007936507936507936 0.007936507936507936 0.9523809523809523 0.007936507936507936 0.1428571428571429 0.1428571428571429 0.1428571428571429 0.1428571428571429 0.1428571428571429 0.1428571428571429 0.1428571428571429 0.1428571428571429 0.1428571428571429 0.1428571428571429 0.1428571428571429 0.1428571428571429 0.1428571428571429 0.1428571428571429 0.004201680672268905 0.9747899159663861 0.004201680672268905 0.004201680672268905 0.004201680672268905 0.004201680672268905 0.004201680672268905 0.1428571428571429 0.1428571428571429 0.1428571428571429 0.1428571428571429 0.1428571428571429 0.1428571428571429 0.1428571428571429 0.1428571428571429 0.1428571428571429 0.1428571428571429 0.1428571428571429 0.1428571428571429 0.1428571428571429 0.1428571428571429 0.1428571428571429 0.1428571428571429 0.1428571428571429 0.1428571428571429 0.1428571428571429 0.1428571428571429 0.1428571428571429 0.04761904761904762 0.7142857142857143 0.04761904761904762 0.04761904761904762 0.04761904761904762 0.04761904761904762 0.04761904761904762 0.1428571428571429 0.1428571428571429 0.1428571428571429 0.1428571428571429 0.1428571428571429 0.1428571428571429 0.1428571428571429 0.1428571428571429 0.1428571428571429 0.1428571428571429 0.1428571428571429 0.1428571428571429 0.1428571428571429 0.1428571428571429 0.1428571428571429 0.1428571428571429 0.1428571428571429 0.1428571428571429 0.1428571428571429 0.1428571428571429 0.1428571428571429 0.1428571428571429 0.1428571428571429 0.1428571428571429 0.1428571428571429 0.1428571428571429 0.1428571428571429 0.1428571428571429 0.1428571428571429 0.1428571428571429 0.1428571428571429 0.1428571428571429 0.1428571428571429 0.1428571428571429 0.1428571428571429 0.003484320557491287 0.9790940766550518 0.003484320557491287 0.003484320557491287 0.003484320557491287 0.003484320557491287 0.003484320557491287 0.1428571428571429 0.1428571428571429 0.1428571428571429 0.1428571428571429 0.1428571428571429 0.1428571428571429 0.1428571428571429 0.1428571428571429 0.1428571428571429 0.1428571428571429 0.1428571428571429 0.1428571428571429 0.1428571428571429 0.1428571428571429 0.1428571428571429 0.1428571428571429 0.1428571428571429 0.1428571428571429 0.1428571428571429 0.1428571428571429 0.1428571428571429 0.1428571428571429 0.1428571428571429 0.1428571428571429 0.1428571428571429 0.1428571428571429 0.1428571428571429 0.1428571428571429 0.1428571428571429 0.1428571428571429 0.1428571428571429 0.1428571428571429 0.1428571428571429 0.1428571428571429 0.1428571428571429 0.07142857142857144 0.5714285714285715 0.07142857142857144 0.07142857142857144 0.07142857142857144 0.07142857142857144 0.07142857142857144 0.008403361344537815 0.008403361344537815 0.008403361344537815 0.008403361344537815 0.008403361344537815 0.9495798319327731 0.008403361344537815 0.1428571428571429 0.1428571428571429 0.1428571428571429 0.1428571428571429 0.1428571428571429 0.1428571428571429 0.1428571428571429 0.1113801452784504 0.8825665859564166 0.001210653753026635 0.001210653753026635 0.001210653753026635 0.001210653753026635 0.001210653753026635 0.1428571428571429 0.1428571428571429 0.1428571428571429 0.1428571428571429 0.1428571428571429 0.1428571428571429 0.1428571428571429 0.1428571428571429 0.1428571428571429 0.1428571428571429 0.1428571428571429 0.1428571428571429 0.1428571428571429 0.1428571428571429 0.1428571428571429 0.1428571428571429 0.1428571428571429 0.1428571428571429 0.1428571428571429 0.1428571428571429 0.1428571428571429 0.002857142857142857 0.002857142857142857 0.002857142857142857 0.002857142857142857 0.002857142857142857 0.9828571428571428 0.002857142857142857 0.1428571428571429 0.1428571428571429 0.1428571428571429 0.1428571428571429 0.1428571428571429 0.1428571428571429 0.1428571428571429 0.1428571428571429 0.1428571428571429 0.1428571428571429 0.1428571428571429 0.1428571428571429 0.1428571428571429 0.1428571428571429 0.004761904761904762 0.9714285714285716 0.004761904761904762 0.004761904761904762 0.004761904761904762 0.004761904761904762 0.004761904761904762 0.1428571428571429 0.1428571428571429 0.1428571428571429 0.1428571428571429 0.1428571428571429 0.1428571428571429 0.1428571428571429 0.1428571428571429 0.1428571428571429 0.1428571428571429 0.1428571428571429 0.1428571428571429 0.1428571428571429 0.1428571428571429 0.1428571428571429 0.1428571428571429 0.1428571428571429 0.1428571428571429 0.1428571428571429 0.1428571428571429 0.1428571428571429 0.003663003663003661 0.9780219780219775 0.003663003663003661 0.003663003663003661 0.003663003663003661 0.003663003663003661 0.003663003663003661 0.1428571428571429 0.1428571428571429 0.1428571428571429 0.1428571428571429 0.1428571428571429 0.1428571428571429 0.1428571428571429 0.1428571428571429 0.1428571428571429 0.1428571428571429 0.1428571428571429 0.1428571428571429 0.1428571428571429 0.1428571428571429 0.1428571428571429 0.1428571428571429 0.1428571428571429 0.1428571428571429 0.1428571428571429 0.1428571428571429 0.1428571428571429 0.1428571428571429 0.1428571428571429 0.1428571428571429 0.1428571428571429 0.1428571428571429 0.1428571428571429 0.1428571428571429 0.1428571428571429 0.1428571428571429 0.1428571428571429 0.1428571428571429 0.1428571428571429 0.1428571428571429 0.1428571428571429 0.002551020408163264 0.98469387755102 0.002551020408163264 0.002551020408163264 0.002551020408163264 0.002551020408163264 0.002551020408163264 0.1428571428571429 0.1428571428571429 0.1428571428571429 0.1428571428571429 0.1428571428571429 0.1428571428571429 0.1428571428571429 0.1428571428571429 0.1428571428571429 0.1428571428571429 0.1428571428571429 0.1428571428571429 0.1428571428571429 0.1428571428571429 0.1428571428571429 0.1428571428571429 0.1428571428571429 0.1428571428571429 0.1428571428571429 0.1428571428571429 0.1428571428571429 0.1428571428571429 0.1428571428571429 0.1428571428571429 0.1428571428571429 0.1428571428571429 0.1428571428571429 0.1428571428571429 0.1428571428571429 0.1428571428571429 0.1428571428571429 0.1428571428571429 0.1428571428571429 0.1428571428571429 0.1428571428571429 0.003322259136212623 0.9800664451827239 0.003322259136212623 0.003322259136212623 0.003322259136212623 0.003322259136212623 0.003322259136212623 0.002857142857142857 0.002857142857142857 0.002857142857142857 0.002857142857142857 0.002857142857142857 0.9828571428571428 0.002857142857142857 0.1428571428571429 0.1428571428571429 0.1428571428571429 0.1428571428571429 0.1428571428571429 0.1428571428571429 0.1428571428571429 0.8139052231061913 0.1843652715323416 0.0003459010722933239 0.0003459010722933239 0.0003459010722933239 0.0003459010722933239 0.0003459010722933239 0.1428571428571429 0.1428571428571429 0.1428571428571429 0.1428571428571429 0.1428571428571429 0.1428571428571429 0.1428571428571429 0.1428571428571429 0.1428571428571429 0.1428571428571429 0.1428571428571429 0.1428571428571429 0.1428571428571429 0.1428571428571429 0.1428571428571429 0.1428571428571429 0.1428571428571429 0.1428571428571429 0.1428571428571429 0.1428571428571429 0.1428571428571429 0.006211180124223602 0.006211180124223602 0.006211180124223602 0.006211180124223602 0.006211180124223602 0.9627329192546583 0.006211180124223602 0.1428571428571429 0.1428571428571429 0.1428571428571429 0.1428571428571429 0.1428571428571429 0.1428571428571429 0.1428571428571429 0.1428571428571429 0.1428571428571429 0.1428571428571429 0.1428571428571429 0.1428571428571429 0.1428571428571429 0.1428571428571429 0.1428571428571429 0.1428571428571429 0.1428571428571429 0.1428571428571429 0.1428571428571429 0.1428571428571429 0.1428571428571429 0.1428571428571429 0.1428571428571429 0.1428571428571429 0.1428571428571429 0.1428571428571429 0.1428571428571429 0.1428571428571429 0.1428571428571429 0.1428571428571429 0.1428571428571429 0.1428571428571429 0.1428571428571429 0.1428571428571429 0.1428571428571429 0.1428571428571429 0.1428571428571429 0.1428571428571429 0.1428571428571429 0.1428571428571429 0.1428571428571429 0.1428571428571429 0.07142857142857144 0.5714285714285715 0.07142857142857144 0.07142857142857144 0.07142857142857144 0.07142857142857144 0.07142857142857144 0.1428571428571429 0.1428571428571429 0.1428571428571429 0.1428571428571429 0.1428571428571429 0.1428571428571429 0.1428571428571429 0.1428571428571429 0.1428571428571429 0.1428571428571429 0.1428571428571429 0.1428571428571429 0.1428571428571429 0.1428571428571429 0.1428571428571429 0.1428571428571429 0.1428571428571429 0.1428571428571429 0.1428571428571429 0.1428571428571429 0.1428571428571429 0.1428571428571429 0.1428571428571429 0.1428571428571429 0.1428571428571429 0.1428571428571429 0.1428571428571429 0.1428571428571429 0.1428571428571429 0.1428571428571429 0.1428571428571429 0.1428571428571429 0.1428571428571429 0.1428571428571429 0.1428571428571429 0.07142857142857144 0.5714285714285715 0.07142857142857144 0.07142857142857144 0.07142857142857144 0.07142857142857144 0.07142857142857144 0.1428571428571429 0.1428571428571429 0.1428571428571429 0.1428571428571429 0.1428571428571429 0.1428571428571429 0.1428571428571429 0.1428571428571429 0.1428571428571429 0.1428571428571429 0.1428571428571429 0.1428571428571429 0.1428571428571429 0.1428571428571429 0.1428571428571429 0.1428571428571429 0.1428571428571429 0.1428571428571429 0.1428571428571429 0.1428571428571429 0.1428571428571429 0.1428571428571429 0.1428571428571429 0.1428571428571429 0.1428571428571429 0.1428571428571429 0.1428571428571429 0.1428571428571429 0.1428571428571429 0.1428571428571429 0.1428571428571429 0.1428571428571429 0.1428571428571429 0.1428571428571429 0.1428571428571429 0.07142857142857144 0.5714285714285715 0.07142857142857144 0.07142857142857144 0.07142857142857144 0.07142857142857144 0.07142857142857144 0.005952380952380952 0.005952380952380952 0.005952380952380952 0.005952380952380952 0.005952380952380952 0.9642857142857142 0.005952380952380952 0.1428571428571429 0.1428571428571429 0.1428571428571429 0.1428571428571429 0.1428571428571429 0.1428571428571429 0.1428571428571429 0.6904761904761902 0.1904761904761904 0.0238095238095238 0.0238095238095238 0.0238095238095238 0.0238095238095238 0.0238095238095238 0.1428571428571429 0.1428571428571429 0.1428571428571429 0.1428571428571429 0.1428571428571429 0.1428571428571429 0.1428571428571429 0.1428571428571429 0.1428571428571429 0.1428571428571429 0.1428571428571429 0.1428571428571429 0.1428571428571429 0.1428571428571429 0.1428571428571429 0.1428571428571429 0.1428571428571429 0.1428571428571429 0.1428571428571429 0.1428571428571429 0.1428571428571429 0.1428571428571429 0.1428571428571429 0.1428571428571429 0.1428571428571429 0.1428571428571429 0.1428571428571429 0.1428571428571429 0.1428571428571429 0.1428571428571429 0.1428571428571429 0.1428571428571429 0.1428571428571429 0.1428571428571429 0.1428571428571429 0.1428571428571429 0.1428571428571429 0.1428571428571429 0.1428571428571429 0.1428571428571429 0.1428571428571429 0.1428571428571429 0.1428571428571429 0.1428571428571429 0.1428571428571429 0.1428571428571429 0.1428571428571429 0.1428571428571429 0.1428571428571429 0.1428571428571429 0.1428571428571429 0.1428571428571429 0.1428571428571429 0.1428571428571429 0.1428571428571429 0.1428571428571429 0.1428571428571429 0.1428571428571429 0.1428571428571429 0.1428571428571429 0.1428571428571429 0.1428571428571429 0.1428571428571429 0.1428571428571429 0.1428571428571429 0.1428571428571429 0.1428571428571429 0.1428571428571429 0.1428571428571429 0.1428571428571429 0.1428571428571429 0.1428571428571429 0.1428571428571429 0.1428571428571429 0.1428571428571429 0.1428571428571429 0.1428571428571429 0.1428571428571429 0.1428571428571429 0.1428571428571429 0.1428571428571429 0.1428571428571429 0.1428571428571429 0.1428571428571429 0.1428571428571429 0.1428571428571429 0.1428571428571429 0.1428571428571429 0.1428571428571429 0.1428571428571429 0.1428571428571429 0.1428571428571429 0.1428571428571429 0.1428571428571429 0.1428571428571429 0.1428571428571429 0.1428571428571429 0.1428571428571429 0.1428571428571429 0.1428571428571429 0.1428571428571429 0.1428571428571429 0.1428571428571429 0.1428571428571429 0.1428571428571429 0.1428571428571429 0.1428571428571429 0.1428571428571429 0.1428571428571429 0.1428571428571429 0.1428571428571429 0.1428571428571429 0.1428571428571429 0.1428571428571429 0.1428571428571429 0.1428571428571429 0.1428571428571429 0.1428571428571429 0.1428571428571429 0.1428571428571429 0.1428571428571429 0.1428571428571429 0.1428571428571429 0.1428571428571429 0.1428571428571429 0.1428571428571429 0.1428571428571429 0.1428571428571429 0.1428571428571429 0.1428571428571429 0.1428571428571429 0.1428571428571429 0.1428571428571429 0.1428571428571429 0.1428571428571429 0.1428571428571429 0.1428571428571429 0.1428571428571429 0.1428571428571429 0.1428571428571429 0.1428571428571429 0.1428571428571429 0.1428571428571429 0.1428571428571429 0.1428571428571429 0.1428571428571429 0.1428571428571429 0.1428571428571429 0.1428571428571429 0.1428571428571429 0.1428571428571429 0.1428571428571429 0.1428571428571429 0.1428571428571429 0.1428571428571429 0.1428571428571429 0.1428571428571429 0.1428571428571429 0.1428571428571429 0.1428571428571429 0.1428571428571429 0.1428571428571429 0.1428571428571429 0.1428571428571429 0.1428571428571429 0.1428571428571429 0.1428571428571429 0.1428571428571429 0.1428571428571429 0.1428571428571429 0.1428571428571429 0.1428571428571429 0.1428571428571429 0.1428571428571429 0.1428571428571429 0.1428571428571429 0.1428571428571429 0.1428571428571429 0.1428571428571429 0.1428571428571429 0.1428571428571429 0.1428571428571429 0.1428571428571429 0.1428571428571429 0.1428571428571429 0.1428571428571429 0.1428571428571429 0.1428571428571429 0.1428571428571429 0.1428571428571429 0.1428571428571429 0.1428571428571429 0.1428571428571429 0.1428571428571429 0.1428571428571429 0.1428571428571429 0.1428571428571429 0.1428571428571429 0.1428571428571429 0.1428571428571429 0.1428571428571429 0.1428571428571429 0.1428571428571429 0.1428571428571429 0.1428571428571429 0.1428571428571429 0.1428571428571429 0.1428571428571429 0.1428571428571429 0.1428571428571429 0.1428571428571429 0.1428571428571429 0.1428571428571429 0.1428571428571429 0.1428571428571429 0.1428571428571429 0.1428571428571429 0.1428571428571429 0.1428571428571429 0.1428571428571429 0.1428571428571429 0.1428571428571429 0.1428571428571429 0.1428571428571429 0.1428571428571429 0.1428571428571429 0.1428571428571429 0.1428571428571429 0.1428571428571429 0.1428571428571429 0.1428571428571429 0.1428571428571429 0.1428571428571429 0.1428571428571429 0.1428571428571429 0.1428571428571429 0.1428571428571429 0.1428571428571429 0.1428571428571429 0.1428571428571429 0.1428571428571429 0.1428571428571429 0.1428571428571429 0.1428571428571429 0.1428571428571429 0.1428571428571429 0.1428571428571429 0.1428571428571429 0.1428571428571429 0.1428571428571429 0.1428571428571429 0.1428571428571429 0.1428571428571429 0.1428571428571429 0.1428571428571429 0.1428571428571429 0.1428571428571429 0.1428571428571429 0.1428571428571429 0.1428571428571429 0.1428571428571429 0.1428571428571429 0.1428571428571429 0.1428571428571429 0.1428571428571429 0.1428571428571429 0.1428571428571429 0.1428571428571429 0.1428571428571429 0.1428571428571429 0.1428571428571429 0.1428571428571429 0.1428571428571429 0.1428571428571429 0.1428571428571429 0.1428571428571429 0.1428571428571429 0.1428571428571429 0.1428571428571429 0.1428571428571429 0.1428571428571429 0.1428571428571429 0.1428571428571429 0.1428571428571429 0.1428571428571429 0.1428571428571429 0.1428571428571429 0.1428571428571429 0.1428571428571429 0.1428571428571429 0.1428571428571429 0.1428571428571429 0.1428571428571429 0.1428571428571429 0.1428571428571429 0.1428571428571429 0.1428571428571429 0.1428571428571429 0.1428571428571429 0.1428571428571429 0.1428571428571429 0.1428571428571429 0.1428571428571429 0.1428571428571429 0.1428571428571429 0.1428571428571429 0.1428571428571429 0.1428571428571429 0.1428571428571429 0.1428571428571429 0.1428571428571429 0.1428571428571429 0.1428571428571429 0.1428571428571429 0.1428571428571429 0.1428571428571429 0.1428571428571429 0.1428571428571429 0.1428571428571429 0.1428571428571429 0.1428571428571429 0.1428571428571429 0.1428571428571429 0.1428571428571429 0.1428571428571429 0.1428571428571429 0.1428571428571429 0.1428571428571429 0.1428571428571429 0.1428571428571429 0.1428571428571429 0.1428571428571429 0.1428571428571429 0.1428571428571429 0.1428571428571429 0.1428571428571429 0.1428571428571429 0.1428571428571429 0.1428571428571429 0.1428571428571429 0.1428571428571429 0.1428571428571429 0.1428571428571429 0.1428571428571429 0.1428571428571429 0.1428571428571429 0.1428571428571429 0.1428571428571429 0.1428571428571429 0.1428571428571429 0.1428571428571429 0.1428571428571429 0.1428571428571429 0.1428571428571429 0.1428571428571429 0.1428571428571429 0.1428571428571429 0.1428571428571429 0.1428571428571429 0.1428571428571429 0.1428571428571429 0.1428571428571429 0.1428571428571429 0.1428571428571429 0.1428571428571429 0.1428571428571429 0.1428571428571429 0.1428571428571429 0.1428571428571429 0.1428571428571429 0.1428571428571429 0.1428571428571429 0.1428571428571429 0.1428571428571429 0.1428571428571429 0.1428571428571429 0.1428571428571429 0.1428571428571429 0.1428571428571429 0.1428571428571429 0.1428571428571429 0.1428571428571429 0.1428571428571429 0.1428571428571429 0.1428571428571429 0.1428571428571429 0.1428571428571429 0.1428571428571429 0.1428571428571429 0.1428571428571429 0.1428571428571429 0.1428571428571429 0.1428571428571429 0.1428571428571429 0.1428571428571429 0.1428571428571429 0.1428571428571429 0.1428571428571429 0.1428571428571429 0.1428571428571429 0.1428571428571429 0.1428571428571429 0.1428571428571429 0.1428571428571429 0.1428571428571429 0.1428571428571429 0.1428571428571429 0.1428571428571429 0.1428571428571429 0.1428571428571429 0.1428571428571429 0.1428571428571429 0.1428571428571429 0.1428571428571429 0.1428571428571429 0.1428571428571429 0.1428571428571429 0.1428571428571429 0.1428571428571429 0.1428571428571429 0.1428571428571429 0.1428571428571429 0.1428571428571429 0.1428571428571429 0.1428571428571429 0.1428571428571429 0.1428571428571429 0.1428571428571429 0.1428571428571429 0.1428571428571429 0.1428571428571429 0.1428571428571429 0.1428571428571429 0.1428571428571429 0.1428571428571429 0.1428571428571429 0.1428571428571429 0.1428571428571429 0.1428571428571429 0.1428571428571429 0.1428571428571429 0.1428571428571429 0.1428571428571429 0.1428571428571429 0.1428571428571429 0.1428571428571429 0.1428571428571429 0.1428571428571429 0.1428571428571429 0.1428571428571429 0.1428571428571429 0.1428571428571429 0.1428571428571429 0.1428571428571429 0.1428571428571429 0.1428571428571429 0.1428571428571429 0.1428571428571429 0.1428571428571429 0.1428571428571429 0.1428571428571429 0.1428571428571429 0.1428571428571429 0.1428571428571429 0.1428571428571429 0.1428571428571429 0.1428571428571429 0.1428571428571429 0.1428571428571429 0.1428571428571429 0.1428571428571429 0.1428571428571429 0.1428571428571429 0.1428571428571429 0.1428571428571429 0.1428571428571429 0.1428571428571429 0.1428571428571429 0.1428571428571429 0.1428571428571429 0.1428571428571429 0.1428571428571429 0.1428571428571429 0.1428571428571429 0.1428571428571429 0.1428571428571429 0.1428571428571429 0.1428571428571429 0.1428571428571429 0.1428571428571429 0.1428571428571429 0.1428571428571429 0.1428571428571429 0.1428571428571429 0.1428571428571429 0.1428571428571429 0.1428571428571429 0.1428571428571429 0.1428571428571429 0.1428571428571429 0.1428571428571429 0.1428571428571429 0.1428571428571429 0.1428571428571429 0.1428571428571429 0.1428571428571429 0.1428571428571429 0.1428571428571429 0.1428571428571429 0.1428571428571429 0.1428571428571429 0.1428571428571429 0.1428571428571429 0.1428571428571429 0.1428571428571429 0.1428571428571429 0.1428571428571429 0.1428571428571429 0.1428571428571429 0.1428571428571429 0.1428571428571429 0.1428571428571429 0.1428571428571429 0.1428571428571429 0.1428571428571429 0.1428571428571429 0.1428571428571429 0.1428571428571429 0.1428571428571429 0.1428571428571429 0.1428571428571429 0.1428571428571429 0.1428571428571429 0.1428571428571429 0.1428571428571429 0.1428571428571429 0.1428571428571429 0.1428571428571429 0.1428571428571429 0.1428571428571429 0.1428571428571429 0.1428571428571429 0.1428571428571429 0.1428571428571429 0.1428571428571429 0.1428571428571429 0.1428571428571429 0.1428571428571429 0.1428571428571429 0.1428571428571429 0.1428571428571429 0.1428571428571429 0.1428571428571429 0.1428571428571429 0.1428571428571429 0.1428571428571429 0.1428571428571429 0.1428571428571429 0.1428571428571429 0.1428571428571429 0.1428571428571429 0.1428571428571429 0.1428571428571429 0.1428571428571429 0.1428571428571429 0.1428571428571429 0.1428571428571429 0.1428571428571429 0.1428571428571429 0.1428571428571429 0.1428571428571429 0.1428571428571429 0.1428571428571429 0.1428571428571429 0.1428571428571429 0.1428571428571429 0.1428571428571429 0.1428571428571429 0.1428571428571429 0.1428571428571429 0.1428571428571429 0.7142857142857143 0.04761904761904762 0.04761904761904762 0.04761904761904762 0.04761904761904762 0.04761904761904762 0.04761904761904762 0.3428571428571429 0.009523809523809523 0.009523809523809523 0.009523809523809523 0.6095238095238095 0.009523809523809523 0.009523809523809523 0.1428571428571429 0.1428571428571429 0.1428571428571429 0.1428571428571429 0.1428571428571429 0.1428571428571429 0.1428571428571429 0.1428571428571429 0.1428571428571429 0.1428571428571429 0.1428571428571429 0.1428571428571429 0.1428571428571429 0.1428571428571429 0.1428571428571429 0.1428571428571429 0.1428571428571429 0.1428571428571429 0.1428571428571429 0.1428571428571429 0.1428571428571429 0.1428571428571429 0.1428571428571429 0.1428571428571429 0.1428571428571429 0.1428571428571429 0.1428571428571429 0.1428571428571429 0.1428571428571429 0.1428571428571429 0.1428571428571429 0.1428571428571429 0.1428571428571429 0.1428571428571429 0.1428571428571429 0.1428571428571429 0.1428571428571429 0.1428571428571429 0.1428571428571429 0.1428571428571429 0.1428571428571429 0.1428571428571429 0.1428571428571429 0.1428571428571429 0.1428571428571429 0.1428571428571429 0.1428571428571429 0.1428571428571429 0.1428571428571429 0.1428571428571429 0.1428571428571429 0.1428571428571429 0.1428571428571429 0.1428571428571429 0.1428571428571429 0.1428571428571429 0.1428571428571429 0.1428571428571429 0.1428571428571429 0.1428571428571429 0.1428571428571429 0.1428571428571429 0.1428571428571429 0.003484320557491289 0.003484320557491289 0.003484320557491289 0.003484320557491289 0.003484320557491289 0.003484320557491289 0.9790940766550523 0.7142857142857143 0.04761904761904762 0.04761904761904762 0.04761904761904762 0.04761904761904762 0.04761904761904762 0.04761904761904762 0.1428571428571429 0.1428571428571429 0.1428571428571429 0.1428571428571429 0.1428571428571429 0.1428571428571429 0.1428571428571429 0.1428571428571429 0.1428571428571429 0.1428571428571429 0.1428571428571429 0.1428571428571429 0.1428571428571429 0.1428571428571429 0.1428571428571429 0.1428571428571429 0.1428571428571429 0.1428571428571429 0.1428571428571429 0.1428571428571429 0.1428571428571429 0.1428571428571429 0.1428571428571429 0.1428571428571429 0.1428571428571429 0.1428571428571429 0.1428571428571429 0.1428571428571429 0.1428571428571429 0.1428571428571429 0.1428571428571429 0.1428571428571429 0.1428571428571429 0.1428571428571429 0.1428571428571429 0.1428571428571429 0.1428571428571429 0.1428571428571429 0.1428571428571429 0.1428571428571429 0.1428571428571429 0.1428571428571429 0.01587301587301588 0.01587301587301588 0.01587301587301588 0.01587301587301588 0.9047619047619049 0.01587301587301588 0.01587301587301588 0.1428571428571429 0.1428571428571429 0.1428571428571429 0.1428571428571429 0.1428571428571429 0.1428571428571429 0.1428571428571429 0.1428571428571429 0.1428571428571429 0.1428571428571429 0.1428571428571429 0.1428571428571429 0.1428571428571429 0.1428571428571429 0.07142857142857144 0.07142857142857144 0.07142857142857144 0.07142857142857144 0.5714285714285715 0.07142857142857144 0.07142857142857144 0.003246753246753247 0.003246753246753247 0.003246753246753247 0.003246753246753247 0.02597402597402597 0.003246753246753247 0.9577922077922079 0.1428571428571429 0.1428571428571429 0.1428571428571429 0.1428571428571429 0.1428571428571429 0.1428571428571429 0.1428571428571429 0.1428571428571429 0.1428571428571429 0.1428571428571429 0.1428571428571429 0.1428571428571429 0.1428571428571429 0.1428571428571429 0.98469387755102 0.002551020408163264 0.002551020408163264 0.002551020408163264 0.002551020408163264 0.002551020408163264 0.002551020408163264 0.8861360042171847 0.0005271481286241432 0.0005271481286241432 0.0005271481286241432 0.1112282551396942 0.0005271481286241432 0.0005271481286241432 0.1428571428571429 0.1428571428571429 0.1428571428571429 0.1428571428571429 0.1428571428571429 0.1428571428571429 0.1428571428571429 0.1428571428571429 0.1428571428571429 0.1428571428571429 0.1428571428571429 0.1428571428571429 0.1428571428571429 0.1428571428571429 0.1428571428571429 0.1428571428571429 0.1428571428571429 0.1428571428571429 0.1428571428571429 0.1428571428571429 0.1428571428571429 0.1428571428571429 0.1428571428571429 0.1428571428571429 0.1428571428571429 0.1428571428571429 0.1428571428571429 0.1428571428571429 0.1428571428571429 0.1428571428571429 0.1428571428571429 0.1428571428571429 0.1428571428571429 0.1428571428571429 0.1428571428571429 0.1428571428571429 0.1428571428571429 0.1428571428571429 0.1428571428571429 0.1428571428571429 0.1428571428571429 0.1428571428571429 0.1428571428571429 0.1428571428571429 0.1428571428571429 0.1428571428571429 0.1428571428571429 0.1428571428571429 0.1428571428571429 0.1428571428571429 0.1428571428571429 0.1428571428571429 0.1428571428571429 0.1428571428571429 0.1428571428571429 0.1428571428571429 0.003322259136212624 0.003322259136212624 0.003322259136212624 0.003322259136212624 0.9800664451827241 0.003322259136212624 0.003322259136212624 0.005952380952380952 0.005952380952380952 0.005952380952380952 0.005952380952380952 0.005952380952380952 0.005952380952380952 0.9642857142857142 0.98469387755102 0.002551020408163264 0.002551020408163264 0.002551020408163264 0.002551020408163264 0.002551020408163264 0.002551020408163264 0.1428571428571429 0.1428571428571429 0.1428571428571429 0.1428571428571429 0.1428571428571429 0.1428571428571429 0.1428571428571429 0.1428571428571429 0.1428571428571429 0.1428571428571429 0.1428571428571429 0.1428571428571429 0.1428571428571429 0.1428571428571429 0.1428571428571429 0.1428571428571429 0.1428571428571429 0.1428571428571429 0.1428571428571429 0.1428571428571429 0.1428571428571429 0.1428571428571429 0.1428571428571429 0.1428571428571429 0.1428571428571429 0.1428571428571429 0.1428571428571429 0.1428571428571429 0.1428571428571429 0.1428571428571429 0.1428571428571429 0.1428571428571429 0.1428571428571429 0.1428571428571429 0.1428571428571429 0.1428571428571429 0.1428571428571429 0.1428571428571429 0.1428571428571429 0.1428571428571429 0.1428571428571429 0.1428571428571429 0.005291005291005291 0.005291005291005291 0.005291005291005291 0.005291005291005291 0.9682539682539681 0.005291005291005291 0.005291005291005291 0.1428571428571429 0.1428571428571429 0.1428571428571429 0.1428571428571429 0.1428571428571429 0.1428571428571429 0.1428571428571429 0.1428571428571429 0.1428571428571429 0.1428571428571429 0.1428571428571429 0.1428571428571429 0.1428571428571429 0.1428571428571429 0.003174603174603174 0.003174603174603174 0.003174603174603174 0.003174603174603174 0.9809523809523809 0.003174603174603174 0.003174603174603174 0.003484320557491289 0.003484320557491289 0.003484320557491289 0.003484320557491289 0.5400696864111498 0.003484320557491289 0.4425087108013938 0.1428571428571429 0.1428571428571429 0.1428571428571429 0.1428571428571429 0.1428571428571429 0.1428571428571429 0.1428571428571429 0.1428571428571429 0.1428571428571429 0.1428571428571429 0.1428571428571429 0.1428571428571429 0.1428571428571429 0.1428571428571429 0.9642857142857144 0.005952380952380953 0.005952380952380953 0.005952380952380953 0.005952380952380953 0.005952380952380953 0.005952380952380953 0.6758928571428573 0.0008928571428571429 0.0008928571428571429 0.0008928571428571429 0.3196428571428572 0.0008928571428571429 0.0008928571428571429 0.1428571428571429 0.1428571428571429 0.1428571428571429 0.1428571428571429 0.1428571428571429 0.1428571428571429 0.1428571428571429 0.1428571428571429 0.1428571428571429 0.1428571428571429 0.1428571428571429 0.1428571428571429 0.1428571428571429 0.1428571428571429 0.1428571428571429 0.1428571428571429 0.1428571428571429 0.1428571428571429 0.1428571428571429 0.1428571428571429 0.1428571428571429 0.1428571428571429 0.1428571428571429 0.1428571428571429 0.1428571428571429 0.1428571428571429 0.1428571428571429 0.1428571428571429 0.1428571428571429 0.1428571428571429 0.1428571428571429 0.1428571428571429 0.1428571428571429 0.1428571428571429 0.1428571428571429 0.1428571428571429 0.1428571428571429 0.1428571428571429 0.1428571428571429 0.1428571428571429 0.1428571428571429 0.1428571428571429 0.1428571428571429 0.1428571428571429 0.1428571428571429 0.1428571428571429 0.1428571428571429 0.1428571428571429 0.1428571428571429 0.1428571428571429 0.1428571428571429 0.1428571428571429 0.1428571428571429 0.1428571428571429 0.1428571428571429 0.1428571428571429 0.01098901098901099 0.01098901098901099 0.01098901098901099 0.01098901098901099 0.9340659340659341 0.01098901098901099 0.01098901098901099 0.1428571428571429 0.1428571428571429 0.1428571428571429 0.1428571428571429 0.1428571428571429 0.1428571428571429 0.1428571428571429 0.9740259740259735 0.004329004329004326 0.004329004329004326 0.004329004329004326 0.004329004329004326 0.004329004329004326 0.004329004329004326 0.1428571428571429 0.1428571428571429 0.1428571428571429 0.1428571428571429 0.1428571428571429 0.1428571428571429 0.1428571428571429 0.1428571428571429 0.1428571428571429 0.1428571428571429 0.1428571428571429 0.1428571428571429 0.1428571428571429 0.1428571428571429 0.1428571428571429 0.1428571428571429 0.1428571428571429 0.1428571428571429 0.1428571428571429 0.1428571428571429 0.1428571428571429 0.1428571428571429 0.1428571428571429 0.1428571428571429 0.1428571428571429 0.1428571428571429 0.1428571428571429 0.1428571428571429 0.1428571428571429 0.1428571428571429 0.1428571428571429 0.1428571428571429 0.1428571428571429 0.1428571428571429 0.1428571428571429 0.1428571428571429 0.1428571428571429 0.1428571428571429 0.1428571428571429 0.1428571428571429 0.1428571428571429 0.1428571428571429 0.003401360544217686 0.003401360544217686 0.003401360544217686 0.003401360544217686 0.9795918367346937 0.003401360544217686 0.003401360544217686 0.1428571428571429 0.1428571428571429 0.1428571428571429 0.1428571428571429 0.1428571428571429 0.1428571428571429 0.1428571428571429 0.1428571428571429 0.1428571428571429 0.1428571428571429 0.1428571428571429 0.1428571428571429 0.1428571428571429 0.1428571428571429 0.01190476190476191 0.01190476190476191 0.01190476190476191 0.01190476190476191 0.9285714285714286 0.01190476190476191 0.01190476190476191 0.001808318264014467 0.001808318264014467 0.001808318264014467 0.001808318264014467 0.976491862567812 0.001808318264014467 0.01446654611211573 0.1428571428571429 0.1428571428571429 0.1428571428571429 0.1428571428571429 0.1428571428571429 0.1428571428571429 0.1428571428571429 0.1428571428571429 0.1428571428571429 0.1428571428571429 0.1428571428571429 0.1428571428571429 0.1428571428571429 0.1428571428571429 0.1428571428571429 0.1428571428571429 0.1428571428571429 0.1428571428571429 0.1428571428571429 0.1428571428571429 0.1428571428571429 0.01785714285714286 0.01785714285714286 0.01785714285714286 0.01785714285714286 0.8928571428571429 0.01785714285714286 0.01785714285714286 0.1428571428571429 0.1428571428571429 0.1428571428571429 0.1428571428571429 0.1428571428571429 0.1428571428571429 0.1428571428571429 0.1428571428571429 0.1428571428571429 0.1428571428571429 0.1428571428571429 0.1428571428571429 0.1428571428571429 0.1428571428571429 0.1428571428571429 0.1428571428571429 0.1428571428571429 0.1428571428571429 0.1428571428571429 0.1428571428571429 0.1428571428571429 0.1428571428571429 0.1428571428571429 0.1428571428571429 0.1428571428571429 0.1428571428571429 0.1428571428571429 0.1428571428571429 0.1428571428571429 0.1428571428571429 0.1428571428571429 0.1428571428571429 0.1428571428571429 0.1428571428571429 0.1428571428571429 0.1428571428571429 0.1428571428571429 0.1428571428571429 0.1428571428571429 0.1428571428571429 0.1428571428571429 0.1428571428571429 0.1428571428571429 0.1428571428571429 0.1428571428571429 0.1428571428571429 0.1428571428571429 0.1428571428571429 0.1428571428571429 0.1428571428571429 0.1428571428571429 0.1428571428571429 0.1428571428571429 0.1428571428571429 0.1428571428571429 0.1428571428571429 0.1428571428571429 0.1428571428571429 0.1428571428571429 0.1428571428571429 0.1428571428571429 0.1428571428571429 0.1428571428571429 0.1428571428571429 0.1428571428571429 0.1428571428571429 0.1428571428571429 0.1428571428571429 0.1428571428571429 0.1428571428571429 0.1428571428571429 0.1428571428571429 0.1428571428571429 0.1428571428571429 0.1428571428571429 0.1428571428571429 0.1428571428571429 0.1428571428571429 0.1428571428571429 0.1428571428571429 0.1428571428571429 0.1428571428571429 0.1428571428571429 0.1428571428571429 0.1428571428571429 0.1428571428571429 0.1428571428571429 0.1428571428571429 0.1428571428571429 0.1428571428571429 0.1428571428571429 0.1428571428571429 0.1428571428571429 0.1428571428571429 0.1428571428571429 0.1428571428571429 0.1428571428571429 0.1428571428571429 0.1428571428571429 0.1428571428571429 0.1428571428571429 0.1428571428571429 0.1428571428571429 0.1428571428571429 0.1428571428571429 0.1428571428571429 0.1428571428571429 0.1428571428571429 0.1428571428571429 0.1428571428571429 0.1428571428571429 0.1428571428571429 0.1428571428571429 0.1428571428571429 0.1428571428571429 0.1428571428571429 0.1428571428571429 0.1428571428571429 0.1428571428571429 0.01298701298701299 0.01298701298701299 0.01298701298701299 0.01298701298701299 0.9220779220779222 0.01298701298701299 0.01298701298701299 0.1428571428571429 0.1428571428571429 0.1428571428571429 0.1428571428571429 0.1428571428571429 0.1428571428571429 0.1428571428571429 0.1428571428571429 0.1428571428571429 0.1428571428571429 0.1428571428571429 0.1428571428571429 0.1428571428571429 0.1428571428571429 0.1428571428571429 0.1428571428571429 0.1428571428571429 0.1428571428571429 0.1428571428571429 0.1428571428571429 0.1428571428571429 0.00892857142857143 0.00892857142857143 0.00892857142857143 0.00892857142857143 0.9464285714285716 0.00892857142857143 0.00892857142857143 0.1428571428571429 0.1428571428571429 0.1428571428571429 0.1428571428571429 0.1428571428571429 0.1428571428571429 0.1428571428571429 0.1428571428571429 0.1428571428571429 0.1428571428571429 0.1428571428571429 0.1428571428571429 0.1428571428571429 0.1428571428571429 0.1428571428571429 0.1428571428571429 0.1428571428571429 0.1428571428571429 0.1428571428571429 0.1428571428571429 0.1428571428571429 0.07142857142857144 0.07142857142857144 0.07142857142857144 0.07142857142857144 0.5714285714285715 0.07142857142857144 0.07142857142857144 0.1428571428571429 0.1428571428571429 0.1428571428571429 0.1428571428571429 0.1428571428571429 0.1428571428571429 0.1428571428571429 0.1428571428571429 0.1428571428571429 0.1428571428571429 0.1428571428571429 0.1428571428571429 0.1428571428571429 0.1428571428571429 0.1428571428571429 0.1428571428571429 0.1428571428571429 0.1428571428571429 0.1428571428571429 0.1428571428571429 0.1428571428571429 0.1428571428571429 0.1428571428571429 0.1428571428571429 0.1428571428571429 0.1428571428571429 0.1428571428571429 0.1428571428571429 0.1428571428571429 0.1428571428571429 0.1428571428571429 0.1428571428571429 0.1428571428571429 0.1428571428571429 0.1428571428571429 0.1428571428571429 0.1428571428571429 0.1428571428571429 0.1428571428571429 0.1428571428571429 0.1428571428571429 0.1428571428571429 0.1428571428571429 0.1428571428571429 0.1428571428571429 0.1428571428571429 0.1428571428571429 0.1428571428571429 0.1428571428571429 0.1428571428571429 0.1428571428571429 0.1428571428571429 0.1428571428571429 0.1428571428571429 0.1428571428571429 0.1428571428571429 0.1428571428571429 0.1428571428571429 0.1428571428571429 0.1428571428571429 0.1428571428571429 0.1428571428571429 0.1428571428571429 0.1428571428571429 0.1428571428571429 0.1428571428571429 0.1428571428571429 0.1428571428571429 0.1428571428571429 0.1428571428571429 0.1428571428571429 0.1428571428571429 0.1428571428571429 0.1428571428571429 0.1428571428571429 0.1428571428571429 0.1428571428571429 0.1428571428571429 0.1428571428571429 0.1428571428571429 0.1428571428571429 0.1428571428571429 0.1428571428571429 0.1428571428571429 0.1428571428571429 0.1428571428571429 0.1428571428571429 0.1428571428571429 0.1428571428571429 0.1428571428571429 0.1428571428571429 0.1428571428571429 0.1428571428571429 0.1428571428571429 0.1428571428571429 0.1428571428571429 0.1428571428571429 0.1428571428571429 0.1428571428571429 0.1428571428571429 0.1428571428571429 0.1428571428571429 0.1428571428571429 0.1428571428571429 0.1428571428571429 0.1428571428571429 0.1428571428571429 0.1428571428571429 0.1428571428571429 0.1428571428571429 0.1428571428571429 0.1428571428571429 0.1428571428571429 0.1428571428571429 0.1428571428571429 0.1428571428571429 0.1428571428571429 0.1428571428571429 0.1428571428571429 0.07142857142857144 0.07142857142857144 0.07142857142857144 0.07142857142857144 0.5714285714285715 0.07142857142857144 0.07142857142857144 0.1428571428571429 0.1428571428571429 0.1428571428571429 0.1428571428571429 0.1428571428571429 0.1428571428571429 0.1428571428571429 0.1428571428571429 0.1428571428571429 0.1428571428571429 0.1428571428571429 0.1428571428571429 0.1428571428571429 0.1428571428571429 0.1428571428571429 0.1428571428571429 0.1428571428571429 0.1428571428571429 0.1428571428571429 0.1428571428571429 0.1428571428571429 0.04761904761904762 0.04761904761904762 0.04761904761904762 0.04761904761904762 0.7142857142857142 0.04761904761904762 0.04761904761904762 0.1428571428571429 0.1428571428571429 0.1428571428571429 0.1428571428571429 0.1428571428571429 0.1428571428571429 0.1428571428571429 0.1428571428571429 0.1428571428571429 0.1428571428571429 0.1428571428571429 0.1428571428571429 0.1428571428571429 0.1428571428571429 0.1428571428571429 0.1428571428571429 0.1428571428571429 0.1428571428571429 0.1428571428571429 0.1428571428571429 0.1428571428571429 0.07142857142857144 0.07142857142857144 0.07142857142857144 0.07142857142857144 0.5714285714285715 0.07142857142857144 0.07142857142857144 0.1428571428571429 0.1428571428571429 0.1428571428571429 0.1428571428571429 0.1428571428571429 0.1428571428571429 0.1428571428571429 0.1428571428571429 0.1428571428571429 0.1428571428571429 0.1428571428571429 0.1428571428571429 0.1428571428571429 0.1428571428571429 0.1428571428571429 0.1428571428571429 0.1428571428571429 0.1428571428571429 0.1428571428571429 0.1428571428571429 0.1428571428571429 0.1428571428571429 0.1428571428571429 0.1428571428571429 0.1428571428571429 0.1428571428571429 0.1428571428571429 0.1428571428571429 0.1428571428571429 0.1428571428571429 0.1428571428571429 0.1428571428571429 0.1428571428571429 0.1428571428571429 0.1428571428571429 0.1428571428571429 0.1428571428571429 0.1428571428571429 0.1428571428571429 0.1428571428571429 0.1428571428571429 0.1428571428571429 0.1428571428571429 0.1428571428571429 0.1428571428571429 0.1428571428571429 0.1428571428571429 0.1428571428571429 0.1428571428571429 0.1428571428571429 0.1428571428571429 0.1428571428571429 0.1428571428571429 0.1428571428571429 0.1428571428571429 0.1428571428571429 0.1428571428571429 0.1428571428571429 0.1428571428571429 0.1428571428571429 0.1428571428571429 0.1428571428571429 0.1428571428571429 0.1428571428571429 0.1428571428571429 0.1428571428571429 0.1428571428571429 0.1428571428571429 0.1428571428571429 0.1428571428571429 0.1428571428571429 0.1428571428571429 0.1428571428571429 0.1428571428571429 0.1428571428571429 0.1428571428571429 0.1428571428571429 0.1428571428571429 0.1428571428571429 0.1428571428571429 0.1428571428571429 0.1428571428571429 0.1428571428571429 0.1428571428571429 0.1428571428571429 0.1428571428571429 0.1428571428571429 0.1428571428571429 0.1428571428571429 0.1428571428571429 0.1428571428571429 0.1428571428571429 0.1428571428571429 0.1428571428571429 0.1428571428571429 0.1428571428571429 0.1428571428571429 0.1428571428571429 0.1428571428571429 0.1428571428571429 0.1428571428571429 0.1428571428571429 0.1428571428571429 0.1428571428571429 0.1428571428571429 0.1428571428571429 0.1428571428571429 0.1428571428571429 0.1428571428571429 0.1428571428571429 0.1428571428571429 0.1428571428571429 0.1428571428571429 0.1428571428571429 0.1428571428571429 0.1428571428571429 0.1428571428571429 0.1428571428571429 0.1428571428571429 0.1428571428571429 0.1428571428571429 0.1428571428571429 0.1428571428571429 0.1428571428571429 0.1428571428571429 0.1428571428571429 0.1428571428571429 0.1428571428571429 0.1428571428571429 0.1428571428571429 0.1428571428571429 0.1428571428571429 0.1428571428571429 0.1428571428571429 0.1428571428571429 0.1428571428571429 0.1428571428571429 0.1428571428571429 0.1428571428571429 0.1428571428571429 0.1428571428571429 0.1428571428571429 0.1428571428571429 0.1428571428571429 0.1428571428571429 0.1428571428571429 0.1428571428571429 0.07142857142857144 0.07142857142857144 0.07142857142857144 0.07142857142857144 0.5714285714285715 0.07142857142857144 0.07142857142857144 0.1428571428571429 0.1428571428571429 0.1428571428571429 0.1428571428571429 0.1428571428571429 0.1428571428571429 0.1428571428571429 0.1428571428571429 0.1428571428571429 0.1428571428571429 0.1428571428571429 0.1428571428571429 0.1428571428571429 0.1428571428571429 0.1428571428571429 0.1428571428571429 0.1428571428571429 0.1428571428571429 0.1428571428571429 0.1428571428571429 0.1428571428571429 0.1428571428571429 0.1428571428571429 0.1428571428571429 0.1428571428571429 0.1428571428571429 0.1428571428571429 0.1428571428571429 0.1428571428571429 0.1428571428571429 0.1428571428571429 0.1428571428571429 0.1428571428571429 0.1428571428571429 0.1428571428571429 0.1428571428571429 0.1428571428571429 0.1428571428571429 0.1428571428571429 0.1428571428571429 0.1428571428571429 0.1428571428571429 0.1428571428571429 0.1428571428571429 0.1428571428571429 0.1428571428571429 0.1428571428571429 0.1428571428571429 0.1428571428571429 0.1428571428571429 0.1428571428571429 0.1428571428571429 0.1428571428571429 0.1428571428571429 0.1428571428571429 0.1428571428571429 0.1428571428571429 0.1428571428571429 0.1428571428571429 0.1428571428571429 0.1428571428571429 0.1428571428571429 0.1428571428571429 0.1428571428571429 0.1428571428571429 0.1428571428571429 0.1428571428571429 0.1428571428571429 0.1428571428571429 0.1428571428571429 0.1428571428571429 0.1428571428571429 0.1428571428571429 0.1428571428571429 0.1428571428571429 0.1428571428571429 0.1428571428571429 0.1428571428571429 0.1428571428571429 0.1428571428571429 0.1428571428571429 0.1428571428571429 0.1428571428571429 0.1428571428571429 0.0009337068160597574 0.0009337068160597574 0.0009337068160597574 0.9943977591036416 0.0009337068160597574 0.0009337068160597574 0.0009337068160597574 0.1428571428571429 0.1428571428571429 0.1428571428571429 0.1428571428571429 0.1428571428571429 0.1428571428571429 0.1428571428571429 0.001231527093596059 0.001231527093596059 0.001231527093596059 0.9926108374384238 0.001231527093596059 0.001231527093596059 0.001231527093596059 0.1428571428571429 0.1428571428571429 0.1428571428571429 0.1428571428571429 0.1428571428571429 0.1428571428571429 0.1428571428571429 0.1428571428571429 0.1428571428571429 0.1428571428571429 0.1428571428571429 0.1428571428571429 0.1428571428571429 0.1428571428571429 0.1428571428571429 0.1428571428571429 0.1428571428571429 0.1428571428571429 0.1428571428571429 0.1428571428571429 0.1428571428571429 0.1428571428571429 0.1428571428571429 0.1428571428571429 0.1428571428571429 0.1428571428571429 0.1428571428571429 0.1428571428571429 0.1428571428571429 0.1428571428571429 0.1428571428571429 0.1428571428571429 0.1428571428571429 0.1428571428571429 0.1428571428571429 0.1428571428571429 0.1428571428571429 0.1428571428571429 0.1428571428571429 0.1428571428571429 0.1428571428571429 0.1428571428571429 0.1428571428571429 0.1428571428571429 0.1428571428571429 0.1428571428571429 0.1428571428571429 0.1428571428571429 0.1428571428571429 0.1428571428571429 0.1428571428571429 0.1428571428571429 0.1428571428571429 0.1428571428571429 0.1428571428571429 0.1428571428571429 0.002012072434607646 0.002012072434607646 0.002012072434607646 0.9879275653923542 0.002012072434607646 0.002012072434607646 0.002012072434607646 0.0006738544474393531 0.0006738544474393531 0.0006738544474393531 0.995956873315364 0.0006738544474393531 0.0006738544474393531 0.0006738544474393531 0.1428571428571429 0.1428571428571429 0.1428571428571429 0.1428571428571429 0.1428571428571429 0.1428571428571429 0.1428571428571429 0.1428571428571429 0.1428571428571429 0.1428571428571429 0.1428571428571429 0.1428571428571429 0.1428571428571429 0.1428571428571429 0.1428571428571429 0.1428571428571429 0.1428571428571429 0.1428571428571429 0.1428571428571429 0.1428571428571429 0.1428571428571429 0.1428571428571429 0.1428571428571429 0.1428571428571429 0.1428571428571429 0.1428571428571429 0.1428571428571429 0.1428571428571429 0.1428571428571429 0.1428571428571429 0.1428571428571429 0.1428571428571429 0.1428571428571429 0.1428571428571429 0.1428571428571429 0.1428571428571429 0.1428571428571429 0.1428571428571429 0.1428571428571429 0.1428571428571429 0.1428571428571429 0.1428571428571429 0.1428571428571429 0.1428571428571429 0.1428571428571429 0.1428571428571429 0.1428571428571429 0.1428571428571429 0.1428571428571429 0.1428571428571429 0.1428571428571429 0.1428571428571429 0.1428571428571429 0.1428571428571429 0.1428571428571429 0.1428571428571429 0.01020408163265306 0.01020408163265306 0.01020408163265306 0.9387755102040817 0.01020408163265306 0.01020408163265306 0.01020408163265306 0.1428571428571429 0.1428571428571429 0.1428571428571429 0.1428571428571429 0.1428571428571429 0.1428571428571429 0.1428571428571429 0.1428571428571429 0.1428571428571429 0.1428571428571429 0.1428571428571429 0.1428571428571429 0.1428571428571429 0.1428571428571429 0.1428571428571429 0.1428571428571429 0.1428571428571429 0.1428571428571429 0.1428571428571429 0.1428571428571429 0.1428571428571429 0.1428571428571429 0.1428571428571429 0.1428571428571429 0.1428571428571429 0.1428571428571429 0.1428571428571429 0.1428571428571429 0.0006493506493506495 0.0006493506493506495 0.0006493506493506495 0.9961038961038963 0.0006493506493506495 0.0006493506493506495 0.0006493506493506495 0.003401360544217686 0.003401360544217686 0.003401360544217686 0.9795918367346936 0.003401360544217686 0.003401360544217686 0.003401360544217686 0.002463054187192117 0.002463054187192117 0.002463054187192117 0.9852216748768471 0.002463054187192117 0.002463054187192117 0.002463054187192117 0.1428571428571429 0.1428571428571429 0.1428571428571429 0.1428571428571429 0.1428571428571429 0.1428571428571429 0.1428571428571429 0.1428571428571429 0.1428571428571429 0.1428571428571429 0.1428571428571429 0.1428571428571429 0.1428571428571429 0.1428571428571429 0.1428571428571429 0.1428571428571429 0.1428571428571429 0.1428571428571429 0.1428571428571429 0.1428571428571429 0.1428571428571429 0.1428571428571429 0.1428571428571429 0.1428571428571429 0.1428571428571429 0.1428571428571429 0.1428571428571429 0.1428571428571429 0.1428571428571429 0.1428571428571429 0.1428571428571429 0.1428571428571429 0.1428571428571429 0.1428571428571429 0.1428571428571429 0.1428571428571429 0.1428571428571429 0.1428571428571429 0.1428571428571429 0.1428571428571429 0.1428571428571429 0.1428571428571429 0.1428571428571429 0.1428571428571429 0.1428571428571429 0.1428571428571429 0.1428571428571429 0.1428571428571429 0.1428571428571429 0.1428571428571429 0.1428571428571429 0.1428571428571429 0.1428571428571429 0.1428571428571429 0.1428571428571429 0.1428571428571429 0.001373626373626374 0.001373626373626374 0.001373626373626374 0.9917582417582418 0.001373626373626374 0.001373626373626374 0.001373626373626374 0.0005977286312014346 0.0005977286312014346 0.0005977286312014346 0.9964136282127914 0.0005977286312014346 0.0005977286312014346 0.0005977286312014346 0.004608294930875577 0.004608294930875577 0.004608294930875577 0.9723502304147467 0.004608294930875577 0.004608294930875577 0.004608294930875577 0.1428571428571429 0.1428571428571429 0.1428571428571429 0.1428571428571429 0.1428571428571429 0.1428571428571429 0.1428571428571429 0.1428571428571429 0.1428571428571429 0.1428571428571429 0.1428571428571429 0.1428571428571429 0.1428571428571429 0.1428571428571429 0.1428571428571429 0.1428571428571429 0.1428571428571429 0.1428571428571429 0.1428571428571429 0.1428571428571429 0.1428571428571429 0.1428571428571429 0.1428571428571429 0.1428571428571429 0.1428571428571429 0.1428571428571429 0.1428571428571429 0.1428571428571429 0.1428571428571429 0.1428571428571429 0.1428571428571429 0.1428571428571429 0.1428571428571429 0.1428571428571429 0.1428571428571429 0.1428571428571429 0.1428571428571429 0.1428571428571429 0.1428571428571429 0.1428571428571429 0.1428571428571429 0.1428571428571429 0.1428571428571429 0.1428571428571429 0.1428571428571429 0.1428571428571429 0.1428571428571429 0.1428571428571429 0.1428571428571429 0.0009041591320072334 0.0009041591320072334 0.0009041591320072334 0.9945750452079567 0.0009041591320072334 0.0009041591320072334 0.0009041591320072334 0.1428571428571429 0.1428571428571429 0.1428571428571429 0.1428571428571429 0.1428571428571429 0.1428571428571429 0.1428571428571429 0.1428571428571429 0.1428571428571429 0.1428571428571429 0.1428571428571429 0.1428571428571429 0.1428571428571429 0.1428571428571429 0.1428571428571429 0.1428571428571429 0.1428571428571429 0.1428571428571429 0.1428571428571429 0.1428571428571429 0.1428571428571429 0.1428571428571429 0.1428571428571429 0.1428571428571429 0.1428571428571429 0.1428571428571429 0.1428571428571429 0.1428571428571429 0.005291005291005292 0.005291005291005292 0.005291005291005292 0.9682539682539684 0.005291005291005292 0.005291005291005292 0.005291005291005292 0.0002915451895043731 0.0002915451895043731 0.0002915451895043731 0.9982507288629735 0.0002915451895043731 0.0002915451895043731 0.0002915451895043731 0.1428571428571429 0.1428571428571429 0.1428571428571429 0.1428571428571429 0.1428571428571429 0.1428571428571429 0.1428571428571429 0.1428571428571429 0.1428571428571429 0.1428571428571429 0.1428571428571429 0.1428571428571429 0.1428571428571429 0.1428571428571429 0.1428571428571429 0.1428571428571429 0.1428571428571429 0.1428571428571429 0.1428571428571429 0.1428571428571429 0.1428571428571429 0.1428571428571429 0.1428571428571429 0.1428571428571429 0.1428571428571429 0.1428571428571429 0.1428571428571429 0.1428571428571429 0.1428571428571429 0.1428571428571429 0.1428571428571429 0.1428571428571429 0.1428571428571429 0.1428571428571429 0.1428571428571429 0.1428571428571429 0.1428571428571429 0.1428571428571429 0.1428571428571429 0.1428571428571429 0.1428571428571429 0.1428571428571429 0.1428571428571429 0.1428571428571429 0.1428571428571429 0.1428571428571429 0.1428571428571429 0.1428571428571429 0.1428571428571429 0.1428571428571429 0.1428571428571429 0.1428571428571429 0.1428571428571429 0.1428571428571429 0.1428571428571429 0.1428571428571429 0.1428571428571429 0.1428571428571429 0.1428571428571429 0.1428571428571429 0.1428571428571429 0.1428571428571429 0.1428571428571429 0.07142857142857144 0.07142857142857144 0.07142857142857144 0.5714285714285715 0.07142857142857144 0.07142857142857144 0.07142857142857144 0.001680672268907563 0.001680672268907563 0.001680672268907563 0.9899159663865547 0.001680672268907563 0.001680672268907563 0.001680672268907563 0.0004409171075837741 0.0004409171075837741 0.0004409171075837741 0.9973544973544971 0.0004409171075837741 0.0004409171075837741 0.0004409171075837741 0.1428571428571429 0.1428571428571429 0.1428571428571429 0.1428571428571429 0.1428571428571429 0.1428571428571429 0.1428571428571429 0.1428571428571429 0.1428571428571429 0.1428571428571429 0.1428571428571429 0.1428571428571429 0.1428571428571429 0.1428571428571429 0.1428571428571429 0.1428571428571429 0.1428571428571429 0.1428571428571429 0.1428571428571429 0.1428571428571429 0.1428571428571429 0.1428571428571429 0.1428571428571429 0.1428571428571429 0.1428571428571429 0.1428571428571429 0.1428571428571429 0.1428571428571429 0.1428571428571429 0.1428571428571429 0.1428571428571429 0.1428571428571429 0.1428571428571429 0.1428571428571429 0.1428571428571429 0.1428571428571429 0.1428571428571429 0.1428571428571429 0.1428571428571429 0.1428571428571429 0.1428571428571429 0.1428571428571429 0.1428571428571429 0.1428571428571429 0.1428571428571429 0.1428571428571429 0.1428571428571429 0.1428571428571429 0.1428571428571429 0.07142857142857144 0.07142857142857144 0.07142857142857144 0.5714285714285715 0.07142857142857144 0.07142857142857144 0.07142857142857144 0.1428571428571429 0.1428571428571429 0.1428571428571429 0.1428571428571429 0.1428571428571429 0.1428571428571429 0.1428571428571429 0.1428571428571429 0.1428571428571429 0.1428571428571429 0.1428571428571429 0.1428571428571429 0.1428571428571429 0.1428571428571429 0.1428571428571429 0.1428571428571429 0.1428571428571429 0.1428571428571429 0.1428571428571429 0.1428571428571429 0.1428571428571429 0.1428571428571429 0.1428571428571429 0.1428571428571429 0.1428571428571429 0.1428571428571429 0.1428571428571429 0.1428571428571429 0.1428571428571429 0.1428571428571429 0.1428571428571429 0.1428571428571429 0.1428571428571429 0.1428571428571429 0.1428571428571429 0.0238095238095238 0.0238095238095238 0.0238095238095238 0.857142857142857 0.0238095238095238 0.0238095238095238 0.0238095238095238 0.1428571428571429 0.1428571428571429 0.1428571428571429 0.1428571428571429 0.1428571428571429 0.1428571428571429 0.1428571428571429 0.1428571428571429 0.1428571428571429 0.1428571428571429 0.1428571428571429 0.1428571428571429 0.1428571428571429 0.1428571428571429 0.1428571428571429 0.1428571428571429 0.1428571428571429 0.1428571428571429 0.1428571428571429 0.1428571428571429 0.1428571428571429 0.1428571428571429 0.1428571428571429 0.1428571428571429 0.1428571428571429 0.1428571428571429 0.1428571428571429 0.1428571428571429 0.1428571428571429 0.1428571428571429 0.1428571428571429 0.1428571428571429 0.1428571428571429 0.1428571428571429 0.1428571428571429 0.1428571428571429 0.1428571428571429 0.1428571428571429 0.1428571428571429 0.1428571428571429 0.1428571428571429 0.1428571428571429 0.1428571428571429 0.1428571428571429 0.1428571428571429 0.1428571428571429 0.1428571428571429 0.1428571428571429 0.1428571428571429 0.1428571428571429 0.1428571428571429 0.1428571428571429 0.1428571428571429 0.1428571428571429 0.1428571428571429 0.1428571428571429 0.1428571428571429 0.1428571428571429 0.1428571428571429 0.1428571428571429 0.1428571428571429 0.1428571428571429 0.1428571428571429 0.1428571428571429 0.1428571428571429 0.1428571428571429 0.1428571428571429 0.1428571428571429 0.1428571428571429 0.1428571428571429 0.07142857142857144 0.07142857142857144 0.07142857142857144 0.5714285714285715 0.07142857142857144 0.07142857142857144 0.07142857142857144 0.1428571428571429 0.1428571428571429 0.1428571428571429 0.1428571428571429 0.1428571428571429 0.1428571428571429 0.1428571428571429 0.1428571428571429 0.1428571428571429 0.1428571428571429 0.1428571428571429 0.1428571428571429 0.1428571428571429 0.1428571428571429 0.1428571428571429 0.1428571428571429 0.1428571428571429 0.1428571428571429 