<?xml version="1.0" encoding="UTF-8"?>
<!-- This network was created in GeNIe Academic, which can be used for academic teaching and research purposes only -->
<smile version="1.0" id="bs_mushroom_discretized" numsamples="10000" discsamples="10000">
	<nodes>
		<cpt id="gill_attachment" diagtype="observation" ranked="true">
			<state id="State0" />
			<state id="State1" />
			<state id="State2" />
			<state id="State3" />
			<state id="State4" />
			<state id="State5" />
			<state id="State6" />
			<probabilities>0.3591190894790414 0.1855464051078005 0.08279818636069215 0.05629684463773481 0.08873878042009808 0.09793652262422504 0.1295641713704081</probabilities>
		</cpt>
		<cpt id="season" diagtype="observation" ranked="true">
			<state id="season1" />
			<state id="season2" />
			<state id="season3" />
			<state id="season4" />
			<probabilities>0.04106597575645415 0.3772924956047007 0.5035625057832886 0.0780790228555566</probabilities>
		</cpt>
		<cpt id="stem_height" diagtype="observation" ranked="true">
			<state id="stemh1_below_024" />
			<state id="stemh2_024_078" />
			<state id="stemh3_078_156" />
			<state id="stemh4_156_193" />
			<state id="stemh5_193_211" />
			<state id="stemh6_211_up" />
			<parents>gill_attachment season</parents>
			<probabilities>0.255700871898055 0.4689805499664655 0.2717974513749162 0.003185781354795439 0.0001676727028839705 0.0001676727028839705 0.2157785467128028 0.403044982698962 0.2698961937716263 0.03875432525951557 0.04539792387543253 0.0271280276816609 0.1710610248777376 0.3835849457792898 0.2928981501169466 0.05517754624707633 0.04146289602381458 0.05581543695513502 0.2549129702414374 0.368893879842785 0.2380685008422235 0.1094890510948905 0.02133632790567097 0.007299270072992701 0.1666666666666667 0.1666666666666667 0.1666666666666667 0.1666666666666667 0.1666666666666667 0.1666666666666667 0.24640434192673 0.4238805970149254 0.2922659430122117 0.03582089552238806 0.001085481682496608 0.000542740841248304 0.2653374233128835 0.384010736196319 0.3138420245398773 0.03585122699386503 0.0007668711656441718 0.0001917177914110429 0.3386666666666667 0.256 0.3706666666666667 0.03111111111111111 0.002666666666666667 0.0008888888888888889 0.3643790849673202 0.40359477124183 0.1486928104575163 0.001633986928104575 0.01143790849673203 0.07026143790849672 0.1804853387259858 0.3169868554095046 0.1648129423660263 0.09403437815975733 0.05864509605662285 0.1850353892821031 0.1548556430446194 0.2642169728783902 0.2909011373578303 0.08923884514435695 0.04636920384951881 0.1544181977252843 0.2651515151515151 0.4106060606060606 0.07424242424242423 0.001515151515151515 0.02878787878787879 0.2196969696969697 0.1889671361502348 0.2931924882629108 0.257981220657277 0.001643192488262911 0.257981220657277 0.0002347417840375587 0.0854575163398693 0.202124183006536 0.5305555555555557 0.004084967320261439 0.1776143790849674 0.0001633986928104575 0.2888189448441247 0.2501498800959233 0.31939448441247 0.001948441247002398 0.1395383693045563 0.0001498800959232614 0.03022875816993465 0.04493464052287582 0.005718954248366014 0.0008169934640522877 0.917483660130719 0.0008169934640522877 0.1666666666666667 0.1666666666666667 0.1666666666666667 0.1666666666666667 0.1666666666666667 0.1666666666666667 0.1745423584504044 0.3167305236270754 0.3610046828437633 0.06002554278416348 0.01745423584504044 0.07024265644955301 0.1525919732441472 0.4201505016722408 0.2721571906354515 0.0560200668896321 0.02006688963210702 0.07901337792642141 0.1121212121212122 0.6393939393939395 0.2393939393939395 0.003030303030303031 0.003030303030303031 0.003030303030303031 0.3690476190476191 0.5393772893772895 0.08882783882783885 0.0009157509157509158 0.0009157509157509158 0.0009157509157509158 0.3034737092552938 0.4997620747085414 0.1956935522246015 0.000832738520104687 0.000118962645729241 0.000118962645729241 0.2664588801399825 0.4829943132108487 0.2425087489063867 0.00760061242344707 0.0003827646544181978 5.46806649168854e-05 0.249874686716792 0.5761904761904764 0.1731829573934837 0.0002506265664160402 0.0002506265664160402 0.0002506265664160402 0.1320621468926554 0.6151129943502825 0.2507062146892656 0.0007062146892655368 0.0007062146892655368 0.0007062146892655368 0.2929329915781765 0.4632002929329915 0.165140974002197 0.02563163676309044 0.005858659831563529 0.04723544489198096 0.2798507462686567 0.4504264392324094 0.1990938166311301 0.02905117270788913 0.007462686567164179 0.03411513859275053 0.3421361502347417 0.549882629107981 0.1062206572769953 0.0005868544600938965 0.0005868544600938965 0.0005868544600938965</probabilities>
		</cpt>
		<cpt id="cap_shape" diagtype="observation" ranked="true">
			<state id="State0" />
			<state id="State1" />
			<state id="State2" />
			<state id="State3" />
			<state id="State4" />
			<state id="State5" />
			<state id="State6" />
			<parents>gill_attachment stem_height season</parents>
			<probabilities>0.5652661064425771 0.0005602240896358544 0.188795518207283 0.0005602240896358544 0.1338935574229692 0.0005602240896358544 0.1103641456582633 0.2206542655548428 0.1058370750481078 0.1462475946119307 0.0006414368184733803 0.03720333547145606 0.05195638229634381 0.4374599101988454 0.1982597886886265 0.1062771908017402 0.1646985705407085 0.007458048477315102 0.03977625854568054 0.05779987569919204 0.4257302672467371 0.1475667189952904 0.0003139717425431711 0.2398744113029827 0.0003139717425431711 0.0003139717425431711 0.08602825745682889 0.5255886970172684 0.4264301009483021 0.0003059039461609054 0.190884062404405 0.03884980116243499 0.1180789232181095 0.0003059039461609054 0.2251453043744264 0.209478021978022 0.1033653846153846 0.189217032967033 0.02403846153846154 0.03846153846153846 0.07280219780219781 0.3626373626373627 0.1571507760532151 0.08841463414634146 0.2635809312638581 0.01662971175166297 0.03270509977827051 0.05626385809312639 0.3852549889135255 0.08836300477637862 0.0002171081198436821 0.2722535822839774 0.03061224489795918 0.0002171081198436821 0.06556665219279201 0.5427702996092053 0.3141802846599894 0.0005271481286241433 0.04849762783342119 0.09277807063784924 0.1887190300474433 0.0005271481286241433 0.3547706905640485 0.2087179487179487 0.03025641025641026 0.1087179487179487 0.03025641025641026 0.03897435897435898 0.05846153846153846 0.5246153846153846 0.1575317604355717 0.01887477313974591 0.1274047186932849 0.02431941923774954 0.02686025408348457 0.04972776769509982 0.5952813067150635 0.1979831932773109 0.0003361344537815126 0.1273949579831933 0.04033613445378151 0.1156302521008403 0.03327731092436974 0.4850420168067227 0.2857142857142858 0.03571428571428572 0.2857142857142858 0.03571428571428572 0.03571428571428572 0.03571428571428572 0.2857142857142858 0.1962379257752923 0.007625826131164208 0.2389425521098119 0.0005083884087442805 0.0005083884087442805 0.0005083884087442805 0.5556685307574987 0.07912087912087913 0.0002747252747252747 0.1521978021978022 0.2887362637362638 0.0002747252747252747 0.004120879120879121 0.4752747252747253 0.1435860058309038 0.0007288629737609329 0.03134110787172012 0.7915451895043732 0.0007288629737609329 0.010932944606414 0.02113702623906706 0.1428571428571429 0.1428571428571429 0.1428571428571429 0.1428571428571429 0.1428571428571429 0.1428571428571429 0.1428571428571429 0.05514546244029526 0.0004342162396873643 0.1159357359965263 0.5627442466348241 0.0004342162396873643 0.0004342162396873643 0.2648719062092922 0.04384362440628425 0.0003653635367190354 0.1282426013883814 0.4811837778589697 0.01059554256485203 0.0003653635367190354 0.3354037267080746 0.1831501831501831 0.003663003663003662 0.05494505494505494 0.7216117216117215 0.003663003663003662 0.003663003663003662 0.0293040293040293 0.1428571428571429 0.1428571428571429 0.1428571428571429 0.1428571428571429 0.1428571428571429 0.1428571428571429 0.1428571428571429 0.1022480058013053 0.000725163161711385 0.1783901377810007 0.000725163161711385 0.000725163161711385 0.000725163161711385 0.7164612037708483 0.2854426941879413 0.000271591526344378 0.07821835958718089 0.000271591526344378 0.2074959261271048 0.000271591526344378 0.4280282455187398 0.9387755102040819 0.01020408163265306 0.01020408163265306 0.01020408163265306 0.01020408163265306 0.01020408163265306 0.01020408163265306 0.1428571428571429 0.1428571428571429 0.1428571428571429 0.1428571428571429 0.1428571428571429 0.1428571428571429 0.1428571428571429 0.01115825868301116 0.0001571585730001572 0.1915763004871916 0.0001571585730001572 0.0001571585730001572 0.6173188747446173 0.1794750903661795 0.0037132542547705 0.0001031459515214028 0.2347601856627128 0.0001031459515214028 0.0001031459515214028 0.4686952037132542 0.2925219185146983 0.0003739715781600598 0.0003739715781600598 0.4506357516828721 0.0003739715781600598 0.0003739715781600598 0.1260284218399402 0.4218399401645475 0.1428571428571429 0.1428571428571429 0.1428571428571429 0.1428571428571429 0.1428571428571429 0.1428571428571429 0.1428571428571429 0.007129147244310391 9.139932364500501e-05 0.2029064984919112 9.139932364500501e-05 9.139932364500501e-05 0.6302897358559546 0.1594004204368888 0.008554319931565439 7.1285999429712e-05 0.2051611063587112 7.1285999429712e-05 7.1285999429712e-05 0.5524664955802679 0.2336042201311662 0.0004943153732081067 0.0004943153732081067 0.4295600593178448 0.0004943153732081067 0.0004943153732081067 0.1908057340583292 0.3776569451309936 0.1428571428571429 0.1428571428571429 0.1428571428571429 0.1428571428571429 0.1428571428571429 0.1428571428571429 0.1428571428571429 0.000132520540683806 0.000132520540683806 0.2088523721176782 0.000132520540683806 0.000132520540683806 0.5455870659952292 0.2450304797243573 8.721437292865865e-05 8.721437292865865e-05 0.3346415489272633 8.721437292865865e-05 8.721437292865865e-05 0.377376591662306 0.2876330019187163 0.0003417634996582364 0.0003417634996582364 0.6654135338345863 0.0003417634996582364 0.0003417634996582364 0.04579630895420368 0.2874231032125768 0.1428571428571429 0.1428571428571429 0.1428571428571429 0.1428571428571429 0.1428571428571429 0.1428571428571429 0.1428571428571429 0.001074113856068743 0.001074113856068743 0.03866809881847476 0.001074113856068743 0.001074113856068743 0.02363050483351235 0.9334049409237378 0.0007598784194528874 0.0007598784194528874 0.1124620060790273 0.0007598784194528874 0.0007598784194528874 0.03799392097264438 0.8465045592705167 0.003968253968253968 0.003968253968253968 0.6706349206349206 0.003968253968253968 0.003968253968253968 0.0873015873015873 0.2261904761904762 0.1428571428571429 0.1428571428571429 0.1428571428571429 0.1428571428571429 0.1428571428571429 0.1428571428571429 0.1428571428571429 0.02857142857142857 0.02857142857142857 0.02857142857142857 0.02857142857142857 0.02857142857142857 0.02857142857142857 0.8285714285714287 0.02857142857142857 0.02857142857142857 0.2285714285714286 0.02857142857142857 0.02857142857142857 0.02857142857142857 0.6285714285714286 0.03571428571428571 0.03571428571428571 0.03571428571428571 0.03571428571428571 0.03571428571428571 0.03571428571428571 0.7857142857142857 0.1428571428571429 0.1428571428571429 0.1428571428571429 0.1428571428571429 0.1428571428571429 0.1428571428571429 0.1428571428571429 0.04761904761904762 0.04761904761904762 0.380952380952381 0.04761904761904762 0.04761904761904762 0.04761904761904762 0.380952380952381 0.07142857142857144 0.07142857142857144 0.07142857142857144 0.07142857142857144 0.07142857142857144 0.07142857142857144 0.5714285714285715 0.07142857142857144 0.07142857142857144 0.07142857142857144 0.07142857142857144 0.07142857142857144 0.5714285714285715 0.07142857142857144 0.003759398496240601 0.003759398496240601 0.003759398496240601 0.003759398496240601 0.003759398496240601 0.003759398496240601 0.9774436090225564 0.07861133280127693 0.0003990422984836392 0.04229848363926576 0.0003990422984836392 0.03391859537110933 0.0003990422984836392 0.843974461292897 0.08772635814889335 0.0004024144869215291 0.04265593561368209 0.0004024144869215291 0.03983903420523138 0.0004024144869215291 0.8285714285714285 0.004761904761904761 0.004761904761904761 0.004761904761904761 0.004761904761904761 0.004761904761904761 0.004761904761904761 0.9714285714285714 0.003401360544217687 0.003401360544217687 0.003401360544217687 0.003401360544217687 0.003401360544217687 0.003401360544217687 0.9795918367346939 0.1897179253867152 0.0002274795268425842 0.1769790718835305 0.0002274795268425842 0.1419472247497725 0.0002274795268425842 0.4906733393994541 0.1489964580873672 0.0002361275088547816 0.187012987012987 0.0002361275088547816 0.1324675324675325 0.0002361275088547816 0.530814639905549 0.003105590062111801 0.003105590062111801 0.003105590062111801 0.003105590062111801 0.003105590062111801 0.003105590062111801 0.9813664596273293 0.008928571428571428 0.008928571428571428 0.008928571428571428 0.008928571428571428 0.008928571428571428 0.008928571428571428 0.9464285714285714 0.1105286151157711 0.000436871996505024 0.1441677588466579 0.000436871996505024 0.1778069025775448 0.000436871996505024 0.5661861074705111 0.05426855426855427 0.0002145002145002145 0.06928356928356928 0.0002145002145002145 0.3575718575718576 0.0002145002145002145 0.5182325182325183 0.01587301587301587 0.01587301587301587 0.01587301587301587 0.01587301587301587 0.01587301587301587 0.01587301587301587 0.9047619047619047 0.1428571428571429 0.1428571428571429 0.1428571428571429 0.1428571428571429 0.1428571428571429 0.1428571428571429 0.1428571428571429 0.01680672268907563 0.03284950343773873 0.2841864018334607 0.0007639419404125285 0.03284950343773873 0.0007639419404125285 0.6317799847211611 0.03972125435540069 0.02508710801393729 0.2543554006968641 0.0006968641114982578 0.0348432055749129 0.0006968641114982578 0.6445993031358885 0.1428571428571429 0.1428571428571429 0.1428571428571429 0.1428571428571429 0.1428571428571429 0.1428571428571429 0.1428571428571429 0.07142857142857144 0.07142857142857144 0.5714285714285715 0.07142857142857144 0.07142857142857144 0.07142857142857144 0.07142857142857144 0.09523809523809522 0.06105006105006105 0.3601953601953602 0.001221001221001221 0.02686202686202686 0.001221001221001221 0.4542124542124542 0.05740987983978638 0.05740987983978638 0.3751668891855808 0.001335113484646195 0.02002670226969292 0.001335113484646195 0.4873164218958612 0.03571428571428572 0.03571428571428572 0.7857142857142859 0.03571428571428572 0.03571428571428572 0.03571428571428572 0.03571428571428572 0.01785714285714286 0.01785714285714286 0.3928571428571428 0.01785714285714286 0.5178571428571429 0.01785714285714286 0.01785714285714286 0.4390813546126896 0.2265472946671856 0.0330868042039704 0.0003892565200467106 0.02763721292331646 0.0003892565200467106 0.2728688205527441 0.4580306698950767 0.1924939467312348 0.03995157384987894 0.0004035512510088781 0.02865213882163034 0.0004035512510088781 0.2800645682001614 0.005714285714285714 0.005714285714285714 0.5657142857142857 0.005714285714285714 0.3257142857142857 0.005714285714285714 0.08571428571428572 0.001058201058201058 0.3417989417989418 0.001058201058201058 0.3047619047619048 0.3492063492063492 0.001058201058201058 0.001058201058201058 0.001623376623376623 0.001623376623376623 0.2061688311688312 0.4675324675324676 0.001623376623376623 0.1834415584415584 0.137987012987013 0.0004436557231588287 0.0004436557231588287 0.05323868677905944 0.1060337178349601 0.0004436557231588287 0.7923691215616681 0.04702750665483584 0.02040816326530612 0.02040816326530612 0.02040816326530612 0.4489795918367346 0.02040816326530612 0.4489795918367346 0.02040816326530612 0.0006835269993164731 0.3547505126452495 0.0006835269993164731 0.3691045796308954 0.2734107997265893 0.0006835269993164731 0.0006835269993164731 0.0006901311249137336 0.0006901311249137336 0.2084195997239476 0.4161490683229814 0.0006901311249137336 0.2035886818495515 0.1697722567287785 0.0005120327700972862 0.0005120327700972862 0.1223758320532514 0.2406554019457245 0.0005120327700972862 0.5345622119815668 0.1008704557091654 0.01428571428571429 0.01428571428571429 0.01428571428571429 0.3142857142857143 0.01428571428571429 0.6142857142857143 0.01428571428571429 0.0007763975155279504 0.02795031055900622 0.0007763975155279504 0.9409937888198758 0.02795031055900622 0.0007763975155279504 0.0007763975155279504 0.0002635740643120717 0.0002635740643120717 0.1331049024775962 0.6238798102266737 0.0002635740643120717 0.1312598840274117 0.1109646810753822 0.0004012841091492776 0.0004012841091492776 0.1942215088282504 0.4217495987158908 0.0004012841091492776 0.1520866773675763 0.2307383627608346 0.07142857142857144 0.07142857142857144 0.07142857142857144 0.07142857142857144 0.07142857142857144 0.5714285714285715 0.07142857142857144 0.07142857142857144 0.07142857142857144 0.07142857142857144 0.5714285714285715 0.07142857142857144 0.07142857142857144 0.07142857142857144 0.02857142857142856 0.02857142857142856 0.2285714285714285 0.6285714285714284 0.02857142857142856 0.02857142857142856 0.02857142857142856 0.04761904761904762 0.04761904761904762 0.04761904761904762 0.7142857142857143 0.04761904761904762 0.04761904761904762 0.04761904761904762 0.1428571428571429 0.1428571428571429 0.1428571428571429 0.1428571428571429 0.1428571428571429 0.1428571428571429 0.1428571428571429 0.0007763975155279504 0.0007763975155279504 0.0007763975155279504 0.9953416149068324 0.0007763975155279504 0.0007763975155279504 0.0007763975155279504 0.0007849293563579278 0.0007849293563579278 0.0007849293563579278 0.9952904238618525 0.0007849293563579278 0.0007849293563579278 0.0007849293563579278 0.000915750915750916 0.000915750915750916 0.000915750915750916 0.9945054945054947 0.000915750915750916 0.000915750915750916 0.000915750915750916 0.0007598784194528876 0.0007598784194528876 0.0007598784194528876 0.9954407294832828 0.0007598784194528876 0.0007598784194528876 0.0007598784194528876 0.1428571428571429 0.1428571428571429 0.1428571428571429 0.1428571428571429 0.1428571428571429 0.1428571428571429 0.1428571428571429 0.1428571428571429 0.1428571428571429 0.1428571428571429 0.1428571428571429 0.1428571428571429 0.1428571428571429 0.1428571428571429 0.1428571428571429 0.1428571428571429 0.1428571428571429 0.1428571428571429 0.1428571428571429 0.1428571428571429 0.1428571428571429 0.1428571428571429 0.1428571428571429 0.1428571428571429 0.1428571428571429 0.1428571428571429 0.1428571428571429 0.1428571428571429 0.1428571428571429 0.1428571428571429 0.1428571428571429 0.1428571428571429 0.1428571428571429 0.1428571428571429 0.1428571428571429 0.0003475842891901286 0.0003475842891901286 0.0003475842891901286 0.0003475842891901286 0.0003475842891901286 0.0003475842891901286 0.9979144942648593 0.00039032006245121 0.00039032006245121 0.005854800936768149 0.00039032006245121 0.00039032006245121 0.00039032006245121 0.9921935987509759 0.02040816326530612 0.02040816326530612 0.3061224489795918 0.02040816326530612 0.02040816326530612 0.02040816326530612 0.5918367346938775 0.1428571428571429 0.1428571428571429 0.1428571428571429 0.1428571428571429 0.1428571428571429 0.1428571428571429 0.1428571428571429 0.0001917545541706615 0.0001917545541706615 0.01629913710450623 0.0001917545541706615 0.004218600191754554 0.01764141898370086 0.9612655800575263 0.0001420051121840386 0.0001420051121840386 0.01107639875035501 0.0001420051121840386 0.007100255609201931 0.0001420051121840386 0.9812553251917068 0.003968253968253968 0.003968253968253968 0.503968253968254 0.003968253968253968 0.003968253968253968 0.003968253968253968 0.4761904761904762 0.1428571428571429 0.1428571428571429 0.1428571428571429 0.1428571428571429 0.1428571428571429 0.1428571428571429 0.1428571428571429 0.0001682651859330304 0.0001682651859330304 0.209826686858489 0.0001682651859330304 0.0508160861517752 0.1744909978125526 0.5643614336193842 0.0002191060473269062 0.0002191060473269062 0.00175284837861525 0.0002191060473269062 0.06003505696757231 0.0002191060473269062 0.9373356704645048 0.01020408163265306 0.01020408163265306 0.4387755102040816 0.01020408163265306 0.01020408163265306 0.01020408163265306 0.5102040816326531 0.1428571428571429 0.1428571428571429 0.1428571428571429 0.1428571428571429 0.1428571428571429 0.1428571428571429 0.1428571428571429 0.001006036217303823 0.001006036217303823 0.001006036217303823 0.001006036217303823 0.2122736418511066 0.01509054325955734 0.7686116700201208 0.001058201058201058 0.001058201058201058 0.001058201058201058 0.001058201058201058 0.1862433862433862 0.001058201058201058 0.8084656084656084 0.1428571428571429 0.1428571428571429 0.1428571428571429 0.1428571428571429 0.1428571428571429 0.1428571428571429 0.1428571428571429 0.1428571428571429 0.1428571428571429 0.1428571428571429 0.1428571428571429 0.1428571428571429 0.1428571428571429 0.1428571428571429 0.003401360544217687 0.003401360544217687 0.003401360544217687 0.003401360544217687 0.09863945578231292 0.003401360544217687 0.8843537414965986 0.002915451895043731 0.002915451895043731 0.002915451895043731 0.002915451895043731 0.1253644314868805 0.002915451895043731 0.8600583090379008 0.1428571428571429 0.1428571428571429 0.1428571428571429 0.1428571428571429 0.1428571428571429 0.1428571428571429 0.1428571428571429 0.1428571428571429 0.1428571428571429 0.1428571428571429 0.1428571428571429 0.1428571428571429 0.1428571428571429 0.1428571428571429 0.0008605851979345956 0.0008605851979345956 0.0008605851979345956 0.0008605851979345956 0.2900172117039587 0.0008605851979345956 0.7056798623063684 0.0007518796992481202 0.0007518796992481202 0.0007518796992481202 0.0007518796992481202 0.2165413533834586 0.0007518796992481202 0.7796992481203007 0.1428571428571429 0.1428571428571429 0.1428571428571429 0.1428571428571429 0.1428571428571429 0.1428571428571429 0.1428571428571429 0.002100840336134453 0.002100840336134453 0.5315126050420167 0.002100840336134453 0.002100840336134453 0.002100840336134453 0.4579831932773108 0.1576123407109322 0.000335345405767941 0.3900067069081153 0.000335345405767941 0.000335345405767941 0.000335345405767941 0.4510395707578806 0.09488666315234578 0.0001757160428747144 0.4466701809875241 0.0001757160428747144 0.0001757160428747144 0.04076612194693376 0.4171498857845721 0.000855431993156544 0.000855431993156544 0.2463644140290847 0.000855431993156544 0.000855431993156544 0.1924721984602225 0.5577416595380668 0.001443001443001443 0.001443001443001443 0.5165945165945166 0.001443001443001443 0.001443001443001443 0.001443001443001443 0.4761904761904762 0.112899938862849 0.0002037905033625433 0.3653963725290401 0.0002037905033625433 0.0002037905033625433 0.0002037905033625433 0.5208885265946607 0.06255455338958395 9.698380370478131e-05 0.4501988167975948 9.698380370478131e-05 9.698380370478131e-05 0.07070119290078558 0.4162544855009214 0.0003720238095238095 0.0003720238095238095 0.3519345238095238 0.0003720238095238095 0.0003720238095238095 0.1800595238095238 0.4665178571428571 0.008403361344537815 0.008403361344537815 0.5378151260504201 0.008403361344537815 0.008403361344537815 0.008403361344537815 0.4201680672268908 0.05142857142857143 0.0005194805194805195 0.3714285714285714 0.0005194805194805195 0.0005194805194805195 0.0005194805194805195 0.5750649350649351 0.01505791505791506 0.0001930501930501931 0.7137065637065638 0.0001930501930501931 0.0001930501930501931 0.03938223938223939 0.2312741312741313 0.001231527093596059 0.001231527093596059 0.4408866995073892 0.001231527093596059 0.001231527093596059 0.2426108374384236 0.311576354679803 0.1428571428571429 0.1428571428571429 0.1428571428571429 0.1428571428571429 0.1428571428571429 0.1428571428571429 0.1428571428571429 0.07142857142857144 0.07142857142857144 0.07142857142857144 0.07142857142857144 0.07142857142857144 0.07142857142857144 0.5714285714285715 0.005952380952380953 0.005952380952380953 0.9642857142857144 0.005952380952380953 0.005952380952380953 0.005952380952380953 0.005952380952380953 0.1428571428571429 0.1428571428571429 0.1428571428571429 0.1428571428571429 0.1428571428571429 0.1428571428571429 0.1428571428571429 0.1428571428571429 0.1428571428571429 0.1428571428571429 0.1428571428571429 0.1428571428571429 0.1428571428571429 0.1428571428571429 0.1428571428571429 0.1428571428571429 0.1428571428571429 0.1428571428571429 0.1428571428571429 0.1428571428571429 0.1428571428571429 0.07142857142857144 0.07142857142857144 0.5714285714285715 0.07142857142857144 0.07142857142857144 0.07142857142857144 0.07142857142857144 0.1428571428571429 0.1428571428571429 0.1428571428571429 0.1428571428571429 0.1428571428571429 0.1428571428571429 0.1428571428571429 0.1428571428571429 0.1428571428571429 0.1428571428571429 0.1428571428571429 0.1428571428571429 0.1428571428571429 0.1428571428571429 0.1428571428571429 0.1428571428571429 0.1428571428571429 0.1428571428571429 0.1428571428571429 0.1428571428571429 0.1428571428571429 0.1428571428571429 0.1428571428571429 0.1428571428571429 0.1428571428571429 0.1428571428571429 0.1428571428571429 0.1428571428571429 0.1428571428571429 0.1428571428571429 0.1428571428571429 0.1428571428571429 0.1428571428571429 0.1428571428571429 0.1428571428571429 0.004464285714285715 0.9732142857142859 0.004464285714285715 0.004464285714285715 0.004464285714285715 0.004464285714285715 0.004464285714285715 0.06884251828072055 0.06135188157660069 0.5607276618512574 0.0001783484929552345 0.0001783484929552345 0.01266274299982165 0.2960584983056894 0.05912736169634362 0.04104934076389833 0.5167867337229849 0.0001359249694168819 0.0001359249694168819 0.0705450591273617 0.3122196547505777 0.001457725947521866 0.001457725947521866 0.532069970845481 0.001457725947521866 0.001457725947521866 0.08309037900874634 0.3790087463556852 0.0009784735812133074 0.4941291585127202 0.0009784735812133074 0.0009784735812133074 0.0009784735812133074 0.0009784735812133074 0.5009784735812134 0.1201760324983074 0.05145565335138794 0.4037463326562853 0.0001128413450688332 0.0001128413450688332 0.009591514330850823 0.4148047844730309 0.1059390048154093 0.03201824786685816 0.3602264087184253 8.448086508405847e-05 8.448086508405847e-05 0.05508152403480612 0.446565852834333 0.0009099181073703367 0.0009099181073703367 0.4340309372156506 0.0009099181073703367 0.0009099181073703367 0.172884440400364 0.3894449499545041 0.002380952380952381 0.219047619047619 0.002380952380952381 0.002380952380952381 0.002380952380952381 0.002380952380952381 0.7690476190476191 0.09544879898862201 0.03350189633375474 0.3786346396965866 0.000316055625790139 0.000316055625790139 0.01580278128950695 0.4759797724399494 0.05366692131398014 0.01489686783804431 0.2394957983193277 0.0001909854851031321 0.0001909854851031321 0.01623376623376623 0.6753246753246753 0.004608294930875576 0.004608294930875576 0.4884792626728111 0.004608294930875576 0.004608294930875576 0.2304147465437788 0.2626728110599078 0.1428571428571429 0.1428571428571429 0.1428571428571429 0.1428571428571429 0.1428571428571429 0.1428571428571429 0.1428571428571429 0.002012072434607645 0.002012072434607645 0.5372233400402414 0.002012072434607645 0.002012072434607645 0.002012072434607645 0.4527162977867203 0.001298701298701298 0.001298701298701298 0.2831168831168831 0.001298701298701298 0.001298701298701298 0.001298701298701298 0.7103896103896103 0.1428571428571429 0.1428571428571429 0.1428571428571429 0.1428571428571429 0.1428571428571429 0.1428571428571429 0.1428571428571429 0.1428571428571429 0.1428571428571429 0.1428571428571429 0.1428571428571429 0.1428571428571429 0.1428571428571429 0.1428571428571429 0.008403361344537815 0.008403361344537815 0.4789915966386554 0.008403361344537815 0.008403361344537815 0.008403361344537815 0.4789915966386554 0.004926108374384237 0.004926108374384237 0.3152709359605911 0.004926108374384237 0.004926108374384237 0.004926108374384237 0.6600985221674877 0.1428571428571429 0.1428571428571429 0.1428571428571429 0.1428571428571429 0.1428571428571429 0.1428571428571429 0.1428571428571429 0.1428571428571429 0.1428571428571429 0.1428571428571429 0.1428571428571429 0.1428571428571429 0.1428571428571429 0.1428571428571429 0.001098901098901099 0.001098901098901099 0.5241758241758242 0.001098901098901099 0.001098901098901099 0.001098901098901099 0.4703296703296704 0.001107419712070875 0.001107419712070875 0.4507198228128461 0.001107419712070875 0.001107419712070875 0.001107419712070875 0.5437430786267995 0.1428571428571429 0.1428571428571429 0.1428571428571429 0.1428571428571429 0.1428571428571429 0.1428571428571429 0.1428571428571429</probabilities>
		</cpt>
		<cpt id="gill_color" diagtype="observation" ranked="true">
			<state id="State0" />
			<state id="State1" />
			<state id="State2" />
			<state id="State3" />
			<state id="State4" />
			<state id="State5" />
			<state id="State6" />
			<state id="State7" />
			<state id="State8" />
			<state id="State9" />
			<state id="State10" />
			<state id="State11" />
			<parents>cap_shape gill_attachment stem_height</parents>
			<probabilities>9.52380952380952e-05 9.52380952380952e-05 9.52380952380952e-05 0.216095238095238 0.1555238095238095 0.4058095238095237 9.52380952380952e-05 9.52380952380952e-05 0.003523809523809523 0.1086666666666666 0.08580952380952378 0.02409523809523809 5.80720092915215e-05 5.80720092915215e-05 5.80720092915215e-05 0.363124274099884 0.09065040650406507 0.3394308943089432 5.80720092915215e-05 5.80720092915215e-05 0.04953542392566784 0.05371660859465739 0.03002322880371662 0.07322880371660861 8.242664029014175e-05 8.242664029014175e-05 8.242664029014175e-05 0.3640784701615561 0.3561655126937025 0.2720903395977579 8.242664029014175e-05 8.242664029014175e-05 0.004038905374216945 0.003049785690735245 8.242664029014175e-05 8.242664029014175e-05 0.0006613756613756614 0.0006613756613756614 0.0006613756613756614 0.02447089947089948 0.5165343915343916 0.4530423280423281 0.0006613756613756614 0.0006613756613756614 0.0006613756613756614 0.0006613756613756614 0.0006613756613756614 0.0006613756613756614 0.00193798449612403 0.00193798449612403 0.00193798449612403 0.00193798449612403 0.4903100775193797 0.4903100775193797 0.00193798449612403 0.00193798449612403 0.00193798449612403 0.00193798449612403 0.00193798449612403 0.00193798449612403 0.0004528985507246376 0.0004528985507246376 0.0004528985507246376 0.0004528985507246376 0.5113224637681159 0.1689311594202898 0.0004528985507246376 0.3156702898550724 0.0004528985507246376 0.0004528985507246376 0.0004528985507246376 0.0004528985507246376 0.005208333333333333 0.005208333333333333 0.005208333333333333 0.005208333333333333 0.005208333333333333 0.3802083333333333 0.005208333333333333 0.005208333333333333 0.005208333333333333 0.005208333333333333 0.005208333333333333 0.5677083333333334 0.002873563218390804 0.002873563218390804 0.002873563218390804 0.002873563218390804 0.002873563218390804 0.4856321839080459 0.002873563218390804 0.002873563218390804 0.002873563218390804 0.002873563218390804 0.002873563218390804 0.4856321839080459 0.08333333333333333 0.08333333333333333 0.08333333333333333 0.08333333333333333 0.08333333333333333 0.08333333333333333 0.08333333333333333 0.08333333333333333 0.08333333333333333 0.08333333333333333 0.08333333333333333 0.08333333333333333 0.08333333333333333 0.08333333333333333 0.08333333333333333 0.08333333333333333 0.08333333333333333 0.08333333333333333 0.08333333333333333 0.08333333333333333 0.08333333333333333 0.08333333333333333 0.08333333333333333 0.08333333333333333 0.08333333333333333 0.08333333333333333 0.08333333333333333 0.08333333333333333 0.08333333333333333 0.08333333333333333 0.08333333333333333 0.08333333333333333 0.08333333333333333 0.08333333333333333 0.08333333333333333 0.08333333333333333 0.08333333333333333 0.08333333333333333 0.08333333333333333 0.08333333333333333 0.08333333333333333 0.08333333333333333 0.08333333333333333 0.08333333333333333 0.08333333333333333 0.08333333333333333 0.08333333333333333 0.08333333333333333 0.001388888888888889 0.001388888888888889 0.001388888888888889 0.3680555555555555 0.1680555555555555 0.001388888888888889 0.001388888888888889 0.001388888888888889 0.001388888888888889 0.001388888888888889 0.01805555555555555 0.4347222222222221 0.0003968253968253968 0.0003968253968253968 0.0003968253968253968 0.1623015873015873 0.1623015873015873 0.2194444444444445 0.0003968253968253968 0.0003968253968253968 0.0003968253968253968 0.0003968253968253968 0.3146825396825397 0.1384920634920635 0.001141552511415525 0.001141552511415525 0.001141552511415525 0.05593607305936072 0.06963470319634703 0.2751141552511415 0.001141552511415525 0.001141552511415525 0.001141552511415525 0.001141552511415525 0.4394977168949772 0.1518264840182648 0.006944444444444442 0.006944444444444442 0.006944444444444442 0.006944444444444442 0.006944444444444442 0.006944444444444442 0.006944444444444442 0.006944444444444442 0.006944444444444442 0.006944444444444442 0.9236111111111109 0.006944444444444442 0.00462962962962963 0.00462962962962963 0.00462962962962963 0.00462962962962963 0.00462962962962963 0.00462962962962963 0.00462962962962963 0.00462962962962963 0.00462962962962963 0.00462962962962963 0.9490740740740742 0.00462962962962963 0.000257201646090535 0.000257201646090535 0.000257201646090535 0.000257201646090535 0.000257201646090535 0.000257201646090535 0.000257201646090535 0.000257201646090535 0.000257201646090535 0.000257201646090535 0.9971707818930042 0.000257201646090535 0.08333333333333333 0.08333333333333333 0.08333333333333333 0.08333333333333333 0.08333333333333333 0.08333333333333333 0.08333333333333333 0.08333333333333333 0.08333333333333333 0.08333333333333333 0.08333333333333333 0.08333333333333333 0.08333333333333333 0.08333333333333333 0.08333333333333333 0.08333333333333333 0.08333333333333333 0.08333333333333333 0.08333333333333333 0.08333333333333333 0.08333333333333333 0.08333333333333333 0.08333333333333333 0.08333333333333333 0.08333333333333333 0.08333333333333333 0.08333333333333333 0.08333333333333333 0.08333333333333333 0.08333333333333333 0.08333333333333333 0.08333333333333333 0.08333333333333333 0.08333333333333333 0.08333333333333333 0.08333333333333333 0.08333333333333333 0.08333333333333333 0.08333333333333333 0.08333333333333333 0.08333333333333333 0.08333333333333333 0.08333333333333333 0.08333333333333333 0.08333333333333333 0.08333333333333333 0.08333333333333333 0.08333333333333333 0.08333333333333333 0.08333333333333333 0.08333333333333333 0.08333333333333333 0.08333333333333333 0.08333333333333333 0.08333333333333333 0.08333333333333333 0.08333333333333333 0.08333333333333333 0.08333333333333333 0.08333333333333333 0.08333333333333333 0.08333333333333333 0.08333333333333333 0.08333333333333333 0.08333333333333333 0.08333333333333333 0.08333333333333333 0.08333333333333333 0.08333333333333333 0.08333333333333333 0.08333333333333333 0.08333333333333333 0.08333333333333333 0.08333333333333333 0.08333333333333333 0.08333333333333333 0.08333333333333333 0.08333333333333333 0.08333333333333333 0.08333333333333333 0.08333333333333333 0.08333333333333333 0.08333333333333333 0.08333333333333333 0.08333333333333333 0.08333333333333333 0.08333333333333333 0.08333333333333333 0.08333333333333333 0.08333333333333333 0.08333333333333333 0.08333333333333333 0.08333333333333333 0.08333333333333333 0.08333333333333333 0.08333333333333333 0.08333333333333333 0.08333333333333333 0.08333333333333333 0.08333333333333333 0.08333333333333333 0.08333333333333333 0.08333333333333333 0.08333333333333333 0.08333333333333333 0.08333333333333333 0.08333333333333333 0.08333333333333333 0.08333333333333333 0.08333333333333333 0.08333333333333333 0.08333333333333333 0.08333333333333333 0.08333333333333333 0.08333333333333333 0.08333333333333333 0.08333333333333333 0.08333333333333333 0.08333333333333333 0.08333333333333333 0.08333333333333333 0.08333333333333333 0.08333333333333333 0.08333333333333333 0.08333333333333333 0.08333333333333333 0.08333333333333333 0.08333333333333333 0.08333333333333333 0.08333333333333333 0.08333333333333333 0.08333333333333333 0.08333333333333333 0.08333333333333333 0.08333333333333333 0.08333333333333333 0.08333333333333333 0.08333333333333333 0.08333333333333333 0.08333333333333333 0.08333333333333333 0.08333333333333333 0.08333333333333333 0.08333333333333333 0.0005747126436781609 0.0005747126436781609 0.0005747126436781609 0.4419540229885057 0.0005747126436781609 0.2557471264367816 0.0005747126436781609 0.0005747126436781609 0.0005747126436781609 0.221264367816092 0.07643678160919541 0.0005747126436781609 0.0004844961240310078 0.0004844961240310078 0.0004844961240310078 0.4249031007751938 0.0004844961240310078 0.0993217054263566 0.0004844961240310078 0.0004844961240310078 0.0004844961240310078 0.1109496124031008 0.3609496124031009 0.0004844961240310078 0.003205128205128205 0.003205128205128205 0.003205128205128205 0.4647435897435897 0.003205128205128205 0.003205128205128205 0.003205128205128205 0.003205128205128205 0.003205128205128205 0.003205128205128205 0.5032051282051282 0.003205128205128205 0.08333333333333333 0.08333333333333333 0.08333333333333333 0.08333333333333333 0.08333333333333333 0.08333333333333333 0.08333333333333333 0.08333333333333333 0.08333333333333333 0.08333333333333333 0.08333333333333333 0.08333333333333333 0.08333333333333333 0.08333333333333333 0.08333333333333333 0.08333333333333333 0.08333333333333333 0.08333333333333333 0.08333333333333333 0.08333333333333333 0.08333333333333333 0.08333333333333333 0.08333333333333333 0.08333333333333333 0.08333333333333333 0.08333333333333333 0.08333333333333333 0.08333333333333333 0.08333333333333333 0.08333333333333333 0.08333333333333333 0.08333333333333333 0.08333333333333333 0.08333333333333333 0.08333333333333333 0.08333333333333333 0.0007062146892655368 0.0007062146892655368 0.0007062146892655368 0.0007062146892655368 0.0007062146892655368 0.0007062146892655368 0.0007062146892655368 0.9583333333333335 0.0007062146892655368 0.0007062146892655368 0.03460451977401131 0.0007062146892655368 0.0002510040160642571 0.0002510040160642571 0.0002510040160642571 0.0002510040160642571 0.0002510040160642571 0.0002510040160642571 0.0002510040160642571 0.1960341365461848 0.0002510040160642571 0.0002510040160642571 0.8014558232931728 0.0002510040160642571 0.0009920634920634922 0.0009920634920634922 0.0009920634920634922 0.0009920634920634922 0.0009920634920634922 0.0009920634920634922 0.0009920634920634922 0.0009920634920634922 0.0009920634920634922 0.0009920634920634922 0.9890873015873017 0.0009920634920634922 0.08333333333333333 0.08333333333333333 0.08333333333333333 0.08333333333333333 0.08333333333333333 0.08333333333333333 0.08333333333333333 0.08333333333333333 0.08333333333333333 0.08333333333333333 0.08333333333333333 0.08333333333333333 0.08333333333333333 0.08333333333333333 0.08333333333333333 0.08333333333333333 0.08333333333333333 0.08333333333333333 0.08333333333333333 0.08333333333333333 0.08333333333333333 0.08333333333333333 0.08333333333333333 0.08333333333333333 0.08333333333333333 0.08333333333333333 0.08333333333333333 0.08333333333333333 0.08333333333333333 0.08333333333333333 0.08333333333333333 0.08333333333333333 0.08333333333333333 0.08333333333333333 0.08333333333333333 0.08333333333333333 0.0002472799208704254 0.0002472799208704254 0.0002472799208704254 0.01805143422354105 0.0002472799208704254 0.3978733926805145 0.0002472799208704254 0.05959446092977251 0.3830365974282889 0.0002472799208704254 0.1070722057368942 0.03288822947576658 0.0001341921631776704 0.0001341921631776704 0.0001341921631776704 0.2706655931293613 0.0001341921631776704 0.1837090713902308 0.0001341921631776704 0.05327428878153516 0.07581857219538379 0.0001341921631776704 0.3382984433709071 0.07742887815351583 0.000744047619047619 0.000744047619047619 0.000744047619047619 0.0275297619047619 0.000744047619047619 0.4382440476190476 0.000744047619047619 0.000744047619047619 0.000744047619047619 0.000744047619047619 0.3668154761904762 0.1614583333333333 0.02777777777777777 0.02777777777777777 0.02777777777777777 0.02777777777777777 0.02777777777777777 0.02777777777777777 0.02777777777777777 0.02777777777777777 0.02777777777777777 0.02777777777777777 0.6944444444444443 0.02777777777777777 0.08333333333333333 0.08333333333333333 0.08333333333333333 0.08333333333333333 0.08333333333333333 0.08333333333333333 0.08333333333333333 0.08333333333333333 0.08333333333333333 0.08333333333333333 0.08333333333333333 0.08333333333333333 0.08333333333333333 0.08333333333333333 0.08333333333333333 0.08333333333333333 0.08333333333333333 0.08333333333333333 0.08333333333333333 0.08333333333333333 0.08333333333333333 0.08333333333333333 0.08333333333333333 0.08333333333333333 0.08333333333333333 0.08333333333333333 0.08333333333333333 0.08333333333333333 0.08333333333333333 0.08333333333333333 0.08333333333333333 0.08333333333333333 0.08333333333333333 0.08333333333333333 0.08333333333333333 0.08333333333333333 0.08333333333333333 0.08333333333333333 0.08333333333333333 0.08333333333333333 0.08333333333333333 0.08333333333333333 0.08333333333333333 0.08333333333333333 0.08333333333333333 0.08333333333333333 0.08333333333333333 0.08333333333333333 0.08333333333333333 0.08333333333333333 0.08333333333333333 0.08333333333333333 0.08333333333333333 0.08333333333333333 0.08333333333333333 0.08333333333333333 0.08333333333333333 0.08333333333333333 0.08333333333333333 0.08333333333333333 0.08333333333333333 0.08333333333333333 0.08333333333333333 0.08333333333333333 0.08333333333333333 0.08333333333333333 0.08333333333333333 0.08333333333333333 0.08333333333333333 0.08333333333333333 0.08333333333333333 0.08333333333333333 0.08333333333333333 0.08333333333333333 0.08333333333333333 0.08333333333333333 0.08333333333333333 0.08333333333333333 0.08333333333333333 0.08333333333333333 0.08333333333333333 0.08333333333333333 0.08333333333333333 0.08333333333333333 0.08333333333333333 0.08333333333333333 0.08333333333333333 0.08333333333333333 0.08333333333333333 0.08333333333333333 0.08333333333333333 0.08333333333333333 0.08333333333333333 0.08333333333333333 0.08333333333333333 0.08333333333333333 0.08333333333333333 0.08333333333333333 0.08333333333333333 0.08333333333333333 0.08333333333333333 0.08333333333333333 0.08333333333333333 0.08333333333333333 0.08333333333333333 0.08333333333333333 0.08333333333333333 0.08333333333333333 0.08333333333333333 0.08333333333333333 0.08333333333333333 0.08333333333333333 0.08333333333333333 0.08333333333333333 0.08333333333333333 0.08333333333333333 0.08333333333333333 0.08333333333333333 0.08333333333333333 0.08333333333333333 0.08333333333333333 0.08333333333333333 0.08333333333333333 0.08333333333333333 0.08333333333333333 0.08333333333333333 0.08333333333333333 0.08333333333333333 0.08333333333333333 0.08333333333333333 0.08333333333333333 0.08333333333333333 0.006944444444444442 0.006944444444444442 0.006944444444444442 0.006944444444444442 0.006944444444444442 0.006944444444444442 0.006944444444444442 0.006944444444444442 0.006944444444444442 0.006944444444444442 0.9236111111111109 0.006944444444444442 0.005952380952380952 0.005952380952380952 0.005952380952380952 0.005952380952380952 0.005952380952380952 0.005952380952380952 0.005952380952380952 0.005952380952380952 0.005952380952380952 0.005952380952380952 0.9345238095238095 0.005952380952380952 0.0005482456140350876 0.0005482456140350876 0.0005482456140350876 0.0005482456140350876 0.0005482456140350876 0.0005482456140350876 0.0005482456140350876 0.0005482456140350876 0.0005482456140350876 0.0005482456140350876 0.9939692982456139 0.0005482456140350876 0.00177304964539007 0.00177304964539007 0.9804964539007087 0.00177304964539007 0.00177304964539007 0.00177304964539007 0.00177304964539007 0.00177304964539007 0.00177304964539007 0.00177304964539007 0.00177304964539007 0.00177304964539007 0.001111111111111112 0.001111111111111112 0.9877777777777783 0.001111111111111112 0.001111111111111112 0.001111111111111112 0.001111111111111112 0.001111111111111112 0.001111111111111112 0.001111111111111112 0.001111111111111112 0.001111111111111112 0.0138888888888889 0.0138888888888889 0.8472222222222225 0.0138888888888889 0.0138888888888889 0.0138888888888889 0.0138888888888889 0.0138888888888889 0.0138888888888889 0.0138888888888889 0.0138888888888889 0.0138888888888889 0.08333333333333333 0.08333333333333333 0.08333333333333333 0.08333333333333333 0.08333333333333333 0.08333333333333333 0.08333333333333333 0.08333333333333333 0.08333333333333333 0.08333333333333333 0.08333333333333333 0.08333333333333333 0.08333333333333333 0.08333333333333333 0.08333333333333333 0.08333333333333333 0.08333333333333333 0.08333333333333333 0.08333333333333333 0.08333333333333333 0.08333333333333333 0.08333333333333333 0.08333333333333333 0.08333333333333333 0.08333333333333333 0.08333333333333333 0.08333333333333333 0.08333333333333333 0.08333333333333333 0.08333333333333333 0.08333333333333333 0.08333333333333333 0.08333333333333333 0.08333333333333333 0.08333333333333333 0.08333333333333333 0.08333333333333333 0.08333333333333333 0.08333333333333333 0.08333333333333333 0.08333333333333333 0.08333333333333333 0.08333333333333333 0.08333333333333333 0.08333333333333333 0.08333333333333333 0.08333333333333333 0.08333333333333333 0.08333333333333333 0.08333333333333333 0.08333333333333333 0.08333333333333333 0.08333333333333333 0.08333333333333333 0.08333333333333333 0.08333333333333333 0.08333333333333333 0.08333333333333333 0.08333333333333333 0.08333333333333333 0.08333333333333333 0.08333333333333333 0.08333333333333333 0.08333333333333333 0.08333333333333333 0.08333333333333333 0.08333333333333333 0.08333333333333333 0.08333333333333333 0.08333333333333333 0.08333333333333333 0.08333333333333333 0.08333333333333333 0.08333333333333333 0.08333333333333333 0.08333333333333333 0.08333333333333333 0.08333333333333333 0.08333333333333333 0.08333333333333333 0.08333333333333333 0.08333333333333333 0.08333333333333333 0.08333333333333333 0.08333333333333333 0.08333333333333333 0.08333333333333333 0.08333333333333333 0.08333333333333333 0.08333333333333333 0.08333333333333333 0.08333333333333333 0.08333333333333333 0.08333333333333333 0.08333333333333333 0.08333333333333333 0.08333333333333333 0.08333333333333333 0.08333333333333333 0.08333333333333333 0.08333333333333333 0.08333333333333333 0.08333333333333333 0.08333333333333333 0.08333333333333333 0.08333333333333333 0.08333333333333333 0.08333333333333333 0.08333333333333333 0.08333333333333333 0.08333333333333333 0.08333333333333333 0.08333333333333333 0.08333333333333333 0.08333333333333333 0.08333333333333333 0.08333333333333333 0.08333333333333333 0.08333333333333333 0.08333333333333333 0.08333333333333333 0.08333333333333333 0.08333333333333333 0.08333333333333333 0.08333333333333333 0.08333333333333333 0.08333333333333333 0.08333333333333333 0.08333333333333333 0.08333333333333333 0.08333333333333333 0.08333333333333333 0.08333333333333333 0.08333333333333333 0.08333333333333333 0.08333333333333333 0.08333333333333333 0.08333333333333333 0.08333333333333333 0.08333333333333333 0.08333333333333333 0.08333333333333333 0.08333333333333333 0.08333333333333333 0.08333333333333333 0.08333333333333333 0.08333333333333333 0.08333333333333333 0.08333333333333333 0.08333333333333333 0.08333333333333333 0.08333333333333333 0.08333333333333333 0.08333333333333333 0.08333333333333333 0.08333333333333333 0.08333333333333333 0.08333333333333333 0.08333333333333333 0.08333333333333333 0.08333333333333333 0.08333333333333333 0.08333333333333333 0.08333333333333333 0.08333333333333333 0.08333333333333333 0.08333333333333333 0.08333333333333333 0.08333333333333333 0.08333333333333333 0.08333333333333333 0.08333333333333333 0.08333333333333333 0.08333333333333333 0.08333333333333333 0.08333333333333333 0.08333333333333333 0.08333333333333333 0.08333333333333333 0.08333333333333333 0.0006720430107526881 0.0006720430107526881 0.0006720430107526881 0.0006720430107526881 0.0006720430107526881 0.0006720430107526881 0.0006720430107526881 0.4522849462365591 0.2748655913978495 0.0006720430107526881 0.0006720430107526881 0.2668010752688172 0.0004340277777777776 0.0004340277777777776 0.0004340277777777776 0.0004340277777777776 0.0004340277777777776 0.0004340277777777776 0.0004340277777777776 0.333767361111111 0.3702256944444444 0.0004340277777777776 0.0004340277777777776 0.2921006944444444 0.002083333333333333 0.002083333333333333 0.002083333333333333 0.002083333333333333 0.002083333333333333 0.002083333333333333 0.002083333333333333 0.3020833333333334 0.3270833333333334 0.002083333333333333 0.002083333333333333 0.3520833333333334 0.08333333333333333 0.08333333333333333 0.08333333333333333 0.08333333333333333 0.08333333333333333 0.08333333333333333 0.08333333333333333 0.08333333333333333 0.08333333333333333 0.08333333333333333 0.08333333333333333 0.08333333333333333 0.08333333333333333 0.08333333333333333 0.08333333333333333 0.08333333333333333 0.08333333333333333 0.08333333333333333 0.08333333333333333 0.08333333333333333 0.08333333333333333 0.08333333333333333 0.08333333333333333 0.08333333333333333 0.08333333333333333 0.08333333333333333 0.08333333333333333 0.08333333333333333 0.08333333333333333 0.08333333333333333 0.08333333333333333 0.08333333333333333 0.08333333333333333 0.08333333333333333 0.08333333333333333 0.08333333333333333 0.02009728622631848 0.0001280081925243216 0.0001280081925243216 0.1506656426011265 0.123015873015873 0.1322324628776242 0.0001280081925243216 0.0938300051203277 0.009344598054275474 0.03545826932923707 0.3150281618023554 0.1199436763952893 0.1897703745529832 4.705439488048183e-05 4.705439488048183e-05 0.1118482966309053 0.07909843779408997 0.06046489742141915 4.705439488048183e-05 0.06554677206851119 0.0435253152644457 0.01698663655185394 0.2931018257105213 0.1395162808206286 0.006471209720021128 0.0001320655044902271 0.0001320655044902271 0.02548864236661383 0.008055995773903854 0.09838880084521921 0.06352350765979925 0.09046487057580559 0.001716851558372952 0.004886423666138404 0.5738246170100368 0.1269149498151083 0.000541125541125541 0.000541125541125541 0.000541125541125541 0.000541125541125541 0.000541125541125541 0.007034632034632032 0.000541125541125541 0.007034632034632032 0.000541125541125541 0.000541125541125541 0.9745670995670994 0.007034632034632032 0.0009157509157509158 0.0009157509157509158 0.0009157509157509158 0.0009157509157509158 0.0009157509157509158 0.0009157509157509158 0.0009157509157509158 0.0009157509157509158 0.0009157509157509158 0.0009157509157509158 0.98992673992674 0.0009157509157509158 0.001082251082251082 0.001082251082251082 0.001082251082251082 0.001082251082251082 0.001082251082251082 0.001082251082251082 0.001082251082251082 0.001082251082251082 0.001082251082251082 0.001082251082251082 0.9880952380952382 0.001082251082251082 0.0611359126984127 0.0001240079365079365 0.0001240079365079365 0.0001240079365079365 0.0001240079365079365 0.1861359126984127 0.3022073412698413 0.05667162698412698 0.0001240079365079365 0.0001240079365079365 0.1638144841269841 0.2292906746031746 0.07278233685033214 9.769441187964045e-05 9.769441187964045e-05 9.769441187964045e-05 9.769441187964045e-05 0.1595349745994529 0.1864986322782337 0.1923602969910121 9.769441187964045e-05 9.769441187964045e-05 0.2052559593591246 0.1829816334505666 0.001980354879594423 7.921419518377693e-05 7.921419518377693e-05 7.921419518377693e-05 7.921419518377693e-05 0.07707541191381495 0.07232256020278834 0.06186628643852978 7.921419518377693e-05 7.921419518377693e-05 0.4915240811153359 0.294756020278834 0.001633986928104575 0.001633986928104575 0.001633986928104575 0.001633986928104575 0.001633986928104575 0.001633986928104575 0.001633986928104575 0.001633986928104575 0.001633986928104575 0.001633986928104575 0.7663398692810457 0.2173202614379085 0.04166666666666667 0.04166666666666667 0.04166666666666667 0.04166666666666667 0.04166666666666667 0.04166666666666667 0.04166666666666667 0.04166666666666667 0.04166666666666667 0.04166666666666667 0.5416666666666667 0.04166666666666667 0.04166666666666667 0.04166666666666667 0.04166666666666667 0.04166666666666667 0.04166666666666667 0.04166666666666667 0.04166666666666667 0.04166666666666667 0.04166666666666667 0.04166666666666667 0.5416666666666667 0.04166666666666667 0.002688172043010753 0.002688172043010753 0.002688172043010753 0.002688172043010753 0.196236559139785 0.2930107526881721 0.002688172043010753 0.4220430107526883 0.002688172043010753 0.002688172043010753 0.06720430107526884 0.002688172043010753 0.0003703703703703703 0.0003703703703703703 0.0003703703703703703 0.004814814814814813 0.08037037037037036 0.4759259259259258 0.0003703703703703703 0.1159259259259259 0.0003703703703703703 0.0003703703703703703 0.3203703703703703 0.0003703703703703703 0.0008865248226950354 0.0008865248226950354 0.0008865248226950354 0.1285460992907801 0.04343971631205673 0.4370567375886525 0.0008865248226950354 0.05407801418439716 0.0008865248226950354 0.0008865248226950354 0.3306737588652482 0.0008865248226950354 0.0007861635220125787 0.0007861635220125787 0.0007861635220125787 0.08569182389937109 0.0007861635220125787 0.05738993710691825 0.0007861635220125787 0.0007861635220125787 0.0007861635220125787 0.0007861635220125787 0.8498427672955976 0.0007861635220125787 0.0009578544061302683 0.0009578544061302683 0.0009578544061302683 0.02394636015325671 0.02394636015325671 0.01245210727969349 0.0009578544061302683 0.01245210727969349 0.0009578544061302683 0.0009578544061302683 0.9204980842911878 0.0009578544061302683 0.001893939393939394 0.001893939393939394 0.001893939393939394 0.09280303030303032 0.2746212121212122 0.115530303030303 0.001893939393939394 0.0700757575757576 0.001893939393939394 0.001893939393939394 0.4337121212121213 0.001893939393939394 0.002314814814814813 0.002314814814814813 0.9745370370370365 0.002314814814814813 0.002314814814814813 0.002314814814814813 0.002314814814814813 0.002314814814814813 0.002314814814814813 0.002314814814814813 0.002314814814814813 0.002314814814814813 0.001068376068376069 0.001068376068376069 0.9882478632478637 0.001068376068376069 0.001068376068376069 0.001068376068376069 0.001068376068376069 0.001068376068376069 0.001068376068376069 0.001068376068376069 0.001068376068376069 0.001068376068376069 0.0005868544600938963 0.0005868544600938963 0.9935446009389666 0.0005868544600938963 0.0005868544600938963 0.0005868544600938963 0.0005868544600938963 0.0005868544600938963 0.0005868544600938963 0.0005868544600938963 0.0005868544600938963 0.0005868544600938963 0.04166666666666669 0.04166666666666669 0.5416666666666669 0.04166666666666669 0.04166666666666669 0.04166666666666669 0.04166666666666669 0.04166666666666669 0.04166666666666669 0.04166666666666669 0.04166666666666669 0.04166666666666669 0.08333333333333333 0.08333333333333333 0.08333333333333333 0.08333333333333333 0.08333333333333333 0.08333333333333333 0.08333333333333333 0.08333333333333333 0.08333333333333333 0.08333333333333333 0.08333333333333333 0.08333333333333333 0.08333333333333333 0.08333333333333333 0.08333333333333333 0.08333333333333333 0.08333333333333333 0.08333333333333333 0.08333333333333333 0.08333333333333333 0.08333333333333333 0.08333333333333333 0.08333333333333333 0.08333333333333333 0.01666666666666667 0.01666666666666667 0.01666666666666667 0.01666666666666667 0.01666666666666667 0.01666666666666667 0.01666666666666667 0.01666666666666667 0.01666666666666667 0.01666666666666667 0.01666666666666667 0.8166666666666667 0.001984126984126984 0.001984126984126984 0.001984126984126984 0.001984126984126984 0.001984126984126984 0.2876984126984127 0.001984126984126984 0.001984126984126984 0.001984126984126984 0.001984126984126984 0.001984126984126984 0.6924603174603174 0.0004480286738351253 0.0004480286738351253 0.0004480286738351253 0.0004480286738351253 0.0004480286738351253 0.9574372759856629 0.0004480286738351253 0.0004480286738351253 0.0004480286738351253 0.0004480286738351253 0.0004480286738351253 0.03808243727598565 0.08333333333333333 0.08333333333333333 0.08333333333333333 0.08333333333333333 0.08333333333333333 0.08333333333333333 0.08333333333333333 0.08333333333333333 0.08333333333333333 0.08333333333333333 0.08333333333333333 0.08333333333333333 0.08333333333333333 0.08333333333333333 0.08333333333333333 0.08333333333333333 0.08333333333333333 0.08333333333333333 0.08333333333333333 0.08333333333333333 0.08333333333333333 0.08333333333333333 0.08333333333333333 0.08333333333333333 0.08333333333333333 0.08333333333333333 0.08333333333333333 0.08333333333333333 0.08333333333333333 0.08333333333333333 0.08333333333333333 0.08333333333333333 0.08333333333333333 0.08333333333333333 0.08333333333333333 0.08333333333333333 0.02320153761669412 0.0001372872048325096 0.0001372872048325096 0.06768259198242724 0.0001372872048325096 0.0001372872048325096 0.0001372872048325096 0.03638110928061505 0.0001372872048325096 0.03473366282262493 0.5207303679297089 0.3164470071389346 0.04076250753465943 7.53465943339361e-05 7.53465943339361e-05 0.1411241711874623 7.53465943339361e-05 0.01182941531042797 7.53465943339361e-05 0.1790988547317661 7.53465943339361e-05 0.03805003013863773 0.2930229053646775 0.2957353827606992 0.03919440424505547 0.000120598166907863 0.000120598166907863 0.04498311625663289 0.000120598166907863 0.2215388326097443 0.000120598166907863 0.264954172696575 0.000120598166907863 0.03774722624216111 0.06524360829715388 0.3257356488181379 0.003472222222222221 0.003472222222222221 0.003472222222222221 0.003472222222222221 0.003472222222222221 0.5034722222222221 0.003472222222222221 0.003472222222222221 0.003472222222222221 0.003472222222222221 0.003472222222222221 0.4618055555555555 0.04166666666666666 0.04166666666666666 0.04166666666666666 0.04166666666666666 0.04166666666666666 0.04166666666666666 0.04166666666666666 0.04166666666666666 0.04166666666666666 0.04166666666666666 0.04166666666666666 0.5416666666666666 0.08333333333333333 0.08333333333333333 0.08333333333333333 0.08333333333333333 0.08333333333333333 0.08333333333333333 0.08333333333333333 0.08333333333333333 0.08333333333333333 0.08333333333333333 0.08333333333333333 0.08333333333333333 7.974481658692186e-05 0.07854864433811803 7.974481658692186e-05 0.02208931419457736 7.974481658692186e-05 0.2374003189792664 7.974481658692186e-05 0.1072567783094099 7.974481658692186e-05 0.02591706539074961 0.3015151515151516 0.2268740031897927 7.008690776562937e-05 0.03455284552845529 7.008690776562937e-05 0.008480515839641154 7.008690776562937e-05 0.1480936361087749 7.008690776562937e-05 0.1312727782450238 7.008690776562937e-05 0.009321558732828708 0.4281609195402298 0.2397673114662181 0.0002276867030965392 0.002959927140255009 0.0002276867030965392 0.0002276867030965392 0.0002276867030965392 0.06580145719489983 0.0002276867030965392 0.2188069216757741 0.0002276867030965392 0.0002276867030965392 0.5685336976320584 0.142304189435337 0.001190476190476191 0.001190476190476191 0.001190476190476191 0.001190476190476191 0.001190476190476191 0.001190476190476191 0.001190476190476191 0.001190476190476191 0.001190476190476191 0.001190476190476191 0.9869047619047621 0.001190476190476191 0.00462962962962963 0.00462962962962963 0.00462962962962963 0.00462962962962963 0.00462962962962963 0.00462962962962963 0.00462962962962963 0.00462962962962963 0.00462962962962963 0.00462962962962963 0.9490740740740742 0.00462962962962963 0.0006561679790026248 0.0006561679790026248 0.0006561679790026248 0.0006561679790026248 0.0006561679790026248 0.0006561679790026248 0.0006561679790026248 0.0006561679790026248 0.0006561679790026248 0.0006561679790026248 0.9927821522309713 0.0006561679790026248 0.005952380952380952 0.005952380952380952 0.005952380952380952 0.005952380952380952 0.005952380952380952 0.005952380952380952 0.005952380952380952 0.005952380952380952 0.005952380952380952 0.005952380952380952 0.9345238095238095 0.005952380952380952 0.0004930966469428008 0.0004930966469428008 0.0004930966469428008 0.0004930966469428008 0.0004930966469428008 0.4087771203155819 0.0004930966469428008 0.0004930966469428008 0.0004930966469428008 0.0004930966469428008 0.5862919132149902 0.0004930966469428008 0.0004930966469428008 0.0004930966469428008 0.0004930966469428008 0.0004930966469428008 0.0004930966469428008 0.5626232741617357 0.0004930966469428008 0.0004930966469428008 0.0004930966469428008 0.0004930966469428008 0.4324457593688363 0.0004930966469428008 0.0002723311546840958 0.0002723311546840958 0.0002723311546840958 0.0002723311546840958 0.0002723311546840958 0.0002723311546840958 0.4872004357298474 0.0002723311546840958 0.0002723311546840958 0.0002723311546840958 0.0002723311546840958 0.5100762527233115 0.0002072968490878939 0.0002072968490878939 0.0002072968490878939 0.0002072968490878939 0.0002072968490878939 0.0002072968490878939 0.05493366500829188 0.0002072968490878939 0.0002072968490878939 0.0002072968490878939 0.8783167495854064 0.06488391376451079 0.08333333333333333 0.08333333333333333 0.08333333333333333 0.08333333333333333 0.08333333333333333 0.08333333333333333 0.08333333333333333 0.08333333333333333 0.08333333333333333 0.08333333333333333 0.08333333333333333 0.08333333333333333 0.08333333333333333 0.08333333333333333 0.08333333333333333 0.08333333333333333 0.08333333333333333 0.08333333333333333 0.08333333333333333 0.08333333333333333 0.08333333333333333 0.08333333333333333 0.08333333333333333 0.08333333333333333 0.08333333333333333 0.08333333333333333 0.08333333333333333 0.08333333333333333 0.08333333333333333 0.08333333333333333 0.08333333333333333 0.08333333333333333 0.08333333333333333 0.08333333333333333 0.08333333333333333 0.08333333333333333 0.08333333333333333 0.08333333333333333 0.08333333333333333 0.08333333333333333 0.08333333333333333 0.08333333333333333 0.08333333333333333 0.08333333333333333 0.08333333333333333 0.08333333333333333 0.08333333333333333 0.08333333333333333 0.08333333333333333 0.08333333333333333 0.08333333333333333 0.08333333333333333 0.08333333333333333 0.08333333333333333 0.08333333333333333 0.08333333333333333 0.08333333333333333 0.08333333333333333 0.08333333333333333 0.08333333333333333 0.08333333333333333 0.08333333333333333 0.08333333333333333 0.08333333333333333 0.08333333333333333 0.08333333333333333 0.08333333333333333 0.08333333333333333 0.08333333333333333 0.08333333333333333 0.08333333333333333 0.08333333333333333 0.08333333333333333 0.08333333333333333 0.08333333333333333 0.08333333333333333 0.08333333333333333 0.08333333333333333 0.08333333333333333 0.08333333333333333 0.08333333333333333 0.08333333333333333 0.08333333333333333 0.08333333333333333 0.08333333333333333 0.08333333333333333 0.08333333333333333 0.08333333333333333 0.08333333333333333 0.08333333333333333 0.08333333333333333 0.08333333333333333 0.08333333333333333 0.08333333333333333 0.08333333333333333 0.08333333333333333 0.08333333333333333 0.08333333333333333 0.08333333333333333 0.08333333333333333 0.08333333333333333 0.08333333333333333 0.08333333333333333 0.08333333333333333 0.08333333333333333 0.08333333333333333 0.08333333333333333 0.08333333333333333 0.08333333333333333 0.08333333333333333 0.08333333333333333 0.08333333333333333 0.08333333333333333 0.08333333333333333 0.08333333333333333 0.08333333333333333 0.08333333333333333 0.08333333333333333 0.08333333333333333 0.08333333333333333 0.08333333333333333 0.08333333333333333 0.08333333333333333 0.08333333333333333 0.08333333333333333 0.08333333333333333 0.08333333333333333 0.08333333333333333 0.08333333333333333 0.08333333333333333 0.08333333333333333 0.08333333333333333 0.08333333333333333 0.08333333333333333 0.08333333333333333 0.08333333333333333 0.08333333333333333 0.08333333333333333 0.08333333333333333 0.08333333333333333 0.08333333333333333 0.08333333333333333 0.08333333333333333 0.08333333333333333 0.08333333333333333 0.08333333333333333 0.08333333333333333 0.08333333333333333 0.08333333333333333 0.08333333333333333 0.08333333333333333 0.08333333333333333 0.08333333333333333 0.08333333333333333 0.08333333333333333 0.08333333333333333 0.0006944444444444447 0.0006944444444444447 0.9923611111111115 0.0006944444444444447 0.0006944444444444447 0.0006944444444444447 0.0006944444444444447 0.0006944444444444447 0.0006944444444444447 0.0006944444444444447 0.0006944444444444447 0.0006944444444444447 0.000356125356125356 0.000356125356125356 0.9960826210826208 0.000356125356125356 0.000356125356125356 0.000356125356125356 0.000356125356125356 0.000356125356125356 0.000356125356125356 0.000356125356125356 0.000356125356125356 0.000356125356125356 0.0001258811681772406 0.0001258811681772406 0.9986153071500499 0.0001258811681772406 0.0001258811681772406 0.0001258811681772406 0.0001258811681772406 0.0001258811681772406 0.0001258811681772406 0.0001258811681772406 0.0001258811681772406 0.0001258811681772406 0.01190476190476191 0.01190476190476191 0.8690476190476193 0.01190476190476191 0.01190476190476191 0.01190476190476191 0.01190476190476191 0.01190476190476191 0.01190476190476191 0.01190476190476191 0.01190476190476191 0.01190476190476191 0.0001178689297501178 0.0001178689297501178 0.9987034417727483 0.0001178689297501178 0.0001178689297501178 0.0001178689297501178 0.0001178689297501178 0.0001178689297501178 0.0001178689297501178 0.0001178689297501178 0.0001178689297501178 0.0001178689297501178 0.08333333333333333 0.08333333333333333 0.08333333333333333 0.08333333333333333 0.08333333333333333 0.08333333333333333 0.08333333333333333 0.08333333333333333 0.08333333333333333 0.08333333333333333 0.08333333333333333 0.08333333333333333 0.08333333333333333 0.08333333333333333 0.08333333333333333 0.08333333333333333 0.08333333333333333 0.08333333333333333 0.08333333333333333 0.08333333333333333 0.08333333333333333 0.08333333333333333 0.08333333333333333 0.08333333333333333 0.08333333333333333 0.08333333333333333 0.08333333333333333 0.08333333333333333 0.08333333333333333 0.08333333333333333 0.08333333333333333 0.08333333333333333 0.08333333333333333 0.08333333333333333 0.08333333333333333 0.08333333333333333 0.08333333333333333 0.08333333333333333 0.08333333333333333 0.08333333333333333 0.08333333333333333 0.08333333333333333 0.08333333333333333 0.08333333333333333 0.08333333333333333 0.08333333333333333 0.08333333333333333 0.08333333333333333 0.08333333333333333 0.08333333333333333 0.08333333333333333 0.08333333333333333 0.08333333333333333 0.08333333333333333 0.08333333333333333 0.08333333333333333 0.08333333333333333 0.08333333333333333 0.08333333333333333 0.08333333333333333 0.08333333333333333 0.08333333333333333 0.08333333333333333 0.08333333333333333 0.08333333333333333 0.08333333333333333 0.08333333333333333 0.08333333333333333 0.08333333333333333 0.08333333333333333 0.08333333333333333 0.08333333333333333 0.08333333333333333 0.08333333333333333 0.08333333333333333 0.08333333333333333 0.08333333333333333 0.08333333333333333 0.08333333333333333 0.08333333333333333 0.08333333333333333 0.08333333333333333 0.08333333333333333 0.08333333333333333 0.08333333333333333 0.08333333333333333 0.08333333333333333 0.08333333333333333 0.08333333333333333 0.08333333333333333 0.08333333333333333 0.08333333333333333 0.08333333333333333 0.08333333333333333 0.08333333333333333 0.08333333333333333 0.08333333333333333 0.08333333333333333 0.08333333333333333 0.08333333333333333 0.08333333333333333 0.08333333333333333 0.08333333333333333 0.08333333333333333 0.08333333333333333 0.08333333333333333 0.08333333333333333 0.08333333333333333 0.08333333333333333 0.08333333333333333 0.08333333333333333 0.08333333333333333 0.08333333333333333 0.08333333333333333 0.08333333333333333 0.08333333333333333 0.08333333333333333 0.08333333333333333 0.08333333333333333 0.08333333333333333 0.08333333333333333 0.08333333333333333 0.08333333333333333 0.08333333333333333 0.08333333333333333 0.08333333333333333 0.08333333333333333 0.08333333333333333 0.08333333333333333 0.08333333333333333 0.08333333333333333 0.08333333333333333 0.08333333333333333 0.08333333333333333 0.08333333333333333 0.08333333333333333 0.08333333333333333 0.08333333333333333 0.08333333333333333 0.08333333333333333 0.08333333333333333 0.08333333333333333 0.08333333333333333 0.08333333333333333 0.08333333333333333 0.08333333333333333 0.08333333333333333 0.08333333333333333 0.08333333333333333 0.08333333333333333 0.08333333333333333 0.08333333333333333 0.08333333333333333 0.08333333333333333 0.08333333333333333 0.08333333333333333 0.08333333333333333 0.08333333333333333 0.08333333333333333 0.08333333333333333 0.08333333333333333 0.08333333333333333 0.08333333333333333 0.08333333333333333 0.08333333333333333 0.08333333333333333 0.08333333333333333 0.08333333333333333 0.08333333333333333 0.08333333333333333 0.08333333333333333 0.08333333333333333 0.08333333333333333 0.08333333333333333 0.08333333333333333 0.08333333333333333 0.08333333333333333 0.08333333333333333 0.08333333333333333 0.08333333333333333 0.08333333333333333 0.08333333333333333 0.08333333333333333 0.08333333333333333 0.08333333333333333 0.08333333333333333 0.08333333333333333 0.08333333333333333 0.08333333333333333 0.08333333333333333 0.08333333333333333 0.08333333333333333 0.08333333333333333 0.08333333333333333 0.08333333333333333 0.08333333333333333 0.08333333333333333 0.08333333333333333 0.08333333333333333 0.08333333333333333 0.08333333333333333 0.08333333333333333 0.08333333333333333 0.08333333333333333 0.08333333333333333 0.08333333333333333 0.08333333333333333 0.08333333333333333 0.08333333333333333 0.08333333333333333 0.08333333333333333 0.08333333333333333 0.08333333333333333 0.08333333333333333 0.08333333333333333 0.08333333333333333 0.08333333333333333 0.08333333333333333 0.08333333333333333 0.08333333333333333 0.08333333333333333 0.08333333333333333 0.08333333333333333 0.08333333333333333 0.08333333333333333 0.08333333333333333 0.08333333333333333 0.08333333333333333 0.0005307855626326964 0.0005307855626326964 0.0005307855626326964 0.34447983014862 0.0005307855626326964 0.4272823779193206 0.0005307855626326964 0.0005307855626326964 0.0005307855626326964 0.0005307855626326964 0.2234607218683652 0.0005307855626326964 0.0002913752913752914 0.0002913752913752914 0.0002913752913752914 0.3324592074592074 0.0002913752913752914 0.321969696969697 0.0002913752913752914 0.0002913752913752914 0.0002913752913752914 0.0002913752913752914 0.342948717948718 0.0002913752913752914 0.0003320053120849933 0.0003320053120849933 0.0003320053120849933 0.74535192563081 0.0003320053120849933 0.09993359893758297 0.0003320053120849933 0.0003320053120849933 0.0003320053120849933 0.0003320053120849933 0.1517264276228419 0.0003320053120849933 0.08333333333333333 0.08333333333333333 0.08333333333333333 0.08333333333333333 0.08333333333333333 0.08333333333333333 0.08333333333333333 0.08333333333333333 0.08333333333333333 0.08333333333333333 0.08333333333333333 0.08333333333333333 0.01666666666666667 0.01666666666666667 0.01666666666666667 0.01666666666666667 0.2166666666666667 0.01666666666666667 0.01666666666666667 0.6166666666666669 0.01666666666666667 0.01666666666666667 0.01666666666666667 0.01666666666666667 0.0007575757575757575 0.0007575757575757575 0.0007575757575757575 0.0007575757575757575 0.5280303030303031 0.0007575757575757575 0.0007575757575757575 0.4643939393939394 0.0007575757575757575 0.0007575757575757575 0.0007575757575757575 0.0007575757575757575 0.08333333333333333 0.08333333333333333 0.08333333333333333 0.08333333333333333 0.08333333333333333 0.08333333333333333 0.08333333333333333 0.08333333333333333 0.08333333333333333 0.08333333333333333 0.08333333333333333 0.08333333333333333 0.08333333333333333 0.08333333333333333 0.08333333333333333 0.08333333333333333 0.08333333333333333 0.08333333333333333 0.08333333333333333 0.08333333333333333 0.08333333333333333 0.08333333333333333 0.08333333333333333 0.08333333333333333 0.08333333333333333 0.08333333333333333 0.08333333333333333 0.08333333333333333 0.08333333333333333 0.08333333333333333 0.08333333333333333 0.08333333333333333 0.08333333333333333 0.08333333333333333 0.08333333333333333 0.08333333333333333 0.08333333333333333 0.08333333333333333 0.08333333333333333 0.08333333333333333 0.08333333333333333 0.08333333333333333 0.08333333333333333 0.08333333333333333 0.08333333333333333 0.08333333333333333 0.08333333333333333 0.08333333333333333 0.08333333333333333 0.08333333333333333 0.08333333333333333 0.08333333333333333 0.08333333333333333 0.08333333333333333 0.08333333333333333 0.08333333333333333 0.08333333333333333 0.08333333333333333 0.08333333333333333 0.08333333333333333 0.08333333333333333 0.08333333333333333 0.08333333333333333 0.08333333333333333 0.08333333333333333 0.08333333333333333 0.08333333333333333 0.08333333333333333 0.08333333333333333 0.08333333333333333 0.08333333333333333 0.08333333333333333 0.00308641975308642 0.00308641975308642 0.00308641975308642 0.00308641975308642 0.2623456790123457 0.1512345679012346 0.00308641975308642 0.3364197530864198 0.00308641975308642 0.00308641975308642 0.2253086419753087 0.00308641975308642 0.0004901960784313725 0.0004901960784313725 0.0004901960784313725 0.01225490196078432 0.1122549019607843 0.1946078431372549 0.0004901960784313725 0.171078431372549 0.0004901960784313725 0.0004901960784313725 0.5063725490196078 0.0004901960784313725 0.0002805836139169472 0.0002805836139169472 0.0002805836139169472 0.02721661054994388 0.03058361391694725 0.05415263748597082 0.0002805836139169472 0.6366442199775533 0.0002805836139169472 0.0002805836139169472 0.2494388327721661 0.0002805836139169472 0.00595238095238095 0.00595238095238095 0.00595238095238095 0.5059523809523808 0.00595238095238095 0.4345238095238094 0.00595238095238095 0.00595238095238095 0.00595238095238095 0.00595238095238095 0.00595238095238095 0.00595238095238095 0.0138888888888889 0.0138888888888889 0.0138888888888889 0.8472222222222225 0.0138888888888889 0.0138888888888889 0.0138888888888889 0.0138888888888889 0.0138888888888889 0.0138888888888889 0.0138888888888889 0.0138888888888889 0.002525252525252525 0.002525252525252525 0.002525252525252525 0.154040404040404 0.1843434343434343 0.1843434343434343 0.002525252525252525 0.3055555555555556 0.002525252525252525 0.002525252525252525 0.154040404040404 0.002525252525252525 0.00173611111111111 0.00173611111111111 0.9809027777777775 0.00173611111111111 0.00173611111111111 0.00173611111111111 0.00173611111111111 0.00173611111111111 0.00173611111111111 0.00173611111111111 0.00173611111111111 0.00173611111111111 0.001436781609195402 0.001436781609195402 0.9841954022988502 0.001436781609195402 0.001436781609195402 0.001436781609195402 0.001436781609195402 0.001436781609195402 0.001436781609195402 0.001436781609195402 0.001436781609195402 0.001436781609195402 0.0138888888888889 0.0138888888888889 0.8472222222222225 0.0138888888888889 0.0138888888888889 0.0138888888888889 0.0138888888888889 0.0138888888888889 0.0138888888888889 0.0138888888888889 0.0138888888888889 0.0138888888888889 0.08333333333333333 0.08333333333333333 0.08333333333333333 0.08333333333333333 0.08333333333333333 0.08333333333333333 0.08333333333333333 0.08333333333333333 0.08333333333333333 0.08333333333333333 0.08333333333333333 0.08333333333333333 0.08333333333333333 0.08333333333333333 0.08333333333333333 0.08333333333333333 0.08333333333333333 0.08333333333333333 0.08333333333333333 0.08333333333333333 0.08333333333333333 0.08333333333333333 0.08333333333333333 0.08333333333333333 0.08333333333333333 0.08333333333333333 0.08333333333333333 0.08333333333333333 0.08333333333333333 0.08333333333333333 0.08333333333333333 0.08333333333333333 0.08333333333333333 0.08333333333333333 0.08333333333333333 0.08333333333333333 0.08333333333333333 0.08333333333333333 0.08333333333333333 0.08333333333333333 0.08333333333333333 0.08333333333333333 0.08333333333333333 0.08333333333333333 0.08333333333333333 0.08333333333333333 0.08333333333333333 0.08333333333333333 0.007575757575757577 0.007575757575757577 0.007575757575757577 0.007575757575757577 0.007575757575757577 0.007575757575757577 0.007575757575757577 0.3712121212121213 0.007575757575757577 0.007575757575757577 0.5530303030303031 0.007575757575757577 0.001004016064257028 0.001004016064257028 0.001004016064257028 0.001004016064257028 0.001004016064257028 0.001004016064257028 0.001004016064257028 0.4588353413654618 0.001004016064257028 0.001004016064257028 0.5311244979919678 0.001004016064257028 0.001488095238095238 0.001488095238095238 0.001488095238095238 0.001488095238095238 0.001488095238095238 0.001488095238095238 0.001488095238095238 0.5014880952380952 0.001488095238095238 0.001488095238095238 0.4836309523809524 0.001488095238095238 0.007575757575757574 0.007575757575757574 0.007575757575757574 0.007575757575757574 0.007575757575757574 0.007575757575757574 0.007575757575757574 0.2803030303030303 0.007575757575757574 0.007575757575757574 0.6439393939393938 0.007575757575757574 0.0009259259259259257 0.0009259259259259257 0.0009259259259259257 0.0009259259259259257 0.0009259259259259257 0.4453703703703704 0.0009259259259259257 0.1009259259259259 0.0009259259259259257 0.0009259259259259257 0.4453703703703704 0.0009259259259259257 0.08333333333333333 0.08333333333333333 0.08333333333333333 0.08333333333333333 0.08333333333333333 0.08333333333333333 0.08333333333333333 0.08333333333333333 0.08333333333333333 0.08333333333333333 0.08333333333333333 0.08333333333333333 0.08333333333333333 0.08333333333333333 0.08333333333333333 0.08333333333333333 0.08333333333333333 0.08333333333333333 0.08333333333333333 0.08333333333333333 0.08333333333333333 0.08333333333333333 0.08333333333333333 0.08333333333333333 0.08333333333333333 0.08333333333333333 0.08333333333333333 0.08333333333333333 0.08333333333333333 0.08333333333333333 0.08333333333333333 0.08333333333333333 0.08333333333333333 0.08333333333333333 0.08333333333333333 0.08333333333333333 0.08333333333333333 0.08333333333333333 0.08333333333333333 0.08333333333333333 0.08333333333333333 0.08333333333333333 0.08333333333333333 0.08333333333333333 0.08333333333333333 0.08333333333333333 0.08333333333333333 0.08333333333333333 0.08333333333333333 0.08333333333333333 0.08333333333333333 0.08333333333333333 0.08333333333333333 0.08333333333333333 0.08333333333333333 0.08333333333333333 0.08333333333333333 0.08333333333333333 0.08333333333333333 0.08333333333333333 0.08333333333333333 0.08333333333333333 0.08333333333333333 0.08333333333333333 0.08333333333333333 0.08333333333333333 0.08333333333333333 0.08333333333333333 0.08333333333333333 0.08333333333333333 0.08333333333333333 0.08333333333333333 0.08333333333333333 0.08333333333333333 0.08333333333333333 0.08333333333333333 0.08333333333333333 0.08333333333333333 0.08333333333333333 0.08333333333333333 0.08333333333333333 0.08333333333333333 0.08333333333333333 0.08333333333333333 0.08333333333333333 0.08333333333333333 0.08333333333333333 0.08333333333333333 0.08333333333333333 0.08333333333333333 0.08333333333333333 0.08333333333333333 0.08333333333333333 0.08333333333333333 0.08333333333333333 0.08333333333333333 0.08333333333333333 0.08333333333333333 0.08333333333333333 0.08333333333333333 0.08333333333333333 0.08333333333333333 0.08333333333333333 0.08333333333333333 0.08333333333333333 0.08333333333333333 0.08333333333333333 0.08333333333333333 0.08333333333333333 0.08333333333333333 0.08333333333333333 0.08333333333333333 0.08333333333333333 0.08333333333333333 0.08333333333333333 0.08333333333333333 0.08333333333333333 0.08333333333333333 0.08333333333333333 0.08333333333333333 0.08333333333333333 0.08333333333333333 0.08333333333333333 0.08333333333333333 0.08333333333333333 0.08333333333333333 0.08333333333333333 0.08333333333333333 0.08333333333333333 0.08333333333333333 0.08333333333333333 0.08333333333333333 0.08333333333333333 0.08333333333333333 0.08333333333333333 0.08333333333333333 0.08333333333333333 0.08333333333333333 0.08333333333333333 0.08333333333333333 0.08333333333333333 0.08333333333333333 0.08333333333333333 0.08333333333333333 0.0003894080996884735 0.0003894080996884735 0.0003894080996884735 0.1172118380062305 0.08917445482866042 0.0003894080996884735 0.0003894080996884735 0.1452492211838006 0.0003894080996884735 0.1312305295950155 0.4349688473520248 0.07982866043613707 0.0001815541031227306 0.0001815541031227306 0.0001815541031227306 0.07207697893972405 0.05464778503994191 0.0001815541031227306 0.0001815541031227306 0.07643427741466959 0.0001815541031227306 0.07861292665214235 0.6450617283950617 0.07207697893972405 0.0003132832080200501 0.0003132832080200501 0.0003132832080200501 0.004072681704260651 0.01911027568922306 0.0003132832080200501 0.0003132832080200501 0.2070802005012531 0.0003132832080200501 0.01535087719298245 0.7221177944862155 0.03038847117794486 0.01666666666666667 0.01666666666666667 0.01666666666666667 0.01666666666666667 0.01666666666666667 0.01666666666666667 0.01666666666666667 0.01666666666666667 0.01666666666666667 0.01666666666666667 0.8166666666666668 0.01666666666666667 0.08333333333333333 0.08333333333333333 0.08333333333333333 0.08333333333333333 0.08333333333333333 0.08333333333333333 0.08333333333333333 0.08333333333333333 0.08333333333333333 0.08333333333333333 0.08333333333333333 0.08333333333333333 0.08333333333333333 0.08333333333333333 0.08333333333333333 0.08333333333333333 0.08333333333333333 0.08333333333333333 0.08333333333333333 0.08333333333333333 0.08333333333333333 0.08333333333333333 0.08333333333333333 0.08333333333333333 0.0850542758803283 6.619009796134497e-05 6.619009796134497e-05 6.619009796134497e-05 6.619009796134497e-05 0.089025681758009 0.2621789780248874 0.1565395816785809 6.619009796134497e-05 6.619009796134497e-05 0.2478819168652369 0.1589224252051893 0.05404252017380509 3.879577901924271e-05 3.879577901924271e-05 0.07592333954065798 3.879577901924271e-05 0.08104438237119801 0.1913795779019243 0.2137259466170081 3.879577901924271e-05 3.879577901924271e-05 0.3180090006207325 0.06568125387957791 6.797172376291462e-05 6.797172376291462e-05 6.797172376291462e-05 0.004961935834692768 6.797172376291462e-05 0.08081837955410549 0.1574904839586732 0.2610793909733551 6.797172376291462e-05 6.797172376291462e-05 0.3010467645459489 0.1941952147906471 0.005952380952380952 0.005952380952380952 0.005952380952380952 0.005952380952380952 0.005952380952380952 0.07738095238095237 0.1488095238095238 0.005952380952380952 0.005952380952380952 0.005952380952380952 0.4345238095238095 0.2916666666666666 0.08333333333333333 0.08333333333333333 0.08333333333333333 0.08333333333333333 0.08333333333333333 0.08333333333333333 0.08333333333333333 0.08333333333333333 0.08333333333333333 0.08333333333333333 0.08333333333333333 0.08333333333333333 0.04166666666666667 0.04166666666666667 0.04166666666666667 0.04166666666666667 0.04166666666666667 0.04166666666666667 0.04166666666666667 0.04166666666666667 0.04166666666666667 0.04166666666666667 0.5416666666666667 0.04166666666666667 0.08333333333333333 0.08333333333333333 0.08333333333333333 0.08333333333333333 0.08333333333333333 0.08333333333333333 0.08333333333333333 0.08333333333333333 0.08333333333333333 0.08333333333333333 0.08333333333333333 0.08333333333333333 0.08333333333333333 0.08333333333333333 0.08333333333333333 0.08333333333333333 0.08333333333333333 0.08333333333333333 0.08333333333333333 0.08333333333333333 0.08333333333333333 0.08333333333333333 0.08333333333333333 0.08333333333333333 0.08333333333333333 0.08333333333333333 0.08333333333333333 0.08333333333333333 0.08333333333333333 0.08333333333333333 0.08333333333333333 0.08333333333333333 0.08333333333333333 0.08333333333333333 0.08333333333333333 0.08333333333333333 0.08333333333333333 0.08333333333333333 0.08333333333333333 0.08333333333333333 0.08333333333333333 0.08333333333333333 0.08333333333333333 0.08333333333333333 0.08333333333333333 0.08333333333333333 0.08333333333333333 0.08333333333333333 0.08333333333333333 0.08333333333333333 0.08333333333333333 0.08333333333333333 0.08333333333333333 0.08333333333333333 0.08333333333333333 0.08333333333333333 0.08333333333333333 0.08333333333333333 0.08333333333333333 0.08333333333333333 0.08333333333333333 0.08333333333333333 0.08333333333333333 0.08333333333333333 0.08333333333333333 0.08333333333333333 0.08333333333333333 0.08333333333333333 0.08333333333333333 0.08333333333333333 0.08333333333333333 0.08333333333333333 0.0003030303030303032 0.0003030303030303032 0.9966666666666671 0.0003030303030303032 0.0003030303030303032 0.0003030303030303032 0.0003030303030303032 0.0003030303030303032 0.0003030303030303032 0.0003030303030303032 0.0003030303030303032 0.0003030303030303032 0.0004208754208754207 0.0004208754208754207 0.99537037037037 0.0004208754208754207 0.0004208754208754207 0.0004208754208754207 0.0004208754208754207 0.0004208754208754207 0.0004208754208754207 0.0004208754208754207 0.0004208754208754207 0.0004208754208754207 0.0006561679790026249 0.0006561679790026249 0.9927821522309715 0.0006561679790026249 0.0006561679790026249 0.0006561679790026249 0.0006561679790026249 0.0006561679790026249 0.0006561679790026249 0.0006561679790026249 0.0006561679790026249 0.0006561679790026249 0.08333333333333333 0.08333333333333333 0.08333333333333333 0.08333333333333333 0.08333333333333333 0.08333333333333333 0.08333333333333333 0.08333333333333333 0.08333333333333333 0.08333333333333333 0.08333333333333333 0.08333333333333333 0.08333333333333333 0.08333333333333333 0.08333333333333333 0.08333333333333333 0.08333333333333333 0.08333333333333333 0.08333333333333333 0.08333333333333333 0.08333333333333333 0.08333333333333333 0.08333333333333333 0.08333333333333333 0.08333333333333333 0.08333333333333333 0.08333333333333333 0.08333333333333333 0.08333333333333333 0.08333333333333333 0.08333333333333333 0.08333333333333333 0.08333333333333333 0.08333333333333333 0.08333333333333333 0.08333333333333333 0.08333333333333333 0.08333333333333333 0.08333333333333333 0.08333333333333333 0.08333333333333333 0.08333333333333333 0.08333333333333333 0.08333333333333333 0.08333333333333333 0.08333333333333333 0.08333333333333333 0.08333333333333333 0.00595238095238095 0.00595238095238095 0.00595238095238095 0.00595238095238095 0.00595238095238095 0.9345238095238093 0.00595238095238095 0.00595238095238095 0.00595238095238095 0.00595238095238095 0.00595238095238095 0.00595238095238095 0.000559284116331096 0.000559284116331096 0.000559284116331096 0.000559284116331096 0.000559284116331096 0.9938478747203576 0.000559284116331096 0.000559284116331096 0.000559284116331096 0.000559284116331096 0.000559284116331096 0.000559284116331096 0.02777777777777777 0.02777777777777777 0.02777777777777777 0.02777777777777777 0.02777777777777777 0.6944444444444443 0.02777777777777777 0.02777777777777777 0.02777777777777777 0.02777777777777777 0.02777777777777777 0.02777777777777777 0.08333333333333333 0.08333333333333333 0.08333333333333333 0.08333333333333333 0.08333333333333333 0.08333333333333333 0.08333333333333333 0.08333333333333333 0.08333333333333333 0.08333333333333333 0.08333333333333333 0.08333333333333333 0.08333333333333333 0.08333333333333333 0.08333333333333333 0.08333333333333333 0.08333333333333333 0.08333333333333333 0.08333333333333333 0.08333333333333333 0.08333333333333333 0.08333333333333333 0.08333333333333333 0.08333333333333333 0.2891414141414141 0.001262626262626263 0.001262626262626263 0.3194444444444444 0.001262626262626263 0.001262626262626263 0.001262626262626263 0.1982323232323233 0.001262626262626263 0.1830808080808081 0.001262626262626263 0.001262626262626263 0.3050766283524904 0.0004789272030651341 0.0004789272030651341 0.2131226053639847 0.0004789272030651341 0.0004789272030651341 0.0004789272030651341 0.1728927203065134 0.0004789272030651341 0.3050766283524904 0.0004789272030651341 0.0004789272030651341 0.3117816091954023 0.001436781609195402 0.001436781609195402 0.1910919540229885 0.001436781609195402 0.001436781609195402 0.001436781609195402 0.08764367816091953 0.001436781609195402 0.3979885057471264 0.001436781609195402 0.001436781609195402 0.08333333333333333 0.08333333333333333 0.08333333333333333 0.08333333333333333 0.08333333333333333 0.08333333333333333 0.08333333333333333 0.08333333333333333 0.08333333333333333 0.08333333333333333 0.08333333333333333 0.08333333333333333 0.08333333333333333 0.08333333333333333 0.08333333333333333 0.08333333333333333 0.08333333333333333 0.08333333333333333 0.08333333333333333 0.08333333333333333 0.08333333333333333 0.08333333333333333 0.08333333333333333 0.08333333333333333 0.08333333333333333 0.08333333333333333 0.08333333333333333 0.08333333333333333 0.08333333333333333 0.08333333333333333 0.08333333333333333 0.08333333333333333 0.08333333333333333 0.08333333333333333 0.08333333333333333 0.08333333333333333 0.0008960573476702508 0.0008960573476702508 0.0008960573476702508 0.0008960573476702508 0.0008960573476702508 0.4202508960573477 0.0008960573476702508 0.0008960573476702508 0.0008960573476702508 0.0008960573476702508 0.0008960573476702508 0.5707885304659498 0.0006265664160401003 0.0006265664160401003 0.0006265664160401003 0.0006265664160401003 0.0006265664160401003 0.4968671679197996 0.0006265664160401003 0.0006265664160401003 0.0006265664160401003 0.0006265664160401003 0.0006265664160401003 0.4968671679197996 0.00308641975308642 0.00308641975308642 0.00308641975308642 0.00308641975308642 0.00308641975308642 0.7067901234567903 0.00308641975308642 0.00308641975308642 0.00308641975308642 0.00308641975308642 0.00308641975308642 0.2623456790123457 0.08333333333333333 0.08333333333333333 0.08333333333333333 0.08333333333333333 0.08333333333333333 0.08333333333333333 0.08333333333333333 0.08333333333333333 0.08333333333333333 0.08333333333333333 0.08333333333333333 0.08333333333333333 0.08333333333333333 0.08333333333333333 0.08333333333333333 0.08333333333333333 0.08333333333333333 0.08333333333333333 0.08333333333333333 0.08333333333333333 0.08333333333333333 0.08333333333333333 0.08333333333333333 0.08333333333333333 0.08333333333333333 0.08333333333333333 0.08333333333333333 0.08333333333333333 0.08333333333333333 0.08333333333333333 0.08333333333333333 0.08333333333333333 0.08333333333333333 0.08333333333333333 0.08333333333333333 0.08333333333333333 5.09683995922528e-05 0.005555555555555556 5.09683995922528e-05 0.004332313965341488 0.04164118246687053 0.1853720693170234 0.00310907237512742 0.05693170234454638 0.06549439347604484 0.06610601427115188 0.3291029561671763 0.2422528032619775 2.864672854360032e-05 0.1203449066116649 2.864672854360032e-05 0.04678010771169933 0.1093445628509224 0.1815343187807953 0.06293686261028991 0.08906267904205339 0.02821702761544631 0.02409189870516787 0.2722871548069211 0.06534318780795234 2.809620139357159e-05 0.0549842661272196 2.809620139357159e-05 0.04689256012587099 0.002051022701730726 0.1534333558102944 0.06712182512924253 0.1062317374690942 0.03644077320746235 2.809620139357159e-05 0.3263935715891211 0.2063665992357833 0.0002037489812550937 0.0002037489812550937 0.0002037489812550937 0.005093724531377342 0.0002037489812550937 0.3180521597392013 0.002648736756316218 0.005093724531377342 0.002648736756316218 0.0002037489812550937 0.5772208638956804 0.08822330888345557 0.0003787878787878787 0.0003787878787878787 0.0003787878787878787 0.0003787878787878787 0.0003787878787878787 0.2458333333333333 0.0003787878787878787 0.0003787878787878787 0.0003787878787878787 0.0003787878787878787 0.6685606060606061 0.08219696969696969 0.0002270663033605812 0.0002270663033605812 0.0002270663033605812 0.0002270663033605812 0.0002270663033605812 0.4034968210717529 0.0002270663033605812 0.0002270663033605812 0.0002270663033605812 0.0002270663033605812 0.4634423251589463 0.1310172570390554 0.04394977168949772 0.0001141552511415525 0.0001141552511415525 0.0001141552511415525 0.0001141552511415525 0.1795662100456621 0.2658675799086758 0.0001141552511415525 0.1494292237442922 0.0001141552511415525 0.2795662100456621 0.08093607305936074 0.07507053607416364 0.0001007658202337767 0.0001007658202337767 0.0001007658202337767 0.0001007658202337767 0.2044538492543329 0.2201733172108021 0.006146715034260378 0.07748891575977428 0.0001007658202337767 0.3374647319629182 0.0786981056025796 0.002433800623052959 9.735202492211836e-05 9.735202492211836e-05 9.735202492211836e-05 9.735202492211836e-05 0.119256230529595 0.1029010903426791 0.1215926791277258 9.735202492211836e-05 9.735202492211836e-05 0.6017328660436138 0.05149922118380063 0.0002853881278538814 0.0002853881278538814 0.0002853881278538814 0.0002853881278538814 0.0002853881278538814 0.9043949771689501 0.0002853881278538814 0.003710045662100458 0.0002853881278538814 0.0002853881278538814 0.08932648401826487 0.0002853881278538814 0.007575757575757577 0.007575757575757577 0.007575757575757577 0.007575757575757577 0.007575757575757577 0.5530303030303031 0.007575757575757577 0.007575757575757577 0.007575757575757577 0.007575757575757577 0.3712121212121213 0.007575757575757577 0.02777777777777777 0.02777777777777777 0.02777777777777777 0.02777777777777777 0.02777777777777777 0.02777777777777777 0.02777777777777777 0.02777777777777777 0.02777777777777777 0.02777777777777777 0.6944444444444443 0.02777777777777777 0.0001256913021618904 0.0001256913021618904 0.0001256913021618904 0.02124183006535947 0.04386626445449975 0.007667169431875313 0.0001256913021618904 0.205253896430367 0.0001256913021618904 0.0001256913021618904 0.683383609854198 0.03783308195072901 0.0001163873370577281 0.0001163873370577281 0.0001163873370577281 0.02804934823091248 0.09089851024208567 0.03922253258845438 0.0001163873370577281 0.3115689013035383 0.0001163873370577281 0.0001163873370577281 0.4707867783985103 0.05877560521415271 0.0001504211793020457 0.0001504211793020457 0.0001504211793020457 0.03264139590854392 0.02722623345367028 0.03444645006016847 0.0001504211793020457 0.3846269554753309 0.0001504211793020457 0.0001504211793020457 0.5145908543922985 0.005565583634175693 0.0003320053120849933 0.0003320053120849933 0.0003320053120849933 0.02822045152722443 0.0003320053120849933 0.01626826029216467 0.0003320053120849933 0.0003320053120849933 0.0003320053120849933 0.0003320053120849933 0.952523240371846 0.0003320053120849933 0.0007861635220125787 0.0007861635220125787 0.0007861635220125787 0.01022012578616352 0.0007861635220125787 0.02908805031446541 0.0007861635220125787 0.0007861635220125787 0.0007861635220125787 0.0007861635220125787 0.953616352201258 0.0007861635220125787 0.0004125412541254124 0.0004125412541254124 0.0004125412541254124 0.04496699669966996 0.0004125412541254124 0.02516501650165016 0.0004125412541254124 0.0004125412541254124 0.0004125412541254124 0.0004125412541254124 0.9261551155115511 0.0004125412541254124 0.002976190476190477 0.002976190476190477 0.967261904761905 0.002976190476190477 0.002976190476190477 0.002976190476190477 0.002976190476190477 0.002976190476190477 0.002976190476190477 0.002976190476190477 0.002976190476190477 0.002976190476190477 0.001302083333333333 0.001302083333333333 0.9856770833333331 0.001302083333333333 0.001302083333333333 0.001302083333333333 0.001302083333333333 0.001302083333333333 0.001302083333333333 0.001302083333333333 0.001302083333333333 0.001302083333333333 0.0005827505827505823 0.0005827505827505823 0.9935897435897431 0.0005827505827505823 0.0005827505827505823 0.0005827505827505823 0.0005827505827505823 0.0005827505827505823 0.0005827505827505823 0.0005827505827505823 0.0005827505827505823 0.0005827505827505823 0.08333333333333333 0.08333333333333333 0.08333333333333333 0.08333333333333333 0.08333333333333333 0.08333333333333333 0.08333333333333333 0.08333333333333333 0.08333333333333333 0.08333333333333333 0.08333333333333333 0.08333333333333333 0.08333333333333333 0.08333333333333333 0.08333333333333333 0.08333333333333333 0.08333333333333333 0.08333333333333333 0.08333333333333333 0.08333333333333333 0.08333333333333333 0.08333333333333333 0.08333333333333333 0.08333333333333333 0.08333333333333333 0.08333333333333333 0.08333333333333333 0.08333333333333333 0.08333333333333333 0.08333333333333333 0.08333333333333333 0.08333333333333333 0.08333333333333333 0.08333333333333333 0.08333333333333333 0.08333333333333333 0.0001071122536418166 0.024528706083976 0.0001071122536418166 0.0001071122536418166 0.0001071122536418166 0.2276135389888603 0.01553127677806341 0.002677806341045415 0.1312125107112254 0.0001071122536418166 0.0001071122536418166 0.5977934875749785 4.842146039124539e-05 0.0953418555103622 4.842146039124539e-05 4.842146039124539e-05 4.842146039124539e-05 0.2109723029246562 0.0488572535347666 0.002953709083865969 0.04420879333720704 4.842146039124539e-05 0.005277939182645749 0.59214603912454 7.589556769884636e-05 0.1749392835458409 7.589556769884636e-05 0.03650576806314511 7.589556769884636e-05 0.09570431086824527 0.1421523982999393 0.03741651487553126 7.589556769884636e-05 7.589556769884636e-05 0.03195203400121432 0.4809502125075895 0.0003805175038051749 0.1464992389649924 0.0003805175038051749 0.3885083713850836 0.0003805175038051749 0.0003805175038051749 0.1054033485540335 0.1054033485540335 0.0003805175038051749 0.0003805175038051749 0.09627092846270925 0.1556316590563166 0.001041666666666667 0.05104166666666667 0.001041666666666667 0.6635416666666668 0.001041666666666667 0.001041666666666667 0.01354166666666667 0.1260416666666667 0.001041666666666667 0.001041666666666667 0.06354166666666668 0.07604166666666667 0.0003132832080200501 0.007832080200501253 0.0003132832080200501 0.6582080200501252 0.0003132832080200501 0.1243734335839599 0.004072681704260651 0.03790726817042606 0.0003132832080200501 0.0003132832080200501 0.1619674185463659 0.004072681704260651 0.0001270325203252032 0.0001270325203252032 0.0001270325203252032 0.2272611788617886 0.0001270325203252032 0.1830538617886179 0.0001270325203252032 0.07939532520325204 0.09006605691056911 0.05348069105691058 0.193724593495935 0.1723831300813008 6.915629322268326e-05 6.915629322268326e-05 6.915629322268326e-05 0.1693637621023513 6.915629322268326e-05 0.09716459197786997 6.915629322268326e-05 0.2540110650069156 0.08056708160442599 0.01998616874135546 0.1809820193637621 0.1975795297372061 0.0002234137622877569 0.0002234137622877569 0.0002234137622877569 0.06456657730116176 0.0002234137622877569 0.00290437890974084 0.0002234137622877569 0.6302502234137625 0.02703306523681859 0.0002234137622877569 0.1181858802502234 0.1557193923145666 0.04166666666666666 0.04166666666666666 0.04166666666666666 0.04166666666666666 0.04166666666666666 0.04166666666666666 0.04166666666666666 0.04166666666666666 0.04166666666666666 0.04166666666666666 0.04166666666666666 0.5416666666666666 0.08333333333333333 0.08333333333333333 0.08333333333333333 0.08333333333333333 0.08333333333333333 0.08333333333333333 0.08333333333333333 0.08333333333333333 0.08333333333333333 0.08333333333333333 0.08333333333333333 0.08333333333333333 0.08333333333333333 0.08333333333333333 0.08333333333333333 0.08333333333333333 0.08333333333333333 0.08333333333333333 0.08333333333333333 0.08333333333333333 0.08333333333333333 0.08333333333333333 0.08333333333333333 0.08333333333333333 0.0001381978993919292 0.0001381978993919292 0.0001381978993919292 0.03993919292426755 0.0001381978993919292 0.1046158098396904 0.0001381978993919292 0.006771697070204532 0.0001381978993919292 0.04657269209508015 0.6435876174682145 0.1576838032061913 5.889281507656065e-05 5.889281507656065e-05 5.889281507656065e-05 0.008539458186101296 5.889281507656065e-05 0.1590694935217903 5.889281507656065e-05 0.07426383981154298 5.889281507656065e-05 0.03751472320376914 0.5272673733804476 0.1929917550058892 0.0001075268817204301 0.0001075268817204301 0.0001075268817204301 0.0001075268817204301 0.0001075268817204301 0.2581720430107527 0.0001075268817204301 0.09043010752688171 0.0001075268817204301 0.1523655913978494 