<?xml version="1.0" encoding="UTF-8"?>
<!-- This network was created in GeNIe Academic, which can be used for academic teaching and research purposes only -->
<smile version="1.0" id="tanb_mushroom_discretized" numsamples="10000" discsamples="10000">
	<nodes>
		<cpt id="class" diagtype="target">
			<state id="State0" />
			<state id="State1" fault="true" />
			<probabilities>0.4508189136670677 0.5491810863329324</probabilities>
		</cpt>
		<cpt id="stem_width" diagtype="observation" ranked="true">
			<state id="stemw_below_135" />
			<state id="stemw_135_400" />
			<state id="stemw_400_825" />
			<state id="stemw_825_1075" />
			<state id="stemw_1075_1450" />
			<state id="stemw_1450_1850" />
			<state id="stemw_1850_up" />
			<parents>class</parents>
			<probabilities>0.04819376026272578 0.1082512315270936 0.1805418719211823 0.1243021346469622 0.184072249589491 0.1605911330049261 0.1940476190476191 0.1091154170176917 0.2012131423757371 0.2597472620050548 0.06402695871946083 0.1555855096882898 0.1013647851727043 0.1089469250210615</probabilities>
		</cpt>
		<cpt id="cap_diameter" diagtype="observation" ranked="true">
			<state id="capd_below_180" />
			<state id="capd_180_480" />
			<state id="capd_480_825" />
			<state id="capd_825_1200" />
			<state id="capd_1200_1550" />
			<state id="capd_1550_up" />
			<parents>stem_width class</parents>
			<probabilities>0.9992907801418437 0.0001418439716312056 0.0001418439716312056 0.0001418439716312056 0.0001418439716312056 0.0001418439716312056 0.6737161675414225 0.3035401873006073 0.02258927652567666 5.145621076463931e-05 5.145621076463931e-05 5.145621076463931e-05 0.3006696992671216 0.6611700783421786 0.03797068486226941 6.31791761435431e-05 6.31791761435431e-05 6.31791761435431e-05 0.4144619334672917 0.5847566421076131 0.0006977003795490064 2.790801518196025e-05 2.790801518196025e-05 2.790801518196025e-05 0.009812836250663027 0.7815791467757822 0.2082670303856937 0.0002652117905584602 3.78873986512086e-05 3.78873986512086e-05 0.06008129026678773 0.6605482769057811 0.2771003588878799 0.002226834435940676 2.161975180524927e-05 2.161975180524927e-05 5.502366017387477e-05 0.3622207549246177 0.5570045119401345 0.0802795201936833 0.0003851656212171235 5.502366017387477e-05 0.001139751008241276 0.09372260213922497 0.8275469051376468 0.07688935647904611 0.0006137120813606874 8.767315448009819e-05 3.716090672612411e-05 0.107506503158677 0.7549981419546635 0.128465254552211 0.008955778520995911 3.716090672612411e-05 0.0009022664934314999 0.1403565757182041 0.6111231413310234 0.230005774505558 0.01757615129204562 3.609065973725999e-05 4.25930658488798e-05 0.0263651077604566 0.3959025470653378 0.4286140216372775 0.1319107249339807 0.01716500553709856 0.0006648936170212766 0.06316489361702128 0.526595744680851 0.3108377659574468 0.09507978723404255 0.003656914893617021 3.525098702763677e-05 0.02562746756909193 0.2688592780597857 0.5029963338973491 0.1298998871968415 0.07258178228990411 0.0009279307145066502 0.05258274048871018 0.1376430559851531 0.4618001855861429 0.2220847510052583 0.1249613362202289</probabilities>
		</cpt>
		<cpt id="gill_attachment" diagtype="observation" ranked="true">
			<state id="State0" />
			<state id="State1" />
			<state id="State2" />
			<state id="State3" />
			<state id="State4" />
			<state id="State5" />
			<state id="State6" />
			<parents>stem_width class</parents>
			<probabilities>0.9405471124620063 0.05884498480243162 0.000121580547112462 0.000121580547112462 0.000121580547112462 0.000121580547112462 0.000121580547112462 0.6724738675958186 0.1090283597230185 4.410532351254795e-05 0.2180126141225245 4.410532351254795e-05 0.0003528425881003836 4.410532351254795e-05 0.6243907722300444 0.1141557456947904 5.415357955160836e-05 5.415357955160836e-05 5.415357955160836e-05 5.415357955160836e-05 0.2612368677569587 0.6280355049405459 0.09060458884608943 0.05911907553173673 0.001674761346508123 0.009043711271143862 0.05895159939708591 0.15257075866689 0.4092769440654843 0.3753979081400636 0.004547521600727604 0.07776261937244201 0.002955889040472942 0.08776716689404275 0.04229195088676671 0.3706538661131292 0.2649195640892579 0.04359107420861442 0.04449922158796056 0.03879086663207058 0.08873897249610793 0.1488064348728594 0.07529722589167767 0.1017173051519155 0.2513210039630119 0.01684280052840158 0.1717305151915456 0.2133421400264201 0.1697490092470277 0.1578868264823026 0.4135417449462689 0.02848125046967762 0.003231381979409334 7.514841812579846e-05 0.2262718869767792 0.1705117607274367 0.1672613737734166 0.1306868867082962 0.22992863514719 0.04727921498661909 0.278099910793934 0.08496877787689563 0.06177520071364853 0.2770197097682478 0.2287199480181936 0.1509638293264024 0.03617067359757418 0.0002165908598657137 0.1080788390729911 0.1988304093567251 0.2213701431492843 0.1574642126789366 0.2188139059304704 0.05214723926380369 0.1730572597137015 0.04856850715746422 0.1285787321063395 0.2682845744680851 0.1090425531914894 0.1103723404255319 0.0581781914893617 0.002659574468085106 0.2470079787234042 0.2044547872340426 0.3122487835836683 0.1161413158451449 0.006346519991537973 0.06219589591707213 0.181510471757986 0.1829913264226782 0.1385656864819124 0.1119703062171358 0.2598206000618621 0.001237240952675534 0.164553046705846 0.3458088462728117 0.03557067738942159 0.08103928240024745</probabilities>
		</cpt>
		<cpt id="cap_shape" diagtype="observation" ranked="true">
			<state id="State0" />
			<state id="State1" />
			<state id="State2" />
			<state id="State3" />
			<state id="State4" />
			<state id="State5" />
			<state id="State6" />
			<parents>gill_attachment class</parents>
			<probabilities>0.09146341463414635 0.06021341463414635 0.273119918699187 0.0235010162601626 0.0429369918699187 0.06770833333333334 0.4410569105691057 0.2556143241134137 0.05159108644758519 0.1056966964363132 0.07543570623428422 0.04040579207491546 0.03529003728431458 0.4359663574091737 3.500542584100535e-05 3.500542584100535e-05 0.3070675954772989 3.500542584100535e-05 3.500542584100535e-05 0.412188889277838 0.2806034935414989 0.007254558120540969 2.402171563093036e-05 0.2308967306445026 2.402171563093036e-05 2.402171563093036e-05 0.498090273607341 0.2636863724807226 5.29296564865294e-05 0.06489175885248505 0.07711850950087333 5.29296564865294e-05 0.1389932779336262 5.29296564865294e-05 0.7188376647435558 0.3889380175255245 8.03923144947343e-05 0.209984725460246 8.03923144947343e-05 0.09349626175737599 8.03923144947343e-05 0.3073398183133693 0.000129399585921325 0.1133540372670807 0.1215062111801242 0.1260351966873706 0.09886128364389234 0.4376293995859213 0.1024844720496894 7.363770250368188e-05 7.363770250368188e-05 0.06192930780559647 0.81759941089838 7.363770250368188e-05 0.05883652430044183 0.06141384388807069 4.308116491469929e-05 4.308116491469929e-05 4.308116491469929e-05 4.308116491469929e-05 0.02175598828192314 4.308116491469929e-05 0.9780286058935034 9.645992090286486e-05 9.645992090286486e-05 0.1553969325745153 9.645992090286486e-05 0.1175846435805923 0.1101572296710717 0.6165718144111122 0.07498698142683562 5.786032517502748e-05 0.6246022102644218 5.786032517502748e-05 5.786032517502748e-05 0.1195394318116068 0.1806977955216109 0.05491782553729457 5.056890012642225e-05 0.3126169405815423 5.056890012642225e-05 5.056890012642225e-05 5.056890012642225e-05 0.6322629582806574 0.1250063211125158 5.056890012642225e-05 0.2234134007585335 5.056890012642225e-05 5.056890012642225e-05 0.04394437420986094 0.6074841972187105 0.04263830951241195 0.08452437940231142 0.521336251111263 3.419271011420364e-05 3.419271011420364e-05 0.03019216303084182 0.3212405115229433</probabilities>
		</cpt>
		<cpt id="gill_color" diagtype="observation" ranked="true">
			<state id="State0" />
			<state id="State1" />
			<state id="State2" />
			<state id="State3" />
			<state id="State4" />
			<state id="State5" />
			<state id="State6" />
			<state id="State7" />
			<state id="State8" />
			<state id="State9" />
			<state id="State10" />
			<state id="State11" />
			<parents>gill_attachment class</parents>
			<probabilities>0.04484736864388839 0.02147635378297133 1.05846987594733e-05 0.1346479529192599 0.08574664465049324 0.08968415258901731 0.04383123756297894 0.04433930310343367 0.02287353401922181 0.02261950124899445 0.4222130488166306 0.06771031796435073 7.225015895034969e-06 0.03061239234726316 7.225015895034969e-06 0.103093751806254 0.07422258828969423 0.2634891046760303 0.02202907346396162 0.07292208542858794 0.03954251199352638 0.0259305820472805 0.2280287266631987 0.1401147332524131 0.04437229437229438 2.041983174058645e-05 2.041983174058645e-05 2.041983174058645e-05 2.041983174058645e-05 2.041983174058645e-05 0.2151637670505595 0.2004614881973373 0.04241199052519808 2.041983174058645e-05 0.4251613166707506 0.07230662419341664 0.04087495095566392 1.401266745137604e-05 1.401266745137604e-05 0.02843170225884199 1.401266745137604e-05 0.2387898660388992 0.1614399417073034 0.08997533770528558 1.401266745137604e-05 1.401266745137604e-05 0.2537553948769687 0.1866627431197803 3.087563295047548e-05 3.087563295047548e-05 3.087563295047548e-05 0.03078300605162406 0.0463443250586637 0.07857848585896011 3.087563295047548e-05 0.3175558848956404 3.087563295047548e-05 3.087563295047548e-05 0.5265221687044584 3.087563295047548e-05 4.689551678859501e-05 4.689551678859501e-05 4.689551678859501e-05 0.05688426186456575 0.06532545488651285 0.08558431813918591 4.689551678859501e-05 4.689551678859501e-05 4.689551678859501e-05 4.689551678859501e-05 0.7152973175764397 0.07658037891577565 7.548309178743965e-05 7.548309178743965e-05 0.9991696859903387 7.548309178743965e-05 7.548309178743965e-05 7.548309178743965e-05 7.548309178743965e-05 7.548309178743965e-05 7.548309178743965e-05 7.548309178743965e-05 7.548309178743965e-05 7.548309178743965e-05 4.295532646048112e-05 4.295532646048112e-05 0.9995274914089352 4.295532646048112e-05 4.295532646048112e-05 4.295532646048112e-05 4.295532646048112e-05 4.295532646048112e-05 4.295532646048112e-05 4.295532646048112e-05 4.295532646048112e-05 4.295532646048112e-05 2.513067953357459e-05 0.03319762766385204 2.513067953357459e-05 0.1064786891837555 2.513067953357459e-05 0.2165510655408123 2.513067953357459e-05 2.513067953357459e-05 0.0537042621632489 2.513067953357459e-05 0.01962706071572175 0.5702905106554081 5.626828719333785e-05 0.2046477605221697 5.626828719333785e-05 5.626828719333785e-05 5.626828719333785e-05 0.2384087328381725 0.1870920549178483 0.1168692325005627 5.626828719333785e-05 5.626828719333785e-05 0.1161940130542427 0.1364505964438443 0.07131767247198596 3.375185635209936e-05 3.375185635209936e-05 0.210240313217227 3.375185635209936e-05 0.07212771702443635 3.375185635209936e-05 0.06240718239503174 3.375185635209936e-05 0.07172269474821116 0.3941204266234643 0.1178952342378831 2.949852507374631e-05 2.949852507374631e-05 2.949852507374631e-05 0.1076401179941003 2.949852507374631e-05 0.1033923303834808 2.949852507374631e-05 0.3150737463126844 0.05879056047197641 0.03896755162241888 0.06622418879056048 0.30976401179941 2.949852507374631e-05 2.949852507374631e-05 2.949852507374631e-05 0.02445427728613569 2.949852507374631e-05 0.2191445427728613 2.949852507374631e-05 2.949852507374631e-05 2.949852507374631e-05 0.02941002949852507 0.6017994100294984 0.1249852507374631 1.99457475666188e-05 0.02969921812669539 1.99457475666188e-05 1.99457475666188e-05 1.99457475666188e-05 0.1113172171692995 1.99457475666188e-05 0.2005943832774852 0.02826312430189883 0.04214536460826552 0.3695747566618797 0.2183062071166428</probabilities>
		</cpt>
		<cpt id="stem_color" diagtype="observation" ranked="true">
			<state id="State0" />
			<state id="State1" />
			<state id="State2" />
			<state id="State3" />
			<state id="State4" />
			<state id="State5" />
			<state id="State6" />
			<state id="State7" />
			<state id="State8" />
			<state id="State9" />
			<state id="State10" />
			<state id="State11" />
			<state id="State12" />
			<parents>gill_color class</parents>
			<probabilities>0.1238775289408201 0.0001081899816077031 0.0001081899816077031 0.0001081899816077031 0.0001081899816077031 0.0001081899816077031 0.0001081899816077031 0.0001081899816077031 0.0001081899816077031 0.0001081899816077031 0.1238775289408201 0.7511630423022828 0.0001081899816077031 0.0003152585119798235 0.2544136191677175 0.0003152585119798235 0.1683480453972258 0.0003152585119798235 0.0003152585119798235 0.3937578814627996 0.0003152585119798235 0.0003152585119798235 0.1806431273644389 0.0003152585119798235 0.0003152585119798235 0.0003152585119798235 0.0002747252747252747 0.285989010989011 0.0002747252747252747 0.0002747252747252747 0.0002747252747252747 0.0002747252747252747 0.1931318681318681 0.3181318681318681 0.0002747252747252747 0.0002747252747252747 0.0002747252747252747 0.0002747252747252747 0.2002747252747253 9.84930562395351e-05 0.5788436915197478 9.84930562395351e-05 9.84930562395351e-05 9.84930562395351e-05 9.84930562395351e-05 0.08076430611641879 9.84930562395351e-05 9.84930562395351e-05 9.84930562395351e-05 0.1102137299320398 9.84930562395351e-05 0.2292918349256377 6.967670011148272e-05 6.967670011148272e-05 6.967670011148272e-05 6.967670011148272e-05 6.967670011148272e-05 6.967670011148272e-05 0.3596711259754738 0.1558667781493868 6.967670011148272e-05 6.967670011148272e-05 6.967670011148272e-05 6.967670011148272e-05 0.4837653288740246 3.965107057890563e-05 3.965107057890563e-05 0.3639571768437747 0.0881839809674861 3.965107057890563e-05 3.965107057890563e-05 0.2758128469468675 3.965107057890563e-05 3.965107057890563e-05 3.965107057890563e-05 3.965107057890563e-05 0.08973037272006341 0.1819984139571768 3.689356207341819e-05 3.689356207341819e-05 3.689356207341819e-05 0.2580704667035603 3.689356207341819e-05 3.689356207341819e-05 0.08588821250691754 3.689356207341819e-05 3.689356207341819e-05 3.689356207341819e-05 0.09548053864600627 0.5602287400848552 3.689356207341819e-05 4.360718646432933e-05 4.360718646432933e-05 4.360718646432933e-05 0.1298622012907727 0.02101866387580674 0.0249869178440607 0.3611547182975754 0.01705040990755276 4.360718646432933e-05 0.03065585208442351 0.09471480900052329 0.1457352171637886 0.1746467817896389 9.603380389897245e-05 9.603380389897245e-05 9.603380389897245e-05 9.603380389897245e-05 9.603380389897245e-05 9.603380389897245e-05 9.603380389897245e-05 9.603380389897245e-05 9.603380389897245e-05 9.603380389897245e-05 9.603380389897245e-05 0.9988475943532124 9.603380389897245e-05 7.905763301446753e-05 7.905763301446753e-05 7.905763301446753e-05 0.09463198671831764 0.03399478219622104 7.905763301446753e-05 0.4697604553719661 0.0453000237172899 7.905763301446753e-05 7.905763301446753e-05 7.905763301446753e-05 0.3155980709937544 0.04016127757134951 3.16035648821187e-05 0.07439479173250742 3.16035648821187e-05 0.07480563807597496 3.16035648821187e-05 3.16035648821187e-05 0.2892674293660325 0.03454269641615574 0.05426332090259781 3.16035648821187e-05 3.16035648821187e-05 0.4490866569749067 0.02344984514253208 1.344338988519345e-05 0.01329551259645632 1.344338988519345e-05 0.02867475062511763 0.02727663807705751 0.007178770198693303 0.6178044255639502 1.344338988519345e-05 1.344338988519345e-05 0.007178770198693303 0.01993654719974189 0.1718065227327723 0.1067942892479768 6.284565108094519e-05 0.08421317244846654 6.284565108094519e-05 6.284565108094519e-05 6.284565108094519e-05 6.284565108094519e-05 6.284565108094519e-05 0.1953242835595776 6.284565108094519e-05 6.284565108094519e-05 6.284565108094519e-05 0.7198340874811462 6.284565108094519e-05 5.155702206640545e-05 0.05635182511858115 5.155702206640545e-05 5.155702206640545e-05 5.155702206640545e-05 5.155702206640545e-05 0.05635182511858115 0.2245823881212621 5.155702206640545e-05 5.155702206640545e-05 0.05367085997112807 0.236646731284801 0.3720354712311817 3.530200868429414e-05 3.530200868429414e-05 3.530200868429414e-05 0.08310092844282839 3.530200868429414e-05 3.530200868429414e-05 0.4401454442757793 3.530200868429414e-05 3.530200868429414e-05 3.530200868429414e-05 0.07070992339464115 0.4057259858085925 3.530200868429414e-05 2.346646641948656e-05 0.01863237433707233 2.346646641948656e-05 0.05035903693621815 0.06012108696672457 2.346646641948656e-05 0.3621345097855166 2.346646641948656e-05 0.272445675130239 2.346646641948656e-05 2.346646641948656e-05 0.2361430515792933 2.346646641948656e-05 0.0001445922498554077 0.1580393290919607 0.0001445922498554077 0.0001445922498554077 0.0001445922498554077 0.197513013302487 0.0001445922498554077 0.0001445922498554077 0.0001445922498554077 0.2144303065355697 0.0001445922498554077 0.2520242914979757 0.1768363215731637 0.0001038098204090107 0.0001038098204090107 0.0001038098204090107 0.0001038098204090107 0.0001038098204090107 0.0001038098204090107 0.1121146060417316 0.0001038098204090107 0.0001038098204090107 0.1080660230457801 0.0001038098204090107 0.5088757396449705 0.2700093428838368 0.1937970912913965 0.0001752234098475556 0.0001752234098475556 0.0001752234098475556 0.0001752234098475556 0.0001752234098475556 0.0001752234098475556 0.0001752234098475556 0.0001752234098475556 0.0001752234098475556 0.2097424215875241 0.5947082530226039 0.0001752234098475556 0.0001312680493567866 0.0001312680493567866 0.0001312680493567866 0.107639800472565 0.0001312680493567866 0.0615647151483329 0.1468889472302442 0.0001312680493567866 0.0001312680493567866 0.0001312680493567866 0.4233394591756366 0.259516933578367 0.0001312680493567866 8.343971897502651e-06 8.343971897502651e-06 8.343971897502651e-06 0.07517918679649888 8.343971897502651e-06 8.343971897502651e-06 0.2563268166912814 0.009662319457308069 8.343971897502651e-06 8.343971897502651e-06 8.343971897502651e-06 0.5613490533763882 0.09741587190334343 1.051723775267664e-05 0.06003239309227826 0.04827412128478577 0.01463999495172588 1.051723775267664e-05 1.051723775267664e-05 0.2049599293241623 1.051723775267664e-05 1.051723775267664e-05 0.01368292631623231 0.006163101323068511 0.6097999621379442 0.04239498538103954 2.28665508094759e-05 0.02677673099789627 2.28665508094759e-05 2.28665508094759e-05 2.28665508094759e-05 2.28665508094759e-05 0.3329598463367786 0.05501692124759901 2.28665508094759e-05 2.28665508094759e-05 2.28665508094759e-05 0.3308789902131162 0.2541845787981341 1.585389054473968e-05 0.04247257276935761 1.585389054473968e-05 1.585389054473968e-05 0.03154924218403196 1.585389054473968e-05 0.2634123914008498 0.1197602891749636 1.585389054473968e-05 0.02227471621535925 0.02474792314033865 0.09008180607521088 0.4056217895871648</probabilities>
		</cpt>
		<cpt id="stem_height" diagtype="observation" ranked="true">
			<state id="stemh1_below_024" />
			<state id="stemh2_024_078" />
			<state id="stemh3_078_156" />
			<state id="stemh4_156_193" />
			<state id="stemh5_193_211" />
			<state id="stemh6_211_up" />
			<parents>stem_color class</parents>
			<probabilities>0.1906130268199234 0.5411877394636017 0.2653256704980843 0.0009578544061302683 0.0009578544061302683 0.0009578544061302683 0.1666666666666667 0.1666666666666667 0.1666666666666667 0.1666666666666667 0.1666666666666667 0.1666666666666667 0.3138528138528139 0.5754483611626471 0.1097711811997527 0.0003092145949288807 0.0003092145949288807 0.0003092145949288807 0.2376811594202899 0.4355072463768116 0.3152173913043478 0.01014492753623188 0.0007246376811594203 0.0007246376811594203 0.1666666666666667 0.1666666666666667 0.1666666666666667 0.1666666666666667 0.1666666666666667 0.1666666666666667 0.0001572327044025157 0.0001572327044025157 0.0001572327044025157 0.0001572327044025157 0.9992138364779872 0.0001572327044025157 0.2621734587251828 0.6339602925809822 0.1035527690700104 0.0001044932079414838 0.0001044932079414838 0.0001044932079414838 0.1231042271700548 0.5016134236850596 0.3341400451758632 0.03307518554372377 0.007905776056792511 0.0001613423685059696 0.1666666666666667 0.1666666666666667 0.1666666666666667 0.1666666666666667 0.1666666666666667 0.1666666666666667 0.1822645869439631 0.3382437897169267 0.478625072212594 0.0002888503755054882 0.0002888503755054882 0.0002888503755054882 0.6053459119496855 0.3883647798742138 0.001572327044025157 0.001572327044025157 0.001572327044025157 0.001572327044025157 0.6407103825136612 0.3456284153005464 0.009562841530054643 0.001366120218579235 0.001366120218579235 0.001366120218579235 0.2590027700831025 0.4797437673130194 0.2126038781163435 0.01679362880886427 0.004501385041551247 0.02735457063711911 0.1788259958071279 0.3553459119496855 0.3334381551362683 0.07327044025157232 0.0140461215932914 0.0450733752620545 0.3715560729530463 0.3506014745828483 0.2679472254559566 0.0083430345362825 0.001358168412883198 0.0001940240589833139 0.3664648503195426 0.2423477968382106 0.3886646485031954 0.002186343760511268 0.0001681802892700975 0.0001681802892700975 0.3471177944862156 0.4974937343358397 0.1516290726817043 0.001253132832080201 0.001253132832080201 0.001253132832080201 0.0359806114839672 0.604213273676361 0.3592468307233408 0.0001864280387770321 0.0001864280387770321 0.0001864280387770321 0.6101449275362318 0.3840579710144927 0.00144927536231884 0.00144927536231884 0.00144927536231884 0.00144927536231884 0.03309968847352024 0.9466510903426789 0.0190809968847352 0.0003894080996884734 0.0003894080996884734 0.0003894080996884734 0.2681023720349563 0.5696004993757805 0.1613607990012485 0.0003121098626716605 0.0003121098626716605 0.0003121098626716605 0.2394502516453736 0.3857917150600078 0.3312040263259776 0.03968253968253969 0.003677893921796361 0.0001935733643050716 0.2556671925599934 0.3749065847380221 0.2648841650751474 0.03520717429211991 0.01220626089844723 0.05712862243627003 0.1965192168237854 0.3182257674643462 0.2633550882281847 0.07952622673434856 0.05015711868503746 0.09221658206429781 0.3668002672010688 0.4978623914495659 0.133934535738143 0.001269205076820307 6.68002672010688e-05 6.68002672010688e-05 0.1693566217112536 0.3564006190581472 0.3964183064337829 0.0561574176431572 0.008622595622374531 0.01304443953128455</probabilities>
		</cpt>
		<cpt id="season" diagtype="observation" ranked="true">
			<state id="season1" />
			<state id="season2" />
			<state id="season3" />
			<state id="season4" />
			<parents>gill_attachment class</parents>
			<probabilities>0.06122967479674797 0.3465447154471545 0.4249237804878049 0.1673018292682927 0.04430763894910258 0.3899245642937657 0.5255354200988468 0.04023237665828492 6.125949522175937e-05 0.2931266846361186 0.49895858858123 0.2078534672874295 4.203800235412813e-05 0.4185723894400538 0.5347654279468639 0.0466201446107281 0.0374351371386212 0.4010378057820608 0.5233506300963676 0.03817642698295033 0.000140686550365785 0.5043612830613393 0.4919808666291503 0.003517163759144626 0.3200362647325476 0.1849501359927471 0.4805077062556664 0.01450589301903898 0.183599793708097 0.4203197524497164 0.2996389891696751 0.09644146467251161 7.539203860072376e-05 0.4433805790108564 0.556468636911942 7.539203860072376e-05 0.0001688048615800135 0.5936866981769076 0.3695138419986496 0.03663065496286293 0.0733387358184765 0.2811993517017828 0.5125607779578606 0.1329011345218801 8.849557522123894e-05 0.25 0.6308849557522124 0.1190265486725664 0.04213881019830028 0.3714589235127479 0.4861898016997168 0.1002124645892351 0.02782431785543322 0.4026448061273337 0.5694710387745333 5.983724269985639e-05</probabilities>
		</cpt>
	</nodes>
	<extensions>
		<genie version="1.0" app="GeNIe 4.1.4109.0 ACADEMIC" name="tanb_mushroom_discretized">
			<node id="cap_diameter">
				<name>cap-diameter</name>
				<interior color="e5f6f7" />
				<outline color="000080" />
				<font color="000000" name="Arial" size="8" />
				<position>436 54 508 102</position>
				<barchart active="true" width="128" height="126" />
			</node>
			<node id="cap_shape">
				<name>cap-shape</name>
				<interior color="e5f6f7" />
				<outline color="000080" />
				<font color="000000" name="Arial" size="8" />
				<position>612 218 684 266</position>
				<barchart active="true" width="128" height="144" />
			</node>
			<node id="gill_attachment">
				<name>gill-attachment</name>
				<interior color="e5f6f7" />
				<outline color="000080" />
				<font color="000000" name="Arial" size="8" />
				<position>329 298 401 346</position>
				<barchart active="true" width="128" height="144" />
			</node>
			<node id="gill_color">
				<name>gill-color</name>
				<interior color="e5f6f7" />
				<outline color="000080" />
				<font color="000000" name="Arial" size="8" />
				<position>90 279 162 327</position>
				<barchart active="true" width="128" height="234" />
			</node>
			<node id="stem_height">
				<name>stem-height</name>
				<interior color="e5f6f7" />
				<outline color="000080" />
				<font color="000000" name="Arial" size="8" />
				<position>181 505 253 553</position>
				<barchart active="true" width="128" height="126" />
			</node>
			<node id="stem_width">
				<name>stem-width</name>
				<interior color="e5f6f7" />
				<outline color="000080" />
				<font color="000000" name="Arial" size="8" />
				<position>187 56 259 104</position>
				<barchart active="true" width="128" height="144" />
			</node>
			<node id="stem_color">
				<name>stem-color</name>
				<interior color="e5f6f7" />
				<outline color="000080" />
				<font color="000000" name="Arial" size="8" />
				<position>526 469 598 517</position>
				<barchart active="true" width="128" height="252" />
			</node>
			<node id="season">
				<name>season</name>
				<interior color="e5f6f7" />
				<outline color="000080" />
				<font color="000000" name="Arial" size="8" />
				<position>700 44 772 92</position>
				<barchart active="true" width="128" height="90" />
			</node>
			<node id="class">
				<name>class</name>
				<interior color="ffff80" />
				<outline color="000080" />
				<font color="000000" name="Arial" size="8" />
				<position>901 272 973 320</position>
				<barchart active="true" width="128" height="64" />
			</node>
			<textbox>
				<caption>Input file: mushroom_discretized.gdat\nData rows: 54035\nElapsed time: 0.062s\n\nLearning algorithm: Tree Augmented Naive Bayes\nAlgorithm parameters:\nClass variable: class\nSeed: 0\nMax search time: 0\n\nEM Log Likelihood: -603288</caption>
				<font color="000000" name="Arial" size="8" />
				<position>876 57 1113 211</position>
			</textbox>
		</genie>
	</extensions>
</smile>
